{
  "schema": "wishuponablock.model.v1",
  "created_at": "2026-02-05T12:27:07.710007+00:00",
  "source": { "checkpoint": "checkpoints/epoch_240.pt", "epoch": 240 },
  "pieces": ["I", "O", "T", "S", "Z", "J", "L"],
  "board_channels": ["occupancy", "holes", "row_fill"],
  "model": {
    "input_channels": 3,
    "conv_channels": [16, 32, 64],
    "mlp_hidden": 64,
    "extra_features": 8,
    "num_outputs": 7
  },
  "params": {
    "conv.0.weight": {
      "shape": [16, 3, 3, 3],
      "data": [
        -0.1673697680234909, -1.0479828119277954, 0.5749018788337708,
        0.18998263776302338, -1.7906570434570312, 0.5406386256217957,
        -0.8405240774154663, 0.38710060715675354, -0.3000187277793884,
        1.0454933643341064, -0.03853391483426094, 1.0737769603729248,
        0.9563771486282349, -1.300052523612976, 0.6932968497276306,
        0.008119040168821812, -1.2423957586288452, 0.14115695655345917,
        0.016341831535100937, -0.03845337778329849, 0.5497422814369202,
        -0.0751337856054306, 0.15996922552585602, 0.47840800881385803,
        -0.16857190430164337, 0.11519713699817657, 0.1107541024684906,
        0.6337110996246338, -0.9131689667701721, 0.7568476796150208,
        -0.5940576791763306, -1.7216856479644775, 0.22394393384456635,
        0.24901917576789856, -1.121411681175232, 0.3865765631198883,
        1.0791724920272827, -1.2853389978408813, 0.6890419721603394,
        -0.21278339624404907, -0.8780126571655273, 0.5105281472206116,
        0.1591777801513672, -0.3783806264400482, 0.08062746375799179,
        -0.22022327780723572, 0.20213699340820312, 0.4429023265838623,
        -0.4097056984901428, -0.011372270993888378, 0.09297273308038712,
        0.0446392297744751, 0.26284849643707275, 0.3819771111011505,
        0.16626517474651337, 0.09305642545223236, -0.14816871285438538,
        0.04242190718650818, -0.18065640330314636, 0.015974875539541245,
        -0.05220222845673561, -0.17568042874336243, -0.16013382375240326,
        0.013899496756494045, 0.12707822024822235, -0.0862480103969574,
        -0.18251878023147583, -0.14549796283245087, 0.06949830800294876,
        0.0029543794225901365, -0.1760493665933609, -0.014941569417715073,
        -0.09665024280548096, 0.12307556718587875, -0.11063265800476074,
        -0.11546362936496735, 0.05079377442598343, -0.15130390226840973,
        -0.05509106442332268, -0.036616209894418716, 0.1543630212545395,
        0.2997456192970276, 0.337977796792984, -0.037190668284893036,
        -0.02878689020872116, -0.3733685314655304, -0.32713478803634644,
        -1.1052311658859253, -0.769559383392334, 0.2707061469554901,
        0.7843403816223145, 0.9752119779586792, -0.7761983871459961,
        -0.6516435742378235, 0.1212293952703476, -1.3894387483596802,
        0.7164765000343323, 1.5335650444030762, -2.2233104705810547,
        0.2644343674182892, -0.3539813458919525, 0.20623165369033813,
        0.10258900374174118, -0.1320200115442276, -0.03478454798460007,
        0.8777483105659485, -0.04029233008623123, 0.02912590466439724,
        -0.09401977062225342, 0.4001927971839905, -0.17637550830841064,
        -0.21927061676979065, 0.5167548656463623, -0.7724527716636658,
        -0.2926565408706665, 0.46768972277641296, -1.1634299755096436,
        0.5689574480056763, -0.04275844618678093, -0.702711284160614,
        -0.7512790560722351, -0.032484445720911026, -1.3473701477050781,
        -0.17195485532283783, 0.09647267311811447, -1.2275519371032715,
        0.18895353376865387, 0.16086339950561523, 0.3080269396305084,
        0.2333817481994629, 0.05634712427854538, -0.07338935881853104,
        0.22423319518566132, 0.1619347780942917, -0.04457217454910278,
        -0.3826652467250824, -1.7335513830184937, -1.1708180904388428,
        -0.5454450845718384, -2.053973436355591, -0.6200167536735535,
        0.15273801982402802, 0.507874071598053, 0.816162109375,
        -1.0291165113449097, -0.24673283100128174, -0.9461882710456848,
        -3.4292778968811035, -1.131767988204956, -2.324354648590088,
        -0.06145322322845459, 0.3414531648159027, -0.16516846418380737,
        0.17945152521133423, 0.005645816680043936, -0.026947034522891045,
        0.6024457216262817, 0.2803771197795868, 0.05723920091986656,
        0.5540099740028381, 0.2999137341976166, 0.46459734439849854,
        -0.45030856132507324, 0.2975369095802307, 0.6010630130767822,
        -1.0327426195144653, 0.5427768230438232, 0.14711973071098328,
        -0.15979866683483124, 0.1016201600432396, 0.13952359557151794,
        0.018002919852733612, -0.6341769099235535, -0.5321832299232483,
        0.11046578735113144, -0.6867935061454773, 0.3474324941635132,
        0.13459289073944092, -0.41347768902778625, 0.13974671065807343,
        -0.08375706523656845, 0.17827972769737244, 0.1806836724281311,
        -0.1339881867170334, -0.3600615859031677, -0.22198443114757538,
        -0.26818904280662537, -0.10571160912513733, 0.05503103509545326,
        -2.4336395263671875, 0.5173749327659607, -1.5200932025909424,
        -0.05707985907793045, 0.20525065064430237, 0.7745847105979919,
        -0.2349080592393875, 0.3798779547214508, 0.5611192584037781,
        -0.4664679169654846, -0.7911969423294067, -0.353887677192688,
        1.1442347764968872, -0.4119071066379547, -0.7435179948806763,
        -2.2726330757141113, 1.663666844367981, -0.6651751399040222,
        -2.4926958084106445, -0.689071536064148, -0.6329285502433777,
        -0.2608705461025238, -0.3007483184337616, -0.22961664199829102,
        -0.01530512049794197, -0.2689999043941498, -0.2052033692598343,
        0.06037826091051102, -0.18819662928581238, -0.08341293036937714,
        -0.12508095800876617, -0.22249895334243774, -1.490303874015808,
        0.37752559781074524, 0.793501615524292, 1.1790964603424072,
        0.4961610734462738, -0.799663245677948, 0.20671939849853516,
        0.11626832187175751, -0.1872044801712036, -1.2802696228027344,
        -0.047537948936223984, 0.33454716205596924, -0.35770902037620544,
        -0.11568571627140045, -0.29743295907974243, 0.27815550565719604,
        -0.18087556958198547, -0.23273994028568268, 0.23771916329860687,
        0.015904288738965988, -0.6022660136222839, 0.13953256607055664,
        0.22130344808101654, 0.10848453640937805, 0.29370996356010437,
        -0.2250155657529831, 0.03234878182411194, 0.10946815460920334,
        -0.2698327302932739, -0.3619418442249298, -0.088166743516922,
        -0.6557726860046387, -0.7660207152366638, 0.2093154937028885,
        -0.9162337183952332, 0.16839635372161865, 0.26584652066230774,
        0.06513123214244843, -0.08788470923900604, 0.2966662049293518,
        0.05084245651960373, 0.13695180416107178, 0.2243134081363678,
        0.2112874686717987, 0.014534455724060535, 0.20947004854679108,
        0.18750064074993134, 0.0418071411550045, 0.10929642617702484,
        0.34099552035331726, 0.4250433146953583, -0.24590782821178436,
        0.047828514128923416, 0.22505992650985718, 0.10551104694604874,
        -0.3056277930736542, -0.20706075429916382, -0.017519749701023102,
        0.9629974365234375, 0.9635524749755859, -0.4609917998313904,
        1.3058321475982666, 0.27947479486465454, 1.1507205963134766,
        1.0953052043914795, 1.2391372919082642, 0.9239345788955688,
        -0.34889405965805054, -0.05407898500561714, -0.08893568813800812,
        -0.12560716271400452, -0.04601312428712845, 0.0015348560409620404,
        0.14920860528945923, 0.06288933008909225, -0.019802894443273544,
        0.3941066563129425, -0.1748739778995514, -0.5302501320838928,
        -0.09549266844987869, 0.27992215752601624, -0.2780910134315491,
        -0.902567446231842, -0.07379580289125443, -0.18786343932151794,
        -0.38782888650894165, -0.4151366353034973, -1.337167739868164,
        0.6461414694786072, 0.031483329832553864, 0.12336384505033493,
        -0.2697605490684509, -0.7053748965263367, 0.3314739465713501,
        0.06786983460187912, 0.33396923542022705, 0.14018967747688293,
        0.2776152789592743, 0.1526290327310562, 0.46001437306404114,
        -0.29920071363449097, 0.004918401129543781, 0.4164091944694519,
        0.27956533432006836, -2.4117276668548584, -0.30411744117736816,
        -0.8762014508247375, 0.7545139193534851, -1.0436140298843384,
        0.2633189558982849, 0.3556404411792755, -0.289181113243103,
        0.27202117443084717, 0.6687297224998474, 0.46591851115226746,
        -0.19154593348503113, 0.3885524868965149, -0.3948839604854584,
        0.4103257656097412, 0.2987016439437866, 0.1933661550283432,
        0.35945621132850647, 0.24529820680618286, 0.3157833516597748,
        0.006264862604439259, -0.006337437313050032, 0.23774157464504242,
        -0.12232798337936401, 0.33117449283599854, 0.1086575984954834,
        -0.07221599668264389, -0.7592652440071106, 0.38802260160446167,
        -0.8011150360107422, -0.35940220952033997, -0.22842618823051453,
        -0.8487396836280823, 0.1029479056596756, -0.16935648024082184,
        0.7065049409866333, -2.0328209400177, 0.2609361410140991,
        0.7023868560791016, -1.1646511554718018, 1.434159517288208,
        0.7366746664047241, -0.4757881760597229, 1.6261359453201294,
        0.26604166626930237, -0.24543939530849457, -0.265525221824646,
        0.03320309892296791, -0.07514746487140656, -0.1834229975938797,
        -0.32203659415245056, 0.04666629806160927, -0.07340879738330841,
        0.7008508443832397, 8.132415678119287e-5, -1.0665756464004517,
        0.2026270478963852, 0.4606298506259918, -0.5696412920951843,
        -0.593816876411438, -0.8390344977378845, 0.912027895450592,
        -0.41371220350265503, 0.4637977182865143, 0.5783663392066956,
        0.19482208788394928, -1.4424070119857788, 0.6496310234069824,
        0.13826745748519897, -0.5220836997032166, -0.1465231031179428,
        -0.31591665744781494, 0.014926915988326073, 0.1907660961151123,
        -0.04534801468253136, -0.1176980584859848, 0.21853919327259064,
        0.11830752342939377, 0.07484796643257141, 0.06318649649620056,
        -0.3048171401023865, -0.6202639937400818, -0.5380257964134216,
        -0.3707841634750366, 0.8033995032310486, -0.14159397780895233,
        0.23166190087795258, -1.179201364517212, -0.11659609526395798,
        -1.547814965248108, -0.10568571835756302, 0.12841175496578217,
        -1.5050303936004639, -0.3178934156894684, -1.0067479610443115,
        -0.0015178853645920753, 1.4309046268463135, 0.2009342908859253,
        -0.11914418637752533, -0.12167448550462723, 0.1512240469455719,
        0.062234506011009216, 0.08379356563091278, -0.25879210233688354,
        0.15510424971580505, -0.04987306520342827, -0.33516064286231995
      ]
    },
    "conv.0.bias": {
      "shape": [16],
      "data": [
        0.07668586075305939, 0.06257336586713791, -0.21370747685432434,
        0.035431619733572006, 0.08801218867301941, 0.30583930015563965,
        0.03246055915951729, 0.2774282395839691, -0.05059228092432022,
        -0.3615518808364868, -0.42702537775039673, -0.03640346601605415,
        -0.07955045998096466, -0.017638573423027992, -0.17723971605300903,
        -0.025567790493369102
      ]
    },
    "conv.2.weight": {
      "shape": [32, 16, 3, 3],
      "data": [
        -0.11403372883796692, -0.25312691926956177, -0.2002439796924591,
        -0.13327953219413757, -0.13002561032772064, -0.2231324315071106,
        -0.09677674621343613, -0.19893208146095276, -0.07258538156747818,
        0.1130492091178894, -0.14258871972560883, -0.16093245148658752,
        0.16611337661743164, -0.1317378431558609, -0.14801010489463806,
        -0.26271843910217285, -0.2156401127576828, -0.07925017923116684,
        0.0655873566865921, 0.04380938410758972, -0.0026689867954701185,
        0.04433556646108627, 0.0271875262260437, -0.04184485599398613,
        -0.07954858243465424, -0.002075176453217864, -8.391340816160664e-5,
        -0.11944442242383957, -0.16345271468162537, -0.11074404418468475,
        -0.16919253766536713, -0.21633535623550415, -0.16576501727104187,
        -0.16954556107521057, -0.13443315029144287, -0.09939541667699814,
        -0.12238793820142746, -0.21571220457553864, -0.20159775018692017,
        -0.15962712466716766, -0.26649150252342224, -0.12237285077571869,
        -0.13670291006565094, -0.10365806519985199, -0.187485933303833,
        -0.19722716510295868, -0.10141908377408981, -0.1184769719839096,
        -0.179094135761261, -0.1928025186061859, -0.1672288477420807,
        -0.07014138251543045, -0.09383750706911087, -0.2208518236875534,
        -0.24832381308078766, -0.18370094895362854, -0.16674518585205078,
        -0.20869915187358856, -0.2299889773130417, -0.16725188493728638,
        -0.16608993709087372, -0.16360968351364136, -0.08572521060705185,
        -0.026486296206712723, -0.11415490508079529, -0.041324082762002945,
        0.009182178415358067, -0.10322631895542145, -0.030590863898396492,
        0.006780932191759348, -0.08600369095802307, -0.16089650988578796,
        -0.1581912785768509, -0.17399261891841888, -0.04686008393764496,
        -0.07968275249004364, -0.043184563517570496, -0.09167100489139557,
        -0.13873232901096344, -0.06996830552816391, -0.07271680235862732,
        -0.028670981526374817, -0.05035219341516495, 0.04511202126741409,
        0.08231239020824432, 0.10147470980882645, 0.07052572071552277,
        -0.15210680663585663, 0.07512536644935608, 0.09411385655403137,
        0.027391670271754265, -0.051121652126312256, 0.03325910121202469,
        -0.04347613826394081, -0.10451235622167587, -0.0591125525534153,
        -0.02828824333846569, 0.0011705997167155147, -0.09899786859750748,
        -0.18657809495925903, -0.14183436334133148, -0.21448568999767303,
        -0.1476215124130249, -0.14545273780822754, -0.13900141417980194,
        -0.08894824236631393, -0.1847696751356125, -0.20560777187347412,
        -0.10713667422533035, -0.14188168942928314, -0.2297324240207672,
        -0.16060148179531097, -0.028592878952622414, -0.22390474379062653,
        -0.1021106168627739, -0.20670627057552338, -0.21678024530410767,
        -0.048959821462631226, 0.025401920080184937, 0.05403004214167595,
        -0.06357409805059433, -0.068030945956707, -0.04837857931852341,
        0.008682851679623127, 0.14975199103355408, -0.09927654266357422,
        0.16022685170173645, 0.08396495878696442, -0.08005255460739136,
        0.0017891163006424904, -0.17995566129684448, -0.20222942531108856,
        -0.21072538197040558, -0.013996288180351257, -0.21853716671466827,
        0.043726615607738495, 0.027313685044646263, -0.005407650023698807,
        0.030359752476215363, -0.09881839156150818, -0.037185754626989365,
        0.09860610216856003, 0.04114982858300209, -0.03283623233437538,
        0.4665371775627136, 0.09901050478219986, -0.23288506269454956,
        0.43971148133277893, 0.2476702183485031, -0.5878113508224487,
        0.06393381208181381, 0.08819425851106644, -0.34312400221824646,
        0.32160642743110657, 0.4521017372608185, -0.503593921661377,
        0.25926023721694946, 0.36642220616340637, -0.27298516035079956,
        -0.47785645723342896, 0.25750795006752014, -0.17933455109596252,
        -0.0255239587277174, 0.004465707577764988, -0.10834910720586777,
        -0.04808429256081581, 0.06278879940509796, -0.06207239627838135,
        -0.07051088660955429, -0.020427148789167404, 0.0603603795170784,
        0.22214709222316742, -0.4321720004081726, -0.6020388603210449,
        0.2368437498807907, 0.17006878554821014, -0.6058513522148132,
        -0.3142812252044678, -0.28596723079681396, -0.2358042150735855,
        0.3894869387149811, 0.015186980366706848, 0.08294400572776794,
        -0.04299731180071831, 0.01680906116962433, 0.012449345551431179,
        -0.3309830129146576, 0.10010276734828949, 0.18863803148269653,
        -0.42209991812705994, -0.02936217375099659, 0.08272708207368851,
        -1.144019365310669, -0.18530035018920898, -0.15197788178920746,
        -1.9119120836257935, 0.15000905096530914, -0.1331196129322052,
        -0.046633828431367874, -0.07174500077962875, 0.15942130982875824,
        0.06573321670293808, 0.14896877110004425, 0.2099982500076294,
        0.10224641114473343, 0.14474467933177948, 0.04934370890259743,
        0.12746994197368622, 0.058993253856897354, 0.4197908639907837,
        -0.6746306419372559, 0.3584621548652649, 0.2426183521747589,
        -0.3921177089214325, 0.07074502110481262, 0.5834892392158508,
        -0.18164527416229248, 0.2923276126384735, 0.12437828630208969,
        -0.22223441302776337, -0.807369589805603, 0.3404453694820404,
        1.095542073249817, 0.5814887881278992, -1.1222530603408813,
        0.10160823911428452, 0.06026696041226387, -0.09663904458284378,
        -0.008522922173142433, 0.1031220406293869, -0.03437764570116997,
        0.035760972648859024, 0.0446108914911747, 0.02233458310365677,
        0.16062697768211365, -0.25903186202049255, -0.4631330966949463,
        0.3114526569843292, 0.016754241660237312, 0.1804649382829666,
        -0.2775445878505707, -0.20622751116752625, 0.0809653252363205,
        0.26221227645874023, 0.31147560477256775, 0.27989110350608826,
        -0.04305637627840042, -0.06142061948776245, 0.034017983824014664,
        -0.07020392268896103, 0.07438015937805176, 0.2493440955877304,
        0.08348865807056427, 0.15614303946495056, 0.15721538662910461,
        0.10549647361040115, -0.051552437245845795, -0.08284227550029755,
        -0.061248261481523514, 0.21100211143493652, -0.7458524703979492,
        -0.5019750595092773, 0.6152872443199158, -0.10677323490381241,
        -0.5127506256103516, 0.2437887191772461, -0.263324499130249,
        0.7760055065155029, 0.5183068513870239, 0.26208898425102234,
        -0.3423381447792053, -0.24015852808952332, -0.36991190910339355,
        0.27423036098480225, 0.789106547832489, 0.3502770960330963,
        -0.10099077224731445, 0.3855687081813812, -0.2552917003631592,
        -2.117422342300415, -0.572540283203125, -0.15979263186454773,
        1.0863759517669678, -0.09586793184280396, -0.6247491240501404,
        0.4669598639011383, 0.36954304575920105, 0.38993656635284424,
        -0.11598210781812668, -0.060797542333602905, -0.1272631287574768,
        -0.1141607016324997, -0.050043437629938126, -0.04977697879076004,
        -0.0005143286543898284, -0.10361321270465851, -0.08350461721420288,
        -0.23631243407726288, -0.1974673718214035, -0.19991080462932587,
        -0.11048305034637451, -0.0008370067807845771, -0.006714647635817528,
        -0.1277250349521637, -0.02313312515616417, -0.0855691134929657,
        0.04718046635389328, 0.038623884320259094, 0.022266997024416924,
        -0.06555506587028503, -0.011232869699597359, -0.03939700126647949,
        -0.0019025163492187858, -0.06080400198698044, -0.09069672226905823,
        -0.05796222761273384, -0.028532030060887337, -0.08063320815563202,
        -0.03476203605532646, -0.05668167024850845, -0.07826412469148636,
        -0.03997312858700752, -0.11596718430519104, -0.025698579847812653,
        -0.01675393618643284, -0.04587407037615776, -0.21933990716934204,
        -0.04974668473005295, -0.10944271087646484, -0.09636283665895462,
        -0.09783608466386795, -0.05040854215621948, -0.1418093591928482,
        -0.09398902207612991, -0.1578093320131302, -0.24427339434623718,
        -0.17885372042655945, -0.056946560740470886, -0.19337190687656403,
        -0.05973128229379654, -0.00676870858296752, -0.050662796944379807,
        -0.128337100148201, -0.08986237645149231, -0.13109423220157623,
        -0.08705361932516098, -0.11407146602869034, 0.010605613701045513,
        -0.11870503425598145, -0.1094336211681366, 0.04140976816415787,
        -0.14108899235725403, -0.042927246540784836, -0.05731438845396042,
        -0.0008194962283596396, -0.10896354168653488, -0.02273407205939293,
        -0.07403289526700974, -0.031544867902994156, 0.03162967041134834,
        -0.01591910421848297, -0.01063526701182127, -0.03964890539646149,
        -0.19052839279174805, -0.03189941495656967, -0.10861644148826599,
        -0.026831449940800667, -0.0527975894510746, -0.1775173842906952,
        -0.09579963982105255, -0.21767334640026093, -0.01344040036201477,
        -0.29513129591941833, -0.23791159689426422, -0.10415025800466537,
        -0.2594914734363556, -0.14442357420921326, -0.2033141553401947,
        -0.12051483988761902, -0.03537784516811371, -0.07525709271430969,
        -0.05782580003142357, -0.31949031352996826, -0.07947108894586563,
        -0.055379848927259445, -0.11945046484470367, 0.0017058959929272532,
        -0.11607030034065247, -0.12437397241592407, -0.08755531907081604,
        -0.2150094211101532, -0.09019971638917923, -0.10663121193647385,
        -0.16116027534008026, -0.24142944812774658, -0.23753342032432556,
        0.022823402658104897, -0.2858860194683075, -0.0711299479007721,
        -0.18720431625843048, -0.16698022186756134, -0.08288101851940155,
        -0.03580077737569809, 0.01363864354789257, -0.06443168222904205,
        -0.06389009952545166, -0.09454775601625443, 0.019597791135311127,
        0.028078913688659668, -0.004298130050301552, -0.10161248594522476,
        -0.006634882651269436, 0.03650547191500664, 0.0518873929977417,
        -0.10890386998653412, -0.17368748784065247, -0.15530316531658173,
        -0.2225574105978012, -0.2619875371456146, -0.2528589367866516,
        -0.038664743304252625, -0.28116363286972046, -0.08804963529109955,
        -0.04539097473025322, -0.00876676756888628, 0.046570662409067154,
        -0.04548952355980873, 0.03777367249131203, -0.07756111770868301,
        -0.13002143800258636, -0.07187463343143463, 0.02660381980240345,
        -0.025679267942905426, 0.00804264098405838, -0.01776169426739216,
        -0.0034676906652748585, -0.09580919146537781, 0.0031838328577578068,
        0.04035446420311928, -0.043412137776613235, 0.007484080269932747,
        0.03717304393649101, 0.010743728838860989, -0.05433426797389984,
        -0.11470907926559448, 0.009161656722426414, -0.1327924132347107,
        -0.006863402668386698, -0.013852029107511044, -0.05524379760026932,
        -0.04284887760877609, -0.022344304248690605, -0.05755533650517464,
        -0.06335820257663727, 0.02538568340241909, -0.08672048151493073,
        0.06713306903839111, 0.017703555524349213, 0.02068459987640381,
        -0.026722030714154243, -0.039988309144973755, -0.00709354504942894,
        -0.019786780700087547, -0.007183554582297802, 0.025900717824697495,
        -0.1353158950805664, -0.1236092671751976, -0.10612888634204865,
        -0.09192054718732834, 0.005163072608411312, -0.012449302710592747,
        -0.007143041584640741, 0.01928742229938507, -0.02071358822286129,
        -0.09976595640182495, -0.15834741294384003, -0.07742754369974136,
        -0.11779310554265976, -0.10216858237981796, -0.011317784897983074,
        0.008706394582986832, 0.017078809440135956, 0.006040981970727444,
        -0.09451539069414139, -0.03768929839134216, 0.0017787080723792315,
        0.04748867079615593, 0.009234274737536907, -0.09046749025583267,
        -0.09059400111436844, -0.10430650413036346, -0.030168533325195312,
        -0.05643239989876747, -0.13077247142791748, -0.12498930841684341,
        -0.10375813394784927, -0.08486230671405792, -0.07053795456886292,
        -0.05321149155497551, -0.11851873248815536, -0.0933789536356926,
        0.028223112225532532, 0.012676326557993889, 0.04784015938639641,
        -0.02851041406393051, -0.03904368728399277, -0.06249655783176422,
        -0.013871139846742153, -0.01549800019711256, -0.042867109179496765,
        -0.005961005110293627, -0.08284015208482742, -0.07251231372356415,
        -0.0661052018404007, -0.05340628698468208, 0.02500424161553383,
        -0.058006349951028824, -0.013167108409106731, 0.02639746479690075,
        -0.1207318902015686, -0.05767127126455307, -0.08032110333442688,
        0.01799147203564644, -0.10110916942358017, -0.0355767086148262,
        -0.08433830738067627, -0.039721060544252396, 0.0015778703382238746,
        0.022759705781936646, -0.024326924234628677, -0.009865636937320232,
        -0.012285003438591957, -0.08884791284799576, -0.05769916623830795,
        -0.018845373764634132, 0.03608928620815277, 0.032667867839336395,
        0.03420666232705116, -0.08866678178310394, -0.11979273706674576,
        -0.0997069776058197, -0.024450384080410004, 0.025147978216409683,
        -0.011759116314351559, -0.055805716663599014, -0.013349410146474838,
        -0.011505413800477982, -0.05067329853773117, -0.0652473047375679,
        0.03567618131637573, 0.0429665707051754, 0.011337487027049065,
        -0.06889817863702774, 0.08418761193752289, -0.08694440871477127,
        -0.08007936179637909, 0.01312980242073536, 0.06872203201055527,
        0.09397704899311066, -0.010034735314548016, 0.027688341215252876,
        -0.060706641525030136, -0.09855426847934723, -0.05913837254047394,
        -0.051218148320913315, -0.015453369356691837, -0.022124499082565308,
        0.031390104442834854, 0.02525516226887703, -0.10119704157114029,
        0.024228470399975777, 0.05592472106218338, 0.03256191313266754,
        -0.04048909991979599, 0.014257565140724182, -0.030520185828208923,
        -0.6837804913520813, -0.08024759590625763, -0.5462978482246399,
        0.15999136865139008, 0.3971063494682312, 0.2011726051568985,
        -0.14100281894207, 0.041632890701293945, -0.04742943122982979,
        0.1215461790561676, 0.23984242975711823, -0.04207003116607666,
        -0.019646579399704933, 0.020564952865242958, 0.33890047669410706,
        -0.09019194543361664, 0.0006959613529033959, 0.015553059056401253,
        -0.053520023822784424, -0.0027745135594159365, 0.046567436307668686,
        0.009476862847805023, -0.058022644370794296, 0.0036912683863192797,
        -0.028254035860300064, -0.04483892768621445, -0.018882865086197853,
        -0.5906481742858887, -0.18099266290664673, -1.1868342161178589,
        -0.30251258611679077, -0.3518831729888916, -0.2440781593322754,
        -0.1221243366599083, -0.6232873201370239, -0.2879961431026459,
        -0.04427521675825119, -0.07058625668287277, -0.10539276897907257,
        -0.2887035012245178, 0.15614350140094757, -0.07167566567659378,
        -0.20438680052757263, 0.23553822934627533, 0.26317790150642395,
        0.13725249469280243, 0.4063110947608948, 0.16999317705631256,
        -0.6040624976158142, 0.03208212926983833, -0.6225493550300598,
        -0.9659793972969055, -0.39582714438438416, -0.7792171835899353,
        -0.019963540136814117, -0.07837004959583282, 0.11270001530647278,
        0.17284801602363586, 0.2772889733314514, 0.3647446632385254,
        0.14709404110908508, 0.3666873872280121, 0.05661056935787201,
        0.10789955407381058, 0.05683385580778122, 0.12986797094345093,
        -0.3732162415981293, 0.3911465108394623, 0.0020388327538967133,
        0.13173802196979523, 0.15535885095596313, 0.6473292708396912,
        0.04779089614748955, 0.18035636842250824, 0.08534962683916092,
        -0.02864173613488674, 0.1362924575805664, -0.029811188578605652,
        0.5573217272758484, -0.11334871500730515, -0.9498741626739502,
        -0.037529539316892624, 0.07940399646759033, 0.04980813339352608,
        -0.14337201416492462, -0.0007769713993184268, -0.1742493063211441,
        0.18457159399986267, 0.06814122200012207, 0.0074330889619886875,
        -0.5202800035476685, -0.564714789390564, -1.006748080253601,
        -0.2156537026166916, -0.20637942850589752, -0.4058215320110321,
        -0.19512540102005005, -0.07635672390460968, -0.10298504680395126,
        0.19468511641025543, 0.021773360669612885, 0.1335826963186264,
        0.13624626398086548, 0.1862880438566208, 0.0012146133230999112,
        0.008151935413479805, 0.08523062616586685, -0.2039051204919815,
        0.6804885268211365, 0.24309714138507843, -0.18956398963928223,
        0.019758231937885284, 0.36852237582206726, -0.5463892817497253,
        0.0607120655477047, 0.7702041268348694, -0.9013369083404541,
        -0.913554847240448, -0.13601499795913696, 1.6456363201141357,
        0.3773438036441803, 0.8722716569900513, -0.18015502393245697,
        0.17047268152236938, 0.25830361247062683, -0.5672855377197266,
        -0.251019686460495, -0.2380671203136444, -1.3538174629211426,
        0.1807396411895752, 0.32277312874794006, 0.19080579280853271,
        0.2147151529788971, 0.4474048316478729, 0.7313575148582458,
        0.5259591341018677, -0.08113417029380798, 0.9820109605789185,
        0.6726369261741638, -0.4906567335128784, 0.3152381181716919,
        0.36501047015190125, -0.050858259201049805, 0.5868002772331238,
        -0.5586250424385071, -0.3407314717769623, 0.7771520018577576,
        0.02840355597436428, -0.8590127229690552, 0.09056967496871948,
        -0.28169313073158264, -0.7504661679267883, 0.29559049010276794,
        -0.18528592586517334, -0.6134404540061951, 0.2235260009765625,
        0.1427503228187561, -0.24932396411895752, 0.4198478162288666,
        0.6187987327575684, 0.6287301778793335, 0.23498789966106415,
        -0.08652953803539276, 0.045972928404808044, -0.09636817127466202,
        -0.0907411202788353, 0.02656734548509121, -0.0312176700681448,
        -0.06781459599733353, 0.05231525003910065, 0.004342423286288977,
        0.08175788819789886, 0.07309961318969727, -0.07220883667469025,
        -0.35242512822151184, 0.1465253233909607, 0.17314712703227997,
        -0.7916733026504517, 0.3689548671245575, 0.2043355107307434,
        0.111031174659729, 0.32438287138938904, -0.5621269941329956,
        -0.6491769552230835, 0.1577785611152649, -0.12946119904518127,
        -0.2723868489265442, -0.5587592720985413, 0.12270335108041763,
        -0.2699040472507477, -0.003539451165124774, -0.07219769060611725,
        -2.6886332035064697, -1.5389236211776733, -0.24171125888824463,
        -0.5244152545928955, -0.0565490685403347, -0.37616002559661865,
        -0.15348392724990845, 0.15351785719394684, 0.9776833653450012,
        0.01102068554610014, 0.19515293836593628, -0.27874282002449036,
        -0.11055344343185425, 0.18212251365184784, 0.4861610531806946,
        0.31402021646499634, 0.8867998719215393, 0.5648778676986694,
        -0.08001572638750076, -0.6428819298744202, -0.10694917291402817,
        -0.23000769317150116, -0.40776222944259644, -0.7560344338417053,
        -0.0960424542427063, -0.06068355590105057, -0.2585408091545105,
        0.03038058429956436, 0.09162932634353638, -0.6090817451477051,
        -0.013180096633732319, 1.4108078479766846, -0.3592287302017212,
        0.048675742000341415, -0.2400224506855011, -0.4299742579460144,
        0.024636486545205116, -0.08638396859169006, 0.026267174631357193,
        0.056259796023368835, -0.11210469901561737, -0.11205292493104935,
        -0.415323942899704, 0.026605181396007538, -0.390462189912796,
        -0.08373826742172241, 0.24442866444587708, 0.038704633712768555,
        0.29260653257369995, 0.2459467351436615, 0.34396257996559143,
        -0.5601193904876709, 0.1457921266555786, 0.035109713673591614,
        -0.0677768886089325, 0.11550422757863998, -0.08124589920043945,
        0.33040204644203186, 0.1443583369255066, 0.42122340202331543,
        -0.46116143465042114, 0.49936631321907043, 0.3271987736225128,
        -0.748677670955658, -0.8626308441162109, -0.18556450307369232,
        -0.16232575476169586, -0.09302619099617004, 0.42925336956977844,
        0.17407189309597015, -0.5515493154525757, 0.14132221043109894,
        -0.9032729864120483, -1.862614631652832, -0.4876713752746582,
        -2.655094623565674, -0.45413002371788025, -0.9771527647972107,
        0.8505151271820068, -0.3304273188114166, -0.32507070899009705,
        0.7259828448295593, 0.08365358412265778, -0.8344479203224182,
        1.2507473230361938, 1.0021811723709106, 0.22519387304782867,
        0.17291726171970367, 1.1789802312850952, -0.5700142979621887,
        0.9179547429084778, 1.0512559413909912, 0.7767738103866577,
        -0.20853301882743835, 0.11238556355237961, -0.39355406165122986,
        0.14003807306289673, -0.2986091077327728, 0.05298393964767456,
        -0.17267510294914246, 0.40451571345329285, 0.19980040192604065,
        -0.3845624029636383, 0.8379138112068176, 0.23044626414775848,
        -1.2569373846054077, 0.05367697402834892, 1.0742380619049072,
        0.07757630944252014, 0.0003824365558102727, 0.4973811209201813,
        0.8088671565055847, -1.1820076704025269, -0.21343040466308594,
        -0.06538644433021545, -0.06396319717168808, 0.03282507508993149,
        -0.04762687906622887, 0.0005057753878645599, -0.044116586446762085,
        -0.026549842208623886, -0.020004335790872574, -0.07986932247877121,
        -1.987438440322876, -1.1646654605865479, 0.20776236057281494,
        -1.3084408044815063, -0.5361988544464111, 0.27958598732948303,
        0.007489983923733234, -0.20124761760234833, 0.0497128963470459,
        0.4026736319065094, -0.03774472326040268, -0.5839589834213257,
        0.01388193666934967, -0.6459968686103821, -0.32725778222084045,
        -0.5361610054969788, -1.0204622745513916, 0.4506570100784302,
        -0.07833662629127502, 0.24458235502243042, 0.2560182809829712,
        -0.8903471231460571, 0.2823449373245239, 0.4437895715236664,
        -0.6429694294929504, 0.5019549131393433, 0.5011414289474487,
        -0.5443037152290344, -1.1247837543487549, -0.23211225867271423,
        -0.507328450679779, -0.15120594203472137, -0.1770712435245514,
        -0.20731647312641144, 0.1456427425146103, -0.869903564453125,
        -0.16863687336444855, -0.06683933734893799, -0.09060768783092499,
        0.07919614762067795, 0.2977500855922699, -0.09890343248844147,
        0.6317302584648132, -0.7781900763511658, -0.7567718625068665,
        0.5025661587715149, 0.3260820806026459, -0.41094914078712463,
        -0.07195690274238586, 0.5975531935691833, -0.896842896938324,
        -0.19437099993228912, 0.3268214166164398, -1.1602656841278076,
        0.06892351061105728, -0.04361793026328087, 0.36844363808631897,
        -0.1641419529914856, -0.33136892318725586, 0.15235485136508942,
        0.23539094626903534, 0.06661608815193176, -0.0873989462852478,
        0.9352726936340332, -0.5345455408096313, -0.25968411564826965,
        -0.049914345145225525, -0.6081727743148804, 0.1559676229953766,
        0.3945329785346985, 0.09544645249843597, 0.15503983199596405,
        0.18230026960372925, -0.022852525115013123, -1.1145106554031372,
        0.1600838154554367, -0.07855682820081711, -0.9028886556625366,
        0.5554205775260925, 0.20352452993392944, -0.3324243426322937,
        0.3854635953903198, 0.1398569643497467, -0.25049498677253723,
        0.40201303362846375, -0.2560180723667145, -0.5254170894622803,
        -1.1062225103378296, 0.13302475214004517, 0.4801521897315979,
        -1.4226912260055542, -0.06263747811317444, -0.6211917996406555,
        0.02561606653034687, -0.32568052411079407, 1.4469413757324219,
        0.3969719409942627, -0.4702431559562683, 1.7335879802703857,
        -0.18933463096618652, 1.0162543058395386, 0.7508274912834167,
        -0.473654180765152, 0.3726465702056885, 0.7184298038482666,
        0.34421706199645996, 0.4022494852542877, -0.5198583602905273,
        -2.250065803527832, 0.03887243568897247, -1.393214225769043,
        0.6647909879684448, 0.3940022885799408, -0.6224188208580017,
        0.49075523018836975, 0.8644912838935852, -0.6160382628440857,
        -0.10403968393802643, -0.05853588134050369, -0.026714595034718513,
        -0.11948222666978836, -0.04181351885199547, -0.04420330747961998,
        -5.3895495511824265e-5, 0.0321669764816761, -0.006856667343527079,
        -0.09396088868379593, -0.07453830540180206, -0.015344221144914627,
        -0.15966284275054932, -0.07145793735980988, -0.05252127721905708,
        0.1301160603761673, -0.03038637898862362, 0.01124647632241249,
        0.027035292237997055, 0.03613998368382454, -0.009943141601979733,
        0.02302962727844715, 0.04019872471690178, -0.036140426993370056,
        -0.0724116787314415, -0.01965385302901268, -0.0016192926559597254,
        -0.0506284236907959, -0.20370343327522278, -0.11158478260040283,
        -0.19164255261421204, -0.1730569303035736, -0.07747863978147507,
        0.033219266682863235, 0.015401075594127178, -0.07210249453783035,
        -0.12589256465435028, -0.13281533122062683, -0.01443577278405428,
        -0.07068966329097748, -0.1977168470621109, 0.022672954946756363,
        -0.07420441508293152, -0.10999450087547302, -0.01132342778146267,
        -0.08889200538396835, -0.1075001135468483, -0.02188653126358986,
        -0.1380951702594757, -0.17205365002155304, -0.10000316798686981,
        -0.09349683672189713, -0.045586369931697845, -0.04433069005608559,
        -0.029364116489887238, -0.03585410863161087, -0.012583157047629356,
        0.014132050797343254, -0.07273220270872116, -0.0678768903017044,
        -0.09050673246383667, -0.10887713730335236, 0.012310627847909927,
        -0.03917129710316658, -0.1865556687116623, -0.11103184521198273,
        -0.11393582820892334, -0.13180960714817047, -0.023720968514680862,
        -0.16195984184741974, 0.11013735085725784, -0.009951143525540829,
        -0.19002245366573334, 0.027908531948924065, -0.029150011017918587,
        -0.011696727015078068, -0.017477799206972122, -0.08144266158342361,
        -0.10063912719488144, -0.19994109869003296, -0.03096519038081169,
        -0.07479030638933182, -0.07110389322042465, -6.693617615383118e-5,
        0.04561502858996391, 0.021007560193538666, -0.040935881435871124,
        0.002677253680303693, -0.006145796738564968, 0.011521447449922562,
        0.02095130831003189, 0.017055165022611618, -0.011750142090022564,
        -0.07078903913497925, 0.01707007922232151, -0.02166525460779667,
        0.007995491847395897, -0.05495674908161163, 0.0239134319126606,
        -0.09918791800737381, 0.014315458945930004, -0.01979643478989601,
        -0.1420140564441681, -0.07014486193656921, 0.004191100597381592,
        0.04907863214612007, -0.102376289665699, -0.1053931713104248,
        -0.026811880990862846, -0.02599606104195118, -0.05320316180586815,
        -0.010877224616706371, -0.12680383026599884, -0.024624960497021675,
        -0.17649538815021515, -0.1890673190355301, -0.0049969954416155815,
        0.03937825188040733, -0.09323698282241821, -0.001466043060645461,
        -0.012329407967627048, -0.054755181074142456, -0.11200208216905594,
        0.0512019544839859, 0.020731382071971893, -0.07032367587089539,
        -0.029363274574279785, -0.07474520802497864, 0.05790738761425018,
        -0.15505123138427734, -0.05999227240681648, -0.0883408635854721,
        -0.10057127475738525, 0.056299906224012375, -0.04533848911523819,
        -0.06072201579809189, -0.07217466086149216, -0.08730535954236984,
        0.06669358909130096, -0.02900017984211445, 0.034718722105026245,
        0.04113965481519699, 0.004336214624345303, 0.07082469761371613,
        -0.3909588158130646, 0.007683611009269953, 0.5132090449333191,
        -0.274190217256546, 0.5108764171600342, 0.2903314530849457,
        -0.29328736662864685, 0.4388203024864197, -0.7392711639404297,
        -0.5999385714530945, 0.20942653715610504, 0.25543540716171265,
        0.12089037895202637, 0.6640427112579346, -0.21542072296142578,
        -0.2373424470424652, 0.2745504081249237, -0.7276075482368469,
        0.00026769679971039295, 0.04550478234887123, -0.01247900165617466,
        -0.0702628493309021, -0.08141079545021057, -0.0612662173807621,
        -0.029071902856230736, -0.03188040480017662, -0.08883637189865112,
        -0.24633686244487762, -0.3533003330230713, -0.9449065327644348,
        0.07657257467508316, 0.08894752711057663, -0.04652068018913269,
        -0.29646357893943787, 0.138868048787117, -0.03300752490758896,
        0.006137420888990164, -0.11309047043323517, 0.09149721264839172,
        0.3325825333595276, -0.1461380273103714, 0.1296955794095993,
        0.30029192566871643, 0.2525061368942261, 0.14574429392814636,
        0.340816468000412, 0.5871080160140991, 0.19463035464286804,
        -0.33283090591430664, 0.32851243019104004, -0.60301673412323,
        -1.022426724433899, 0.10739809274673462, -1.2249451875686646,
        -0.7168995141983032, -0.20681428909301758, 0.36799147725105286,
        -0.09172320365905762, -0.2793026864528656, 0.44613704085350037,
        0.21650506556034088, 0.10313133150339127, -0.1891731470823288,
        -0.20935557782649994, -0.5533084869384766, 0.4498177170753479,
        -0.2270250767469406, -0.5804991126060486, -1.190199851989746,
        0.001580291660502553, -0.11251213401556015, -0.3232994079589844,
        -0.10474645346403122, 0.08891508728265762, -1.1713296175003052,
        -0.3809818625450134, 0.03707402944564819, -0.7700669765472412,
        1.1193761825561523, -1.7344492673873901, -1.8387013673782349,
        -0.7562080025672913, -0.39586782455444336, 0.2680165767669678,
        -0.12841807305812836, 0.038446251302957535, 0.16042326390743256,
        -0.237200528383255, -0.17618410289287567, 0.052172426134347916,
        -0.33701610565185547, -0.3307807445526123, -0.015442379750311375,
        0.20665310323238373, -0.16757744550704956, 0.13122543692588806,
        -0.10967613756656647, 0.2808134853839874, -0.14585043489933014,
        -0.14445503056049347, -0.16407878696918488, -0.16924898326396942,
        0.10074149817228317, 0.007424551993608475, 0.06994020938873291,
        -0.11366637796163559, 0.06073179841041565, -0.12746073305606842,
        0.5451371073722839, 0.4478900730609894, 0.051540687680244446,
        0.9206476807594299, -0.013667923398315907, 0.16955944895744324,
        -0.03080570325255394, 0.08137766271829605, -0.10823983699083328,
        -0.8672822713851929, 1.0204880237579346, 1.7332053184509277,
        -0.9205470681190491, 0.0959290862083435, 0.36204320192337036,
        -0.7682037353515625, -0.3635046184062958, 0.026563148945569992,
        -0.6531032919883728, -0.8347530961036682, -1.2287278175354004,
        0.1925799399614334, -0.15645770728588104, -1.4086635112762451,
        0.6130624413490295, 0.29186415672302246, -0.8100274205207825,
        0.9980477690696716, 0.8282922506332397, 2.7276086807250977,
        0.8719031810760498, -0.12956182658672333, 0.04347803071141243,
        -0.4059869349002838, 0.02996399812400341, 1.0508251190185547,
        -0.06804382801055908, -0.0012030982179567218, 0.001522519625723362,
        -0.09319690614938736, 0.005816094111651182, -0.014924163930118084,
        -0.09080583602190018, -0.04264383763074875, -0.0689028948545456,
        0.0070016090758144855, -0.05274048447608948, -0.0013142527313902974,
        -0.05815467610955238, 0.0488860197365284, 0.04436563327908516,
        0.03254738450050354, -0.0030384452547878027, -0.09239146113395691,
        -0.1003168448805809, -0.005279405973851681, -0.06300832331180573,
        -0.07975905388593674, -0.006588796619325876, 0.02495431900024414,
        0.04507813975214958, -0.08530937135219574, -0.03932860121130943,
        0.017792781814932823, -0.043347954750061035, -0.090888112783432,
        -0.016014089807868004, -0.02162296697497368, -0.004482504446059465,
        -0.06738178431987762, 0.007746399380266666, 0.05202076956629753,
        -0.07262980937957764, -0.09272228926420212, -0.07829168438911438,
        -0.02781318873167038, 0.05950569733977318, -0.08960715681314468,
        0.03671269118785858, -0.09737444669008255, 0.06059692054986954,
        -0.05653729289770126, -0.08070691674947739, -0.02795296721160412,
        -0.10318300127983093, 0.015010768547654152, 0.009596859104931355,
        0.043139081448316574, -0.006306244060397148, 0.04916195571422577,
        -0.0567031167447567, 0.03828825429081917, -0.021708039566874504,
        0.016276709735393524, -0.01855096034705639, -0.09949679672718048,
        0.034517720341682434, -0.0791204571723938, -0.021491996943950653,
        -0.0347680002450943, -0.01971958763897419, 0.06293157488107681,
        -0.04123799130320549, 0.05316951870918274, -0.05440301075577736,
        0.04200487956404686, 0.04125409200787544, -0.014548643492162228,
        -0.0560319684445858, 0.04564802348613739, -0.05172906816005707,
        0.010455009527504444, -0.0866011530160904, -0.07231459021568298,
        -0.042430274188518524, 0.025084160268306732, -0.11194859445095062,
        -0.03950013965368271, 0.032793231308460236, -0.05888676643371582,
        -0.09012192487716675, 0.0019707411993294954, -0.10061675310134888,
        0.04482327774167061, -0.10085377097129822, -0.018071549013257027,
        0.0469658225774765, -0.020546644926071167, -0.035887736827135086,
        -0.0004126551793888211, -1.016249916574452e-5, -0.01439064834266901,
        -0.03311527520418167, -0.0002463680866640061, -0.001420451095327735,
        -0.06448555737733841, -0.020168159157037735, -0.06862203776836395,
        0.04736141115427017, -0.09348616749048233, 0.05195353552699089,
        0.012123792432248592, 0.051746074110269547, -0.005737619008868933,
        -0.08874914795160294, -0.024521853774785995, 0.030724206939339638,
        0.013556893914937973, 0.058009322732686996, -0.051876991987228394,
        -0.05654774606227875, -0.08647415786981583, -0.10239066183567047,
        -0.08809046447277069, 0.02655714564025402, -0.018997646868228912,
        0.005317878443747759, -0.04035089164972305, -0.10700532048940659,
        -0.06070708855986595, 0.014034262858331203, 0.03420470654964447,
        -0.07718290388584137, -0.04274064302444458, -0.10078524053096771,
        -0.007823394611477852, 0.007147681433707476, 0.03357088565826416,
        -0.027458397671580315, -0.04043766111135483, -0.006551020313054323,
        0.05894361063838005, 0.013063779100775719, -0.012047907337546349,
        -0.016565369442105293, -0.04169290512800217, -0.007818612270057201,
        0.045114047825336456, 0.018775699660182, -0.03593292459845543,
        0.0009015458635985851, -0.3030255436897278, 0.12211748957633972,
        0.5483740568161011, -0.06513690203428268, -0.669876217842102,
        0.2618226706981659, 0.6498652696609497, 0.32609137892723083,
        0.3882628381252289, -0.312636137008667, -0.4113779664039612,
        0.22806388139724731, 0.7107493877410889, -0.23572666943073273,
        -0.17065677046775818, 0.14884839951992035, -0.5318558812141418,
        0.03139101713895798, 0.05418938025832176, -0.03903016075491905,
        0.010260047391057014, -0.08776933699846268, -0.042508695274591446,
        0.04918244108557701, 0.010635259561240673, -0.025593003258109093,
        -0.08792769908905029, -0.15767985582351685, -0.6444385051727295,
        -0.03030267544090748, 0.19342713057994843, -0.7518907189369202,
        -0.04930487647652626, -0.22857652604579926, -0.35152915120124817,
        0.36218908429145813, 0.4245576560497284, -0.24477536976337433,
        0.39162003993988037, 0.4726291596889496, -0.24736562371253967,
        -0.18423150479793549, 0.20615671575069427, -0.18218182027339935,
        -0.9995214343070984, 0.08093646168708801, 0.2885721027851105,
        -0.5146634578704834, -0.12176360189914703, -0.27971234917640686,
        -0.3895280957221985, 0.12735220789909363, -0.13531342148780823,
        -0.004228767938911915, 0.06441158056259155, -0.18641828000545502,
        0.21300867199897766, 0.18517139554023743, 0.05135863646864891,
        0.345829576253891, 0.07006918638944626, 0.11122622340917587,
        0.33738231658935547, 0.3267394006252289, 0.04889925196766853,
        -0.33856216073036194, -1.0317798852920532, 0.10314411669969559,
        0.07857277989387512, 0.7253561019897461, -0.6553676128387451,
        -0.7216131091117859, 0.1373690515756607, -0.1846930831670761,
        -0.8578191995620728, -0.33015987277030945, -0.9816254377365112,
        0.7978542447090149, 0.3069295287132263, -0.930135190486908,
        0.02891623042523861, 0.24935275316238403, -0.013423156924545765,
        0.21198803186416626, 0.15277035534381866, -0.057733673602342606,
        0.15062054991722107, -0.09143340587615967, 0.03450944647192955,
        0.28147345781326294, 0.3015236258506775, -0.2537562847137451,
        -0.16779272258281708, -0.05079963058233261, -0.22069606184959412,
        -0.04690875485539436, 0.14487306773662567, -0.16344158351421356,
        0.3761093020439148, -0.2911264896392822, -0.4681428074836731,
        -0.005370430648326874, 0.18670772016048431, 0.07331551611423492,
        0.4137713313102722, 0.37175092101097107, -0.4418680965900421,
        0.3845043182373047, 0.15957003831863403, 0.0689999982714653,
        -1.7230207920074463, -0.7985503673553467, -0.4174555242061615,
        -0.8556064367294312, -0.14516086876392365, 0.14420439302921295,
        -0.17623527348041534, 0.9763355255126953, 1.4425073862075806,
        -0.42570415139198303, -0.09697473049163818, 0.34348124265670776,
        0.836322009563446, 1.1220122575759888, 0.1834821254014969,
        -0.12701964378356934, -0.003149183467030525, -0.9905846118927002,
        -0.37379562854766846, 1.128221035003662, -0.6730169057846069,
        0.6479368805885315, 1.035209059715271, -0.008553074672818184,
        0.887052595615387, 0.9319409728050232, 1.2090365886688232,
        1.0836695432662964, -0.8070755004882812, -1.3350849151611328,
        0.9975733757019043, 0.740275502204895, 0.9707936644554138,
        0.11759291589260101, 0.17268888652324677, -0.6619805693626404,
        0.3946716785430908, -0.027117567136883736, -0.9932044148445129,
        0.08216016739606857, -0.04257480800151825, -1.5799812078475952,
        0.4956638813018799, 0.6239110827445984, -0.8302287459373474,
        0.27319982647895813, 0.33908599615097046, 0.3229020833969116,
        0.10651421546936035, 0.28327253460884094, 1.2105554342269897,
        0.002925326582044363, -0.052194200456142426, -0.03194494545459747,
        -0.04324738308787346, -0.033029235899448395, 0.04177568107843399,
        0.05346199497580528, 0.048796698451042175, -0.002106287283822894,
        0.8100700378417969, 0.11903220415115356, -0.19412076473236084,
        0.4062328636646271, 0.540713906288147, 0.19756834208965302,
        0.49684014916419983, 0.013428578153252602, -1.6272763013839722,
        -0.07054565101861954, -0.7482582330703735, 0.35828113555908203,
        -0.26253461837768555, -0.4781002700328827, -0.06808292120695114,
        0.056577470153570175, -0.32806989550590515, 0.01901850663125515,
        0.7272852659225464, -0.1543542891740799, 0.17146170139312744,
        0.7922799587249756, -0.33332619071006775, -0.3315528333187103,
        0.8945348858833313, -0.12003479897975922, 0.2707871198654175,
        -0.0525798425078392, 0.3209494650363922, 0.0664122998714447,
        0.2588152587413788, 0.06998567283153534, 0.24885281920433044,
        0.012149864807724953, 0.05994188040494919, 0.22871145606040955,
        -0.34131383895874023, -1.0493285655975342, 0.18742327392101288,
        -0.3235091269016266, 0.05720342695713043, -0.8897358179092407,
        -1.0827935934066772, -0.33083128929138184, -0.8547337651252747,
        -0.8969667553901672, 0.018449490889906883, -0.18632902204990387,
        -1.0551486015319824, -0.8162636756896973, 0.6885974407196045,
        0.5625379085540771, -0.6302510499954224, -1.581189751625061,
        0.11327587813138962, 0.2053631991147995, -0.0073723504319787025,
        -0.06268753111362457, 0.2839733064174652, 0.14478522539138794,
        -0.21692928671836853, -0.01929374225437641, 0.03739370033144951,
        0.2768065929412842, 0.06529156118631363, -0.056612931191921234,
        0.44997572898864746, 0.37154391407966614, 0.43461278080940247,
        -0.0010325585026293993, -0.03753848746418953, -0.6872115731239319,
        -0.5462923049926758, 0.17398399114608765, 0.14981798827648163,
        -0.38043856620788574, 0.4037454128265381, 0.535768449306488,
        -0.376470685005188, 0.27964553236961365, 0.7097457647323608,
        -0.3211490511894226, -1.246107816696167, -0.7030462622642517,
        -0.21692679822444916, -0.7405829429626465, -0.03076156973838806,
        -0.5499328374862671, -0.2046458125114441, -1.6887439489364624,
        -1.6178629398345947, -2.5934488773345947, -0.8206750154495239,
        -0.730679988861084, -1.1928423643112183, -0.5506554245948792,
        0.4600346088409424, -1.067821979522705, -1.4046494960784912,
        0.45399701595306396, -0.779664158821106, -1.7078262567520142,
        0.6375169157981873, 0.06955060362815857, 0.21216346323490143,
        -0.6631525158882141, 0.3315574526786804, -0.8432897329330444,
        0.046648722141981125, 0.5113300681114197, 0.2627885937690735,
        0.4831556975841522, 0.4566132724285126, 1.601171851158142,
        -0.14463691413402557, 1.2645431756973267, 0.8264279365539551,
        -0.5135329961776733, -0.4373379647731781, 0.1360601931810379,
        -0.4503948986530304, -0.2995506823062897, -1.1096540689468384,
        0.12207109481096268, 0.01935039460659027, -0.8596785664558411,
        -0.0869525820016861, 0.2666977643966675, 0.3406733274459839,
        0.395717978477478, 0.42642906308174133, -0.3837434649467468,
        1.0215363502502441, 1.0964432954788208, -0.7036880850791931,
        -0.06078546866774559, -0.09464515745639801, -0.08547327667474747,
        0.008201428689062595, -0.05444919690489769, -0.049126800149679184,
        -0.10011404007673264, 0.005223273765295744, -0.01556525006890297,
        0.0706062838435173, 0.23607149720191956, -1.102895975112915,
        -0.2720716595649719, 0.20140200853347778, -0.3413082957267761,
        -0.029791846871376038, 0.008250988088548183, -0.5362443327903748,
        -0.21096301078796387, 0.3663873076438904, 0.3032837510108948,
        0.352385938167572, 0.33069267868995667, 0.42341506481170654,
        0.6997959017753601, 0.3810029625892639, 0.46758779883384705,
        0.04437563568353653, 0.18264155089855194, 0.18248020112514496,
        -0.532423734664917, -0.7039351463317871, -0.24902842938899994,
        1.1309475898742676, 0.18549175560474396, 0.3379277288913727,
        0.5251939296722412, 0.15713903307914734, -0.431353360414505,
        -0.02124430239200592, -0.020784147083759308, -0.013937036506831646,
        -0.4311293065547943, 0.12245933711528778, 0.41739436984062195,
        -1.0943264961242676, -0.6992179155349731, 0.8315408229827881,
        -1.4241853952407837, -1.5692800283432007, -1.032470941543579,
        -0.2107735425233841, 0.4851444959640503, -1.1870825290679932,
        0.8489130139350891, -0.133369579911232, -0.22673584520816803,
        -2.3560190200805664, -2.4185380935668945, -0.06650162488222122,
        -1.351056694984436, -1.8683732748031616, 0.24505916237831116,
        0.0695556178689003, 0.02822013385593891, 0.25300320982933044,
        0.16849029064178467, 0.05987176299095154, 0.30119940638542175,
        0.14344163239002228, 0.22504553198814392, 0.2925586402416229,
        -1.3908129930496216, -0.6931269764900208, -1.6001225709915161,
        -1.5622304677963257, -0.8505532145500183, -0.4150508940219879,
        -1.0197981595993042, -1.4217332601547241, -0.5170107483863831,
        -0.2994280755519867, 0.23451869189739227, 0.10305185616016388,
        -0.033353447914123535, 0.36319395899772644, 0.2989366352558136,
        0.046042319387197495, 0.3929483890533447, 0.11776427179574966,
        -0.8737992644309998, -0.5566595792770386, -0.21875068545341492,
        0.17638789117336273, -1.2437324523925781, -0.7253637909889221,
        0.9821226596832275, -1.1030547618865967, 0.09671258926391602,
        -0.035570140928030014, 1.249624490737915, -0.20712441205978394,
        0.6734633445739746, 0.25406014919281006, 0.5830355882644653,
        0.26907601952552795, 0.7834266424179077, 0.6093599796295166,
        -1.909546136856079, -1.126743197441101, -0.6710296869277954,
        -1.433375597000122, -0.6068195700645447, -0.7003880143165588,
        -1.449458360671997, -0.6190133690834045, -0.7306537628173828,
        -2.8900296688079834, -0.9567720293998718, -0.34259918332099915,
        -2.1657445430755615, -1.1021651029586792, -0.6586170792579651,
        -2.844548225402832, -0.2380121648311615, -2.1473045349121094,
        -0.14352233707904816, -0.21597257256507874, -0.09267429262399673,
        -0.20895223319530487, -0.1389569789171219, -0.13533498346805573,
        -0.11489398032426834, 0.04980967566370964, -0.10385358333587646,
        -0.020928509533405304, 0.0560666061937809, -0.08457161486148834,
        0.009216628037393093, 0.06299661099910736, 0.0914711132645607,
        -0.16104592382907867, -0.11589470505714417, -0.12200676649808884,
        -0.0029339194297790527, -0.058337800204753876, -0.06007649749517441,
        -0.04270518943667412, -0.015424758195877075, 0.07203680276870728,
        -0.05435120314359665, -0.010262936353683472, 0.056653253734111786,
        -0.1406271904706955, -0.13701125979423523, -0.1769116222858429,
        -0.1639982908964157, -0.10052473098039627, -0.24838976562023163,
        -0.096137635409832, -0.07798963040113449, -0.18773400783538818,
        -0.14002327620983124, -0.03940600901842117, -0.16054050624370575,
        -0.16474200785160065, -0.07082975655794144, -0.22850953042507172,
        -0.12972617149353027, -0.10635647922754288, -0.1918659210205078,
        -0.06169414892792702, -0.17123322188854218, -0.12246929109096527,
        -0.06630849093198776, -0.23943355679512024, -0.1886431872844696,
        -0.0994255319237709, -0.18208961188793182, -0.10779012739658356,
        -0.16452686488628387, -0.1344861388206482, -0.1859298199415207,
        -0.16886350512504578, -0.06885840743780136, -0.27298226952552795,
        -0.12758132815361023, -0.18608669936656952, -0.10308020561933517,
        -0.12856271862983704, -0.02248113974928856, -0.14291086792945862,
        -0.02405875362455845, -0.1129043772816658, -0.20201647281646729,
        -0.18462581932544708, -0.02543562464416027, -0.14186252653598785,
        -0.08693470805883408, -0.08050554990768433, -0.10987995564937592,
        -0.009978742338716984, -0.1582161784172058, -0.10448096692562103,
        -0.009717020206153393, -0.04707067087292671, -0.22964513301849365,
        -0.13700705766677856, -0.16679862141609192, -0.1309950202703476,
        -0.23041315376758575, -0.16056500375270844, -0.07241638749837875,
        -0.1286807507276535, -0.15528814494609833, -0.028752822428941727,
        -0.2503474950790405, -0.15662242472171783, -0.04393767565488815,
        -0.17830722033977509, -0.11917906254529953, 0.02351875975728035,
        -0.05999569594860077, -0.1851646453142166, -0.16348141431808472,
        -0.11913172155618668, -0.07472436875104904, -0.1560554951429367,
        -0.2067488729953766, 0.015173107385635376, 0.028287308290600777,
        -0.1331654042005539, -0.19313181936740875, -0.10044768452644348,
        -0.2233450710773468, -0.22491511702537537, -0.17705406248569489,
        -0.16823571920394897, -0.03767810016870499, -0.21837332844734192,
        -0.12011084705591202, -0.0770501047372818, -0.2004723846912384,
        -1.2944142326887231e-5, 0.012997369281947613, 0.006386747118085623,
        -0.025869935750961304, -0.0012477438431233168, 0.0839911550283432,
        -0.05946997553110123, -0.03392219543457031, 0.04306034371256828,
        -0.010067319497466087, -0.18972896039485931, -0.1731276959180832,
        -0.08798306435346603, 0.12336480617523193, -0.16694077849388123,
        -0.15564890205860138, -0.0943840965628624, -0.1180366724729538,
        -0.04038643091917038, 0.05702614784240723, 0.015300273895263672,
        -0.07758112996816635, -0.16630280017852783, 0.06437188386917114,
        0.10084803402423859, -0.1315455138683319, 0.11603204160928726,
        0.11199822276830673, -0.2759583294391632, 0.4544248580932617,
        0.1677425056695938, 0.09642700105905533, 0.37546664476394653,
        -0.19987852871418, 0.4135107696056366, 0.1386730670928955,
        -0.1363031268119812, -0.23103070259094238, 0.5368379950523376,
        -1.1362918615341187, -0.6674631834030151, 0.6393812894821167,
        0.5678857564926147, -2.0040266513824463, -0.5628129839897156,
        0.0333249568939209, -0.016796408221125603, -0.015012078918516636,
        0.010723269544541836, -0.01827225089073181, -0.056875791400671005,
        0.00901964120566845, -0.11307279765605927, 0.013387148268520832,
        0.0986015722155571, -0.7808116674423218, 0.46789243817329407,
        -0.03923970088362694, -0.5601511001586914, 0.36122268438339233,
        0.1790778934955597, -0.04831767827272415, 0.007878079079091549,
        0.34826579689979553, -0.4608321189880371, -0.15594220161437988,
        -0.046956807374954224, -1.2492954730987549, 0.22034157812595367,
        -0.10984732210636139, -1.7718497514724731, 0.16788388788700104,
        -0.2135184109210968, -0.10589929670095444, -0.06200074031949043,
        -0.5781794190406799, 0.39379021525382996, 0.3516736626625061,
        -0.6990979313850403, 0.41217976808547974, 0.10485228896141052,
        -0.12774796783924103, -0.39802876114845276, -0.010433042421936989,
        0.0814797654747963, 0.20301908254623413, -0.26510241627693176,
        -0.29914429783821106, 0.7863199710845947, -0.8484289050102234,
        0.52520352602005, 0.7866690158843994, 0.161300927400589,
        -0.10279855877161026, 0.01603507250547409, 0.1910882592201233,
        -0.11044373363256454, -0.6270705461502075, 0.007121539209038019,
        -0.8794105052947998, -0.5205041766166687, -0.7913768887519836,
        -0.11220663040876389, -0.11402387917041779, -1.1139166355133057,
        0.14240603148937225, -0.13183288276195526, -2.6298253536224365,
        -0.20482243597507477, -0.1303906887769699, -0.023269424214959145,
        -0.24010710418224335, -0.17002253234386444, 0.25535711646080017,
        -0.003036484122276306, 0.12428273260593414, 0.00553830387070775,
        0.5964264869689941, 0.024542516097426414, 0.2762875258922577,
        0.24550119042396545, 0.04340653494000435, 0.04485902935266495,
        -0.036187198013067245, -0.010908091440796852, -0.08296632766723633,
        0.1430937498807907, -0.18456822633743286, -0.5902077555656433,
        0.2771896421909332, 0.28765007853507996, -0.20289255678653717,
        0.03386703506112099, 0.416776567697525, -0.5730152726173401,
        0.325325608253479, 1.1216421127319336, 0.07368156313896179,
        0.911384105682373, -0.7720353603363037, 0.14765898883342743,
        0.8816987872123718, -0.9875423908233643, 0.20147232711315155,
        0.555006742477417, -0.858335018157959, -0.6457091569900513,
        -0.027903050184249878, -0.5821674466133118, -0.5053340196609497,
        1.3241420984268188, 0.7366347908973694, 0.44086214900016785,
        -0.006458002608269453, 0.4482956826686859, 1.300238013267517,
        0.2572518587112427, 0.12022247910499573, 1.1313555240631104,
        0.4042961299419403, -0.754084050655365, 0.4931873679161072,
        0.13869333267211914, -0.6951895356178284, -0.313609778881073,
        0.5713868737220764, -0.6424219012260437, -0.958603024482727,
        -0.3414789140224457, 0.16653528809547424, -0.8854268193244934,
        -0.10269486904144287, -0.47492051124572754, 0.04986613243818283,
        0.2361413985490799, -0.41661086678504944, -0.8078845739364624,
        0.28732481598854065, -1.092818021774292, -2.293185234069824,
        0.2693224251270294, -1.1446090936660767, 0.4420457184314728,
        0.8149598836898804, -1.5451096296310425, -0.8227078914642334,
        0.8645591735839844, -1.9181829690933228, -2.295464277267456,
        0.04823494330048561, 0.04799528047442436, -0.012681772001087666,
        -0.01270668487995863, -0.04762110859155655, -0.08445742726325989,
        -0.08588757365942001, 0.012785877101123333, -0.01905936375260353,
        -2.0110912322998047, 1.4560457468032837, 0.2967807948589325,
        -0.35697928071022034, 1.0075969696044922, 0.5251988172531128,
        -0.22956636548042297, 0.3692600429058075, -0.21047434210777283,
        0.38265514373779297, 0.24385634064674377, -0.24601268768310547,
        0.6435500383377075, 0.07422398775815964, 0.06122617796063423,
        0.011594751849770546, -0.10793127119541168, -0.018644671887159348,
        -0.3225138485431671, 0.9491500854492188, 0.43478283286094666,
        -1.4543747901916504, 0.12673400342464447, -1.0137101411819458,
        -1.8660372495651245, 1.3996888399124146, -0.023894015699625015,
        0.15001358091831207, -0.30210626125335693, -0.6462445259094238,
        -0.0006981210317462683, 0.19358156621456146, -0.35437944531440735,
        0.042517442256212234, 0.41772228479385376, 0.1725585162639618,
        -0.11639710515737534, -0.40482839941978455, -0.7912299633026123,
        -0.3241609036922455, 0.3184688091278076, 0.28156426548957825,
        0.7935994267463684, 0.03240795433521271, -0.2471754401922226,
        0.28687700629234314, 0.20960284769535065, -0.6620351076126099,
        -0.4795036315917969, 0.0943218320608139, -0.9007419943809509,
        -0.6688852310180664, 0.865227460861206, 0.7301610112190247,
        0.3137911856174469, 0.30776432156562805, 0.28965291380882263,
        0.06079539284110069, 0.11164510995149612, -0.07136856764554977,
        -0.001003217650577426, 0.030430305749177933, -0.09906649589538574,
        0.01038915291428566, -0.9370257258415222, -0.4815348982810974,
        -0.30450913310050964, -0.48725107312202454, -0.16863277554512024,
        -0.08909278362989426, -0.09240411221981049, -0.39278802275657654,
        0.07289126515388489, 0.6935291290283203, -1.1382629871368408,
        0.34714704751968384, 0.4403926730155945, 0.20958983898162842,
        -0.12898719310760498, 0.21907995641231537, -0.02597144991159439,
        -0.005975463893264532, 0.1531609147787094, -0.02596396766602993,
        -1.7683247327804565, -0.6425116658210754, -1.2329949140548706,
        -3.270467758178711, -0.5907489061355591, -2.3115994930267334,
        -0.17589889466762543, 1.5937950611114502, 0.6552593111991882,
        0.48263147473335266, 2.172424554824829, 1.195088505744934,
        -0.43442729115486145, 0.860453724861145, -1.3849279880523682,
        -1.0730541944503784, 0.5841245651245117, 0.38709697127342224,
        0.14183808863162994, 0.2761942744255066, -0.6067082285881042,
        -0.26680466532707214, -0.4632134437561035, -0.05679427832365036,
        0.13828802108764648, -2.234112501144409, -2.010138988494873,
        -0.32501786947250366, -0.48682430386543274, -0.9148804545402527,
        -1.8197743892669678, -3.8828506469726562, -2.7611162662506104,
        0.251008540391922, 0.3853587210178375, 0.22714951634407043,
        0.2278483659029007, -0.05910378694534302, -0.04034639522433281,
        -0.04427795857191086, 0.05397313833236694, 0.918709933757782,
        0.35227325558662415, -0.12754738330841064, 0.11291772127151489,
        0.3702296018600464, 0.10702861845493317, 0.23176395893096924,
        -0.3910675048828125, 0.1604379266500473, 0.15521687269210815,
        0.01805138774216175, 0.0034197508357465267, 0.038097988814115524,
        -0.014645388349890709, -0.024178704246878624, 0.013117612339556217,
        -0.0828222706913948, 0.04470175504684448, 0.060114312916994095,
        -0.1895047277212143, -0.33231496810913086, -0.1398085057735443,
        0.20982195436954498, -0.07929900288581848, -1.1631865501403809,
        0.49123820662498474, -0.07910126447677612, 0.2602052390575409,
        0.6825644969940186, 0.1543668657541275, -0.16127020120620728,
        0.4079807996749878, 0.16039977967739105, 0.10836034268140793,
        -0.3425865173339844, 0.06244157999753952, 0.10255084186792374,
        0.2033080905675888, 0.3839869201183319, 0.06325597316026688,
        0.04929728806018829, -0.6758426427841187, -1.0559403896331787,
        -2.039524793624878, -0.4175143539905548, -0.7345616221427917,
        -0.319468230009079, -0.02122393436729908, -0.10776510834693909,
        0.07943903654813766, 0.13732047379016876, 0.10129113495349884,
        -0.11547663062810898, -0.0484858937561512, -0.09169770032167435,
        -0.48905959725379944, 0.09030228853225708, 0.3580399751663208,
        0.14266419410705566, 0.07680332660675049, 0.7279664278030396,
        -1.6667890548706055, -1.2451207637786865, 0.5907557606697083,
        -0.5454346537590027, -0.3385404348373413, -0.8938342332839966,
        -0.9999170899391174, 0.005087568890303373, -1.5560423135757446,
        1.3236674070358276, 0.9806274175643921, 0.8313818573951721,
        -0.049653880298137665, -0.2652180790901184, -0.33760854601860046,
        0.08721092343330383, 0.005465401336550713, 0.05087079107761383,
        0.009677321650087833, -0.14008508622646332, -0.1293959766626358,
        -0.999707043170929, -0.6712579131126404, -0.8838938474655151,
        -0.17795135080814362, -0.2068994790315628, -0.41995763778686523,
        0.2866852581501007, 0.07162019610404968, -0.10289669036865234,
        0.14281854033470154, 0.3369863033294678, 0.12327959388494492,
        -0.05558716505765915, 0.23389668762683868, 0.150059774518013,
        -0.13418741524219513, -0.2351585328578949, -0.2906080484390259,
        -0.15443840622901917, 0.4832458794116974, 0.31873461604118347,
        0.0035043153911828995, 0.3874112367630005, -0.03474799543619156,
        -1.1756839752197266, -0.03317445516586304, -0.680862545967102,
        0.19879792630672455, 0.8236136436462402, -0.7422550320625305,
        0.26936057209968567, -0.03788263350725174, -0.3742441236972809,
        0.12146817147731781, -0.43526339530944824, 0.14872272312641144,
        0.034245237708091736, 0.225115567445755, -1.3328219652175903,
        -0.03155123442411423, 0.3682415187358856, -0.19366683065891266,
        0.3902641534805298, 0.3074810802936554, 0.3126048743724823,
        -0.4631893038749695, 0.30907055735588074, 0.37887609004974365,
        0.4912436008453369, 0.7934480309486389, 0.439463347196579,
        0.545015275478363, 0.4662167429924011, 0.5831186175346375,
        0.5409501791000366, -0.4843040108680725, -0.00931498222053051,
        0.16617676615715027, -0.30012673139572144, 0.24901355803012848,
        -0.24754200875759125, 0.008508413098752499, -0.47953930497169495,
        0.38631054759025574, -0.20049847662448883, 0.07962773740291595,
        -0.0932876393198967, -0.8039273619651794, -0.15587452054023743,
        0.1758255511522293, 0.14575979113578796, -0.21169348061084747,
        0.01964922621846199, 0.03562076389789581, -0.02227017842233181,
        -0.08320587128400803, -0.1116853579878807, -0.07466829568147659,
        -0.030491963028907776, -0.0035307107027620077, -0.07601805031299591,
        -0.04573269933462143, -0.11804996430873871, -0.03089785762131214,
        -0.031562868505716324, -0.11445925384759903, 0.5702850818634033,
        -0.37545740604400635, 0.2734157145023346, -1.1731528043746948,
        -0.8966991305351257, 0.639934241771698, 0.49929577112197876,
        -0.040890153497457504, 0.5275328159332275, 0.03080621175467968,
        -0.23389896750450134, 0.5170795321464539, -0.3983694911003113,
        0.10956919938325882, -0.07147441059350967, -0.3239448070526123,
        0.21308565139770508, -0.20711453258991241, -0.23488779366016388,
        0.5034694075584412, -0.2921907901763916, 0.13384568691253662,
        0.028310002759099007, 0.36810067296028137, -0.658346951007843,
        -0.007617601193487644, 0.054143816232681274, -1.385974407196045,
        -0.6915793418884277, 0.4566821753978729, -0.8057097792625427,
        -0.8770276308059692, -1.2071832418441772, -0.5987449884414673,
        -0.8985077738761902, -0.6632651686668396, -0.02926350012421608,
        -0.2701236307621002, -0.972131073474884, -0.5232837796211243,
        -0.6682842969894409, -0.2619437575340271, 0.7343043684959412,
        -0.09063626825809479, -0.19495312869548798, 0.12237309664487839,
        -0.13861988484859467, -0.01763997972011566, 0.47112420201301575,
        0.13962583243846893, -0.27741363644599915, -0.7539962530136108,
        -0.147378608584404, -0.3429519534111023, -0.5409231185913086,
        0.11976940184831619, 0.09831471741199493, -0.44318366050720215,
        0.1335187703371048, 0.10085834562778473, 1.2427599430084229,
        -0.012724236585199833, -0.0545596219599247, 0.0030485226307064295,
        -0.4174877405166626, 0.21017909049987793, -2.61844539642334,
        0.11998776346445084, 0.5249814391136169, -0.2798738181591034,
        -0.32890209555625916, 0.011567343957722187, 0.13179656863212585,
        -0.8576066493988037, -0.27725014090538025, -1.066003680229187,
        0.31493741273880005, 0.5798407196998596, -1.0003129243850708,
        0.2825640141963959, 0.4352986216545105, -0.14661893248558044,
        0.12072771042585373, 0.855765163898468, -0.49186941981315613,
        1.1611957550048828, -1.2192684412002563, 0.8876224756240845,
        0.05902193859219551, -0.9762052893638611, 0.5079702138900757,
        -0.4807139039039612, -0.4550091326236725, -0.9116318821907043,
        -0.26473498344421387, -0.05152211710810661, -0.36218059062957764,
        -0.138715460896492, 0.027252759784460068, -1.0481667518615723,
        0.7551850080490112, -1.2910828590393066, -0.7651287317276001,
        -0.44259369373321533, -0.08012301474809647, 1.6009917259216309,
        0.4371711313724518, 0.7847572565078735, -0.644677460193634,
        0.2330307811498642, 0.7458457350730896, -0.5457502007484436,
        -0.9586783051490784, -0.6224876642227173, -0.37925443053245544,
        -0.8161259293556213, -0.30582916736602783, 0.4101676046848297,
        -0.14000394940376282, 0.39541131258010864, -0.6276752352714539,
        -1.8148220777511597, -0.888583779335022, -0.581021785736084,
        -0.5822561979293823, 0.6171140074729919, -0.353427529335022,
        -0.7546933889389038, -0.5617005228996277, 0.16123758256435394,
        -0.02637876197695732, -0.0022226274013519287, -0.011554025113582611,
        -0.006737724877893925, 0.049881886690855026, 0.044662244617938995,
        -0.048691194504499435, -0.012214737012982368, -0.0025685227010399103,
        0.6245895028114319, -0.403895765542984, -0.8848526477813721,
        -0.3276621699333191, 0.45501908659935, -0.23511841893196106,
        0.32698294520378113, 0.22373613715171814, 0.17201010882854462,
        0.6700186133384705, -0.020019464194774628, 0.31732189655303955,
        0.3690398633480072, 0.15841278433799744, -0.09027142077684402,
        -0.01880829967558384, 0.08529594540596008, 0.04983450844883919,
        0.22986336052417755, 0.21806080639362335, 0.3008041977882385,
        -0.9744888544082642, -0.926680326461792, -1.0009280443191528,
        -0.5928531289100647, 0.6266145706176758, -1.10979163646698,
        0.3026263415813446, 0.03247671201825142, -0.8144527077674866,
        -0.2183534950017929, -0.5632053017616272, -0.18266886472702026,
        0.1573203057050705, -0.02290498837828636, 0.1388903558254242,
        0.5691820383071899, -0.02933800034224987, 0.7757524847984314,
        0.42416003346443176, 0.004580089822411537, -0.03863080218434334,
        -1.1159601211547852, -0.9762374758720398, -0.22804047167301178,
        0.5189818739891052, 0.7074467539787292, 0.3179458677768707,
        -1.893923282623291, -1.5179837942123413, 0.2723526656627655,
        0.17925745248794556, -1.4889582395553589, -0.7217909693717957,
        0.010978561826050282, -0.08131075650453568, 0.2631070017814636,
        -0.19710566103458405, -0.02888062782585621, 0.12621058523654938,
        -0.01152713317424059, 0.04687051847577095, -0.1852298378944397,
        -0.7904958128929138, -0.6286264657974243, -0.574369490146637,
        0.07572194933891296, 0.1606035679578781, 0.18662308156490326,
        -0.051226235926151276, 0.4407937824726105, 0.08911021798849106,
        -0.30089855194091797, -0.7182561755180359, 0.035800375044345856,
        0.22169333696365356, 0.011824497953057289, 0.10901174694299698,
        0.048603031784296036, 0.12485555559396744, 0.06349087506532669,
        0.6526169180870056, 0.14581912755966187, -0.12244246900081635,
        -1.641961932182312, -0.46180495619773865, -0.17138803005218506,
        -0.545007050037384, -0.000780208851210773, -0.44594597816467285,
        -0.5850057601928711, 0.68113774061203, 0.25011828541755676,
        -0.1347656399011612, 0.7666411995887756, -0.020790016278624535,
        -0.5321495532989502, -0.33096614480018616, -0.26393526792526245,
        -0.6547296047210693, -0.20673856139183044, -1.454997181892395,
        -0.21152880787849426, 0.7460112571716309, 0.24167144298553467,
        0.24674275517463684, 0.6548934578895569, 0.681930661201477,
        1.3002041578292847, 0.2885908782482147, 0.2723802924156189,
        0.5538895726203918, -0.10106821358203888, -1.3932985067367554,
        0.6303791999816895, 0.29444536566734314, -0.48726242780685425,
        -0.17302903532981873, -1.208553433418274, -0.37885212898254395,
        0.3128896951675415, -0.09826777130365372, 0.34434810280799866,
        0.21515053510665894, 0.6587730050086975, 0.69342041015625,
        -0.7066916227340698, -1.603654384613037, -0.5682972073554993,
        0.008882383815944195, -0.21804606914520264, 0.9733057022094727,
        0.06725306808948517, 0.14216701686382294, 0.22048380970954895,
        -0.05609121546149254, -0.08481106907129288, -0.018266519531607628,
        0.000636339362245053, -0.056164227426052094, 0.00648665614426136,
        -0.01655575819313526, -0.0037197256460785866, 0.01313160639256239,
        -0.21399490535259247, 0.27994805574417114, -1.1738637685775757,
        0.5280881524085999, -0.13042037189006805, -0.5591648817062378,
        -0.13889338076114655, 0.23723146319389343, 0.045519959181547165,
        -0.5228583812713623, -0.43862804770469666, -0.3572600483894348,
        0.20170238614082336, 0.3491474986076355, 0.12031268328428268,
        -0.6739923357963562, -0.29035842418670654, 0.13551364839076996,
        0.5218188762664795, 0.5217521786689758, 0.368070125579834,
        -0.5315022468566895, -0.09148445725440979, -0.1695772260427475,
        0.16563363373279572, -0.7114623188972473, -0.3613895773887634,
        -0.2544178068637848, -0.18010751903057098, 0.02720579504966736,
        -0.07743006199598312, 0.13408683240413666, -0.7226069569587708,
        0.0424007922410965, 0.38451647758483887, -0.7542805075645447,
        0.5290303230285645, 0.2026616632938385, 0.0011033880291506648,
        -0.43311429023742676, 0.1792643815279007, -1.2721052169799805,
        -0.9660409092903137, 0.23313471674919128, -0.4541456997394562,
        0.08809700608253479, 0.5182726383209229, -0.12332051247358322,
        -0.24191059172153473, -0.1054895892739296, -0.25169962644577026,
        -0.4020683765411377, 0.8821207880973816, -0.5570304989814758,
        -0.5655179619789124, -0.5719636678695679, -0.3520349860191345,
        -0.06277322769165039, -0.009776455350220203, 0.442809134721756,
        0.09128663688898087, 0.0008839989313855767, 0.3543812930583954,
        -0.9766731262207031, -0.047795914113521576, -0.46107766032218933,
        -0.14536833763122559, -0.45093095302581787, -0.21734967827796936,
        0.3712160885334015, -0.02030731365084648, 0.09160510450601578,
        0.43803808093070984, -0.5344488620758057, -0.42057207226753235,
        0.04890751466155052, -0.11095213890075684, -0.23743535578250885,
        -0.3451603055000305, -0.20510345697402954, 0.292459636926651,
        0.8134512305259705, 0.5896525382995605, 0.4283182919025421,
        0.19323498010635376, -0.3012503683567047, 0.10179513692855835,
        -0.8671057224273682, -0.18155543506145477, 0.23424728214740753,
        0.6830419898033142, 1.433048129081726, 1.1045879125595093,
        -1.320086121559143, -0.9195739030838013, -0.5900643467903137,
        0.5538613200187683, 0.04237043485045433, 0.3772052824497223,
        -0.33561283349990845, -0.8095812201499939, -1.3329001665115356,
        -0.34568315744400024, -0.3947274088859558, -0.5726972222328186,
        -0.059349726885557175, 0.50114506483078, -0.005456714890897274,
        1.0585380792617798, 1.021442174911499, -0.3475753366947174,
        0.10915137082338333, 0.33810076117515564, -0.02678396925330162,
        -0.45699480175971985, 0.2819177806377411, 1.3451108932495117,
        0.018755048513412476, 0.2997577488422394, 0.13233919441699982,
        0.23813781142234802, 0.16585397720336914, 0.324444442987442,
        0.19185005128383636, 0.29864999651908875, 0.6723572611808777,
        0.18182139098644257, 0.19108793139457703, -0.027481257915496826,
        0.37007614970207214, 0.3012714982032776, 0.3351621925830841,
        0.07506709545850754, 0.2988235354423523, 1.2163009643554688,
        -0.04869905486702919, -0.011147434823215008, -0.09031866490840912,
        -0.018827106803655624, -0.03647598996758461, 0.04480750113725662,
        -0.005457485094666481, -0.058093901723623276, -0.029933888465166092,
        -0.7708736062049866, -0.282962828874588, -0.388590544462204,
        -0.1828279048204422, 0.02674267068505287, -0.3967483341693878,
        0.11279351264238358, 0.010840940289199352, 0.1445668339729309,
        0.19958092272281647, 0.3463073670864105, 0.18725009262561798,
        0.17725540697574615, 0.4005875289440155, 0.07129354029893875,
        -0.5317590832710266, 0.09857963770627975, -0.09289572387933731,
        0.1052803322672844, -0.03985260799527168, 0.3015069365501404,
        -0.42175689339637756, -0.2358991950750351, -0.49883168935775757,
        -0.8686347007751465, -0.5444936156272888, -0.9490116238594055,
        0.330960214138031, -6.0006947023794055e-5, -0.15638385713100433,
        0.08185126632452011, 0.05202659219503403, 0.03492005169391632,
        -0.0020032692700624466, -0.07954849302768707, 0.37559619545936584,
        -1.2754548788070679, -0.4177432954311371, -0.25194117426872253,
        -0.8582572937011719, -0.4787119925022125, -0.4712127447128296,
        -0.27851277589797974, -0.39173707365989685, -0.9742745757102966,
        -0.3644922375679016, -0.48814818263053894, -0.18065840005874634,
        -0.21538639068603516, -1.009682059288025, -1.776668667793274,
        0.7795827388763428, 0.10403349250555038, -0.3554552495479584,
        0.19924286007881165, 0.16637858748435974, -0.03877545893192291,
        0.11962863802909851, 0.17728452384471893, 0.06425081938505173,
        -0.2399754673242569, -0.15684229135513306, -0.1639855057001114,
        -0.2691909074783325, -0.4127884805202484, -0.5627912282943726,
        -0.062350980937480927, -0.2941223680973053, -0.47267359495162964,
        0.3352143466472626, 0.1339869350194931, -0.05988046154379845,
        0.17532919347286224, -0.04229694977402687, -0.05444209277629852,
        0.15419840812683105, 0.3316531181335449, 0.29164695739746094,
        -0.2193729132413864, -0.15953052043914795, -0.2881273031234741,
        0.42556530237197876, 0.4816817343235016, 0.41417554020881653,
        -1.9666557312011719, -0.8115258812904358, -0.8995790481567383,
        -1.040174126625061, 0.18184582889080048, -0.4671231210231781,
        -0.7447230219841003, 0.23979052901268005, 0.26780110597610474,
        -0.20394092798233032, 0.07656120508909225, -0.6033252477645874,
        0.3515435755252838, 0.01298765279352665, -0.18924078345298767,
        -0.1251639872789383, -0.5098031163215637, -0.5530979633331299,
        0.2762826979160309, 0.15878048539161682, -0.04654231667518616,
        0.5061141848564148, 0.3380398154258728, -0.2755788564682007,
        0.07186107337474823, -0.08641786873340607, 0.15546001493930817,
        0.8597720265388489, 0.9219056367874146, 0.2185244858264923,
        0.8263071179389954, -0.0468398816883564, 0.1594846397638321,
        0.038038283586502075, 0.008931025862693787, -0.03920625522732735,
        0.2881257236003876, 0.4748271703720093, 0.2262524664402008,
        0.2884725034236908, -0.03322746604681015, 0.521204948425293,
        -0.08103801310062408, 0.04223078861832619, 0.24730660021305084,
        0.2707054615020752, -0.29919543862342834, 0.22331999242305756,
        0.3958829343318939, -0.6779972910881042, -0.35912734270095825,
        -0.016853459179401398, -0.02684537135064602, 0.06870973855257034,
        0.03336150571703911, 0.062071435153484344, 0.052217546850442886,
        0.00506423506885767, -0.045158255845308304, -0.09036502987146378,
        0.5390066504478455, -0.8010613322257996, 0.3170137405395508,
        0.3221955895423889, -0.5888895988464355, 0.070633664727211,
        0.2230016142129898, -0.071108877658844, -0.22541560232639313,
        0.796903133392334, -0.1444416344165802, 0.15515998005867004,
        0.15237680077552795, -0.0703609511256218, 0.18193553388118744,
        -0.15180093050003052, 0.1300487518310547, 0.5593553781509399,
        -0.09419339150190353, 0.35115140676498413, 0.08302335441112518,
        -0.9101577401161194, 0.03477698192000389, -0.394165962934494,
        -1.1457725763320923, -0.16865073144435883, -0.6293312907218933,
        0.4550912380218506, -0.01592179760336876, -0.11782733350992203,
        -0.11247889697551727, -0.10048051923513412, -0.3656999468803406,
        -0.26072704792022705, 0.39416754245758057, -0.4972425401210785,
        -0.42926356196403503, -0.3334049582481384, 0.10308849811553955,
        -0.07288017123937607, -0.014060907997190952, 0.23863567411899567,
        0.25838932394981384, -0.11021175235509872, 0.9157735705375671,
        0.18915142118930817, 0.16104047000408173, 0.33164316415786743,
        -0.3887733817100525, -0.5812216997146606, -0.54405677318573,
        0.2425665408372879, 1.23382568359375, -2.1959943771362305,
        0.097288116812706, -0.15776240825653076, -0.19436264038085938,
        0.14525555074214935, 0.05693700909614563, -0.4573414921760559,
        0.15473590791225433, 0.178103506565094, -0.19615282118320465,
        -0.2405422329902649, -0.8317502737045288, -0.8565543293952942,
        -0.17400091886520386, -0.14757603406906128, -0.30950337648391724,
        -0.2307893931865692, 0.16963963210582733, -0.0780816525220871,
        0.22565332055091858, 0.19500821828842163, 0.17423413693904877,
        0.3118646740913391, 0.20289042592048645, 0.03495144471526146,
        0.11958808451890945, 0.2704319655895233, 0.5780344009399414,
        0.37498727440834045, -0.0829424038529396, -0.13243967294692993,
        -0.8240689635276794, 0.52049320936203, -0.37031152844429016,
        -0.47026702761650085, 1.318143367767334, -0.2519190013408661,
        0.3682086765766144, 0.7464194893836975, 0.48606476187705994,
        0.25707778334617615, 1.1334383487701416, 0.19971677660942078,
        0.09388112276792526, 0.15359371900558472, 0.6492916345596313,
        0.08686432987451553, -0.19146350026130676, -0.2100449800491333,
        0.37915948033332825, 0.23106953501701355, -0.5081364512443542,
        0.6046286821365356, 0.6041120290756226, -0.33854255080223083,
        -0.03901468217372894, 0.6108930110931396, -0.03092140331864357,
        -0.025660812854766846, 0.5840067267417908, -0.856670618057251,
        0.5743257999420166, 0.9957061409950256, -0.1282934844493866,
        -0.6907221674919128, 0.5838611721992493, -0.8875191807746887,
        0.7600739002227783, -0.5971521139144897, 1.052103877067566,
        -0.39199814200401306, 1.104942798614502, -0.23757120966911316,
        0.5663816332817078, -0.9324063062667847, 0.730053186416626,
        -1.0651216506958008, 0.4921243190765381, -1.7748980522155762,
        -0.6765902638435364, -0.8396594524383545, -0.28142082691192627,
        -0.052193623036146164, -0.005628291051834822, 0.024510780349373817,
        -0.021711768582463264, 0.002888101153075695, -0.10030242055654526,
        -0.023119736462831497, -0.11134417355060577, -0.03754432126879692,
        -0.3448885381221771, -0.8875213861465454, -1.0595334768295288,
        -0.2655419707298279, -0.019885096698999405, -0.7877815365791321,
        0.034670136868953705, 0.035252198576927185, 0.048057738691568375,
        -0.08449863642454147, 0.1150367259979248, 0.18844977021217346,
        -0.26922187209129333, -0.25544092059135437, 0.26264041662216187,
        0.04424520954489708, 0.14497794210910797, -0.2447507083415985,
        -0.4289715886116028, 0.38690438866615295, -0.11360915005207062,
        0.26190927624702454, -0.6205328106880188, 0.1558833122253418,
        -1.228664517402649, -1.0257325172424316, -0.7697961926460266,
        -0.036902736872434616, 0.15190641582012177, 0.5045768618583679,
        0.30975404381752014, 0.194249227643013, -0.7584279775619507,
        -0.1967538446187973, 0.0839126855134964, 0.27390918135643005,
        -0.45688945055007935, -0.0939929261803627, 0.5060155391693115,
        -0.1363459825515747, -0.7479449510574341, 0.2891494929790497,
        1.1514066457748413, 0.17666876316070557, -1.4087975025177002,
        0.008149436675012112, -0.9756633043289185, -0.03600269556045532,
        -0.29919424653053284, -0.1629297137260437, -0.3649061620235443,
        0.9327918291091919, -1.6924763917922974, 0.10987679660320282,
        -0.35848090052604675, -0.30171632766723633, 0.725701630115509,
        -0.013370731845498085, -0.14686346054077148, -0.3446224629878998,
        -0.20218230783939362, -0.05448843538761139, 0.14941313862800598,
        -0.23231224715709686, -1.075039267539978, -0.6413339972496033,
        0.20458954572677612, -0.7857839465141296, 0.04614682123064995,
        -0.1436062604188919, 0.16922730207443237, -0.07267211377620697,
        0.4797861576080322, 0.13281840085983276, 0.19842372834682465,
        0.08108672499656677, 0.24599789083003998, -0.016777625307440758,
        0.2991613745689392, 0.10518469661474228, -0.20960251986980438,
        0.43292099237442017, -0.8855553865432739, 0.3335460424423218,
        -2.135758638381958, 0.6518998742103577, -0.8455942273139954,
        1.019052505493164, -0.8361619710922241, 0.6311519742012024,
        1.1660710573196411, -0.049634311348199844, 0.2695278525352478,
        0.3563140630722046, 0.6328585743904114, -1.2095659971237183,
        -0.21882516145706177, 0.3772048056125641, 0.7388437986373901,
        1.0758050680160522, -1.2126880884170532, 0.3215634226799011,
        -0.13724449276924133, 1.2386075258255005, -0.12482234835624695,
        -0.17053481936454773, -0.5909286141395569, -0.8860845565795898,
        -0.773972749710083, 1.730751633644104, 0.8283558487892151,
        0.4093382954597473, -0.24299222230911255, 0.09015432745218277,
        0.07884588837623596, -0.4281861186027527, 0.08168600499629974,
        -0.061238668859004974, 0.08521061390638351, -0.35295045375823975,
        -0.44417598843574524, 0.41142839193344116, 0.3152475953102112,
        -0.907652735710144, -0.5340788960456848, -1.2462321519851685,
        -1.1448551416397095, -0.04649898782372475, -0.13272951543331146,
        -0.35002195835113525, 0.20426923036575317, -0.3474114239215851,
        -0.6179813742637634, -0.21089567244052887, -0.6777330636978149,
        0.04806072637438774, -0.02759559080004692, 0.00253050634637475,
        -0.06430628895759583, -0.0350058488547802, 0.048049911856651306,
        0.011458029970526695, 0.04392918199300766, -0.031902968883514404,
        0.4384100139141083, 0.07376766949892044, 0.2799442708492279,
        -0.1186947226524353, 0.09994900971651077, 0.6027626395225525,
        -0.2658204734325409, -0.3955889344215393, -0.31550464034080505,
        1.1476114988327026, -0.17854705452919006, 0.24290341138839722,
        0.16403521597385406, -0.31285837292671204, -0.408063143491745,
        -0.6044266223907471, 0.3049638569355011, -0.44334131479263306,
        -0.3797159194946289, -0.05757143720984459, 0.5717321634292603,
        -0.3583351671695709, 0.3911988139152527, 0.7699891924858093,
        -0.3464648127555847, -0.3075028955936432, 0.22878141701221466,
        -0.28931841254234314, -1.0284011363983154, -0.26431238651275635,
        -0.15325213968753815, -0.4947636127471924, -1.2906798124313354,
        0.1542775183916092, -0.47084346413612366, -0.13336817920207977,
        -0.4575788378715515, 0.03787470981478691, -1.8819886445999146,
        0.03181126341223717, -0.7465766668319702, -0.2433256208896637,
        -0.25770896673202515, 0.18014740943908691, -0.8770765662193298,
        -0.5118085741996765, -0.9066361784934998, 0.7820683121681213,
        -0.26064348220825195, -0.24635155498981476, -0.21140611171722412,
        -0.06841887533664703, -0.39952313899993896, -1.0039781332015991,
        0.23559023439884186, 0.12277036905288696, -0.4142642915248871,
        0.1758253127336502, -0.6981611847877502, -1.059433102607727,
        -0.09293998032808304, -0.5476043820381165, -0.09244733303785324,
        0.23632130026817322, -0.011830121278762817, -1.154616117477417,
        0.4028714597225189, -0.0647660419344902, -0.09863510727882385,
        0.34122994542121887, 0.16877003014087677, 0.06718439608812332,
        0.36665189266204834, 0.3339037001132965, -0.09678567945957184,
        0.1072576642036438, -0.20226439833641052, -0.6886484622955322,
        0.4341287314891815, -0.25597578287124634, -0.32227590680122375,
        0.4790971577167511, -0.6456590890884399, -0.4663656949996948,
        -0.5588482618331909, 0.15812931954860687, 0.4363180696964264,
        0.4355672597885132, 0.2283744513988495, -0.8666144609451294,
        0.5060617923736572, 0.5622740387916565, 0.8233144283294678,
        0.2717199921607971, 0.48963403701782227, 0.23197874426841736,
        0.33071035146713257, 0.5869652032852173, -0.5395689010620117,
        -0.6771659851074219, -0.8919962048530579, -2.2400481700897217,
        0.3514525294303894, 0.1867491900920868, -0.35946768522262573,
        -0.275884747505188, -0.40805739164352417, -1.9450751543045044,
        1.3512576818466187, -0.6052846908569336, -0.21517755091190338,
        0.7346793413162231, -1.7097498178482056, 1.125551462173462,
        1.0152093172073364, -0.18998190760612488, 0.04439166560769081,
        -0.12914423644542694, -0.05785532295703888, -0.14489850401878357,
        -0.10368642956018448, -0.14687605202198029, -0.10523432493209839,
        -0.10083925724029541, -0.248310849070549, -0.08062954246997833,
        0.02470843866467476, -0.04658663272857666, -0.052948761731386185,
        -0.059848446398973465, -0.2835148572921753, -0.15417127311229706,
        -0.08454111218452454, -0.2534077763557434, -0.13864855468273163,
        -0.028173666447401047, -0.02166886255145073, -0.07447143644094467,
        -0.018614819273352623, 0.023210247978568077, 0.012981276027858257,
        0.04968872666358948, 0.012789716944098473, 0.02887079119682312,
        -0.06090386211872101, -0.1419813334941864, -0.017171572893857956,
        -0.1487850546836853, -0.10702178627252579, -0.25829383730888367,
        -0.041561052203178406, -0.09535647183656693, 0.024422157555818558,
        -0.053477831184864044, -0.23457612097263336, -0.17290513217449188,
        -0.19640032947063446, -0.24898608028888702, -0.14919841289520264,
        -0.22042216360569, -0.20142526924610138, -0.20973092317581177,
        -0.12458492815494537, -0.08863119781017303, -0.11730480939149857,
        0.06652986258268356, -0.060208532959222794, -0.09466523677110672,
        -0.3086059093475342, -0.20430192351341248, -0.030255867168307304,
        -0.13617612421512604, -0.12119351327419281, -0.19010554254055023,
        -0.2189422845840454, -0.2839542627334595, -0.22176867723464966,
        -0.2625454366207123, -0.12737639248371124, -0.17331565916538239,
        -0.19880159199237823, -0.146527498960495, -0.11767783015966415,
        -0.11554382741451263, -0.1713486909866333, 0.004638218320906162,
        -0.08711342513561249, -0.17968520522117615, -0.14808930456638336,
        -0.09055253863334656, -0.19914913177490234, -0.022930897772312164,
        0.09093262255191803, 0.010765410959720612, -0.1658746600151062,
        -0.15256129205226898, -0.1135515347123146, -0.06026747450232506,
        -0.21854977309703827, -0.2186782956123352, -0.21352724730968475,
        -0.18590281903743744, -0.15687362849712372, -0.23010046780109406,
        -0.11581169068813324, -0.16471298038959503, -0.13345302641391754,
        -0.17037557065486908, -0.09613844752311707, -0.015088990330696106,
        -0.03022473305463791, -0.28251466155052185, -0.11587367951869965,
        0.004050013609230518, -0.031123556196689606, -0.05592713877558708,
        -0.19827885925769806, -0.11839386075735092, -0.013172520324587822,
        -0.2860037386417389, -0.14387482404708862, -0.13250866532325745,
        -0.2137579470872879, -0.11137037724256516, -0.10449368506669998,
        -0.16778650879859924, -0.09874787926673889, 0.018503809347748756,
        0.05943246930837631, -0.03605770319700241, -0.12287644296884537,
        -0.12769639492034912, -0.16375119984149933, 0.11188763380050659,
        -0.04540514200925827, 0.07978411763906479, 0.19955076277256012,
        -0.004966092295944691, 0.16538766026496887, -0.07730311155319214,
        -0.10225613415241241, -0.051471829414367676, -0.07005184143781662,
        -0.19293330609798431, -0.038347870111465454, 0.005998838692903519,
        -0.158749058842659, -0.05036358907818794, -0.20009739696979523,
        -0.20320317149162292, -0.14096426963806152, -0.17197845876216888,
        -0.08497503399848938, -0.048414893448352814, 0.07607514411211014,
        -0.03775332123041153, 0.04937787726521492, -0.02318876050412655,
        0.1282803863286972, 0.15305505692958832, -0.03271058201789856,
        -0.16198194026947021, -0.07858643680810928, -0.25913122296333313,
        -0.03545196354389191, 0.2113024890422821, 0.41597625613212585,
        0.06565172225236893, 0.5947462916374207, 0.359440416097641,
        -0.10873325169086456, 0.5399267077445984, -0.5627450942993164,
        0.4235633611679077, 0.9633008241653442, 0.5704183578491211,
        -0.06072128191590309, 0.4523738622665405, 1.4391833543777466,
        0.025543950498104095, 0.036783840507268906, 0.013269021175801754,
        0.03126102313399315, 0.039360255002975464, -0.040503066033124924,
        0.001908685895614326, 0.026067383587360382, -0.0409989207983017,
        -0.20309726893901825, -0.4197095036506653, -0.18914274871349335,
        -0.022841688245534897, -0.05191836133599281, -0.5231643319129944,
        -0.18504080176353455, 0.028800196945667267, -0.2216060310602188,
        0.5333029627799988, 0.44213762879371643, -0.13244257867336273,
        0.3795940577983856, 0.41179245710372925, -0.025093823671340942,
        -0.060971781611442566, -0.05062340572476387, 0.12232884764671326,
        -0.8469809293746948, 0.08029035478830338, 0.2149607539176941,
        -1.2683629989624023, 0.015687061473727226, -0.6117651462554932,
        -1.089138150215149, -0.40025484561920166, -1.284696102142334,
        -0.26752790808677673, -0.48388561606407166, -0.34310007095336914,
        0.3060799539089203, 0.0036213002167642117, 0.3078445792198181,
        -0.3211630582809448, -0.3761560916900635, 0.42289870977401733,
        0.23016852140426636, 0.1818883717060089, 0.0460222065448761,
        -0.12564459443092346, -0.10910261422395706, 0.4415149688720703,
        -0.6921186447143555, 0.17733736336231232, 0.3303254246711731,
        -0.16016128659248352, -0.0752696543931961, 0.17135678231716156,
        0.5483510494232178, 0.007178624626249075, -0.2938575744628906,
        0.3363848626613617, -0.19576431810855865, 0.25493597984313965,
        -0.08171606063842773, 0.002167237689718604, -0.3070462942123413,
        0.15675009787082672, 0.12032867223024368, 0.11035199463367462,
        -0.14410437643527985, -0.09554228186607361, 0.07332175225019455,
        -0.16811144351959229, -0.8875024318695068, -0.5790825486183167,
        -0.3933398425579071, -0.6183869242668152, -0.013834651559591293,
        -0.14155183732509613, 0.080103300511837, 0.038239166140556335,
        0.058112747967243195, 0.294836163520813, 0.6367678642272949,
