{"schema":"wishuponablock.model.v1","created_at":"2026-02-13T12:44:37.228823+00:00","source":{"checkpoint":"/Users/max/Desktop/wishuponablock/wishuponablock/tools/ml/checkpoints/phase_polish/best.pt","epoch":2},"pieces":["I","O","T","S","Z","J","L"],"board_channels":["occupancy","holes","row_fill"],"model":{"input_channels":3,"conv_channels":[16,32,64],"mlp_hidden":64,"extra_features":8,"num_outputs":7},"params":{"conv.0.weight":{"shape":[16,3,3,3],"data":[-0.37990930676460266,-0.6142198443412781,-0.16243375837802887,0.4131191670894623,-0.9990841150283813,-1.2153602838516235,0.12675774097442627,-0.28735509514808655,-0.8194209933280945,-0.48083287477493286,0.20488497614860535,-0.40878161787986755,-0.12936682999134064,0.01048428937792778,-0.2102171927690506,0.2724931836128235,0.33928579092025757,0.13101708889007568,0.1416536122560501,-0.12748613953590393,0.02721964381635189,-0.0007082886295393109,0.1749880611896515,0.3383263647556305,-0.2330523133277893,0.1548439860343933,0.4008394479751587,0.2888806164264679,-0.3456706404685974,0.31770873069763184,-0.25131696462631226,-0.7375502586364746,0.012383521534502506,-0.6378075480461121,-0.23720720410346985,0.24798396229743958,0.24149343371391296,-0.9668879508972168,0.38036414980888367,-0.929027795791626,-0.2990025579929352,0.5431556701660156,-0.11743692308664322,-0.13637666404247284,0.3768182098865509,-0.08551805466413498,0.1435234248638153,0.12031011283397675,0.023156678304076195,0.1613924205303192,0.09196412563323975,-0.15250878036022186,0.21541526913642883,0.21651597321033478,0.4734245836734772,-0.6314400434494019,0.2554159462451935,0.18523988127708435,-1.5389996767044067,0.1903231292963028,0.06534779816865921,-0.32597556710243225,0.0848715528845787,0.2350982427597046,-0.3443990647792816,-0.2563726305961609,0.4909956753253937,-0.8616607189178467,0.5389227271080017,0.2077953964471817,-0.6543404459953308,0.14318589866161346,0.010440251789987087,0.36788395047187805,-0.10263025015592575,-0.0935046598315239,0.24037407338619232,-0.22908338904380798,-0.059963762760162354,0.13198614120483398,0.011365369893610477,-0.282030314207077,-0.4240829646587372,-0.31433144211769104,0.06317471712827682,-0.26007312536239624,0.2213723212480545,-0.9925479888916016,-1.434241533279419,0.0007854144205339253,-0.6671866774559021,0.7876356840133667,-0.3631318211555481,-0.3096742331981659,0.9201556444168091,-0.03250705078244209,-0.4424249231815338,-0.1309191882610321,-0.8443253636360168,-0.03084198199212551,-0.06033184379339218,0.2653428316116333,-0.029463211074471474,0.2899864912033081,0.13997386395931244,0.2642110586166382,0.06987762451171875,0.07242578268051147,0.028724323958158493,-0.5538820624351501,0.14074109494686127,0.1506858617067337,0.22455564141273499,-0.48244771361351013,-0.07082527130842209,0.01966303028166294,-0.6472131013870239,-0.37939563393592834,-0.6427982449531555,-0.7644546031951904,-0.520698606967926,-0.5255052447319031,-0.8244597315788269,-0.08115676045417786,-0.11371966451406479,-0.6068546772003174,0.12118905782699585,0.223054438829422,0.1909371167421341,0.20525498688220978,0.20872105658054352,0.0002648902009241283,0.06324197351932526,0.15154966711997986,-0.1112455353140831,0.3163217604160309,-0.772216796875,-0.7353681325912476,-0.3310791254043579,-0.6795867085456848,-0.5132870674133301,-0.037812862545251846,-0.1122688353061676,0.2183796912431717,0.2272404581308365,-0.7198519706726074,-0.3553248941898346,-0.6223667860031128,-0.6272988319396973,-0.5762817859649658,0.14958427846431732,-0.7295836806297302,-0.2743927240371704,-0.16475994884967804,-0.07573769986629486,0.27993807196617126,0.106219083070755,0.15888570249080658,0.24021996557712555,-0.020010391250252724,-0.09938641637563705,0.3749328553676605,-0.5283678770065308,0.298223614692688,0.18585306406021118,-0.5360521674156189,0.26373666524887085,0.1500580906867981,0.13649700582027435,-0.19575250148773193,0.11207150667905807,0.5458388924598694,0.3311249613761902,1.2305141687393188,0.42943423986434937,-0.3779888153076172,-0.00044348661322146654,-0.20109206438064575,-1.0728684663772583,-0.39202380180358887,-0.022256139665842056,0.09922492504119873,-0.01675241068005562,0.22403882443904877,-0.17150923609733582,-0.25011521577835083,0.027601070702075958,0.05678103491663933,0.01364809274673462,-0.3865491449832916,0.4328387677669525,-0.20518794655799866,-0.3311634659767151,0.48532333970069885,0.22987088561058044,0.22644737362861633,0.31056690216064453,-0.0009072654647752643,-0.12002397328615189,-0.22502583265304565,-0.43136876821517944,-0.3827723264694214,-0.41341790556907654,0.24196018278598785,0.09444881975650787,0.370343416929245,-0.26924997568130493,-0.34247857332229614,-0.17978830635547638,0.0483367033302784,-0.2115299552679062,-0.1369161456823349,0.007108971010893583,-0.18640682101249695,-0.07300194352865219,-0.05495667830109596,0.0605078749358654,-0.2850894331932068,-0.2301289588212967,-0.03919415548443794,1.052061915397644,-1.1850018501281738,-0.03583758696913719,0.30320054292678833,-0.2796498239040375,0.16287408769130707,0.29803311824798584,0.6237503290176392,0.13890305161476135,-0.2881982922554016,-0.297849178314209,0.12464175373315811,-0.0618458166718483,-0.3966149389743805,-0.24215593934059143,0.1562938243150711,0.06381981819868088,-0.23588460683822632,0.11644135415554047,0.07701218873262405,0.07625634223222733,-0.20053453743457794,0.07044173777103424,0.2862321734428406,-0.4544609487056732,0.27573853731155396,-0.5188222527503967,0.10509124398231506,0.5035999417304993,-0.38588735461235046,-0.0014028281439095736,0.08753261715173721,-0.486860454082489,-0.257088840007782,-1.040769100189209,-0.6454184055328369,0.07359777390956879,-0.6750131249427795,-0.23588554561138153,-0.04131696745753288,-0.30344945192337036,-0.11984177678823471,0.04005158320069313,0.0010810052044689655,0.18670038878917694,0.0009132165578193963,0.00390635384246707,0.29012158513069153,0.1540505439043045,0.00027126644272357225,0.3080591559410095,0.5014779567718506,-0.07531589269638062,0.1307123601436615,0.3561035692691803,0.17163407802581787,-0.08184351772069931,-0.16146713495254517,-0.09469759464263916,0.5293638110160828,-0.0685339868068695,0.05749141052365303,0.717109739780426,0.23367364704608917,0.47286343574523926,0.12709131836891174,0.19625358283519745,0.21671581268310547,-0.2757708430290222,-0.02758892811834812,-0.03245331719517708,-0.22821789979934692,-0.13655610382556915,-0.019941123202443123,0.023733900859951973,-0.0417633019387722,-0.12984001636505127,0.6557602882385254,-0.5582109689712524,-0.8758748173713684,0.10893862694501877,0.08806206285953522,-0.0063246809877455235,-0.29433369636535645,0.15070085227489471,0.25828254222869873,0.14253926277160645,-0.3062146306037903,-0.7909481525421143,0.26614242792129517,0.2845463454723358,-0.34912580251693726,-0.1256212294101715,0.11334190517663956,0.15152263641357422,-0.26081037521362305,0.23363611102104187,0.08778439462184906,-0.00434799725189805,0.21388006210327148,0.45605844259262085,-0.6171783208847046,-0.19450664520263672,0.23480002582073212,-1.207376480102539,-1.2638018131256104,-1.0274099111557007,0.0028548173140734434,0.4145413041114807,0.0697762668132782,0.3252149224281311,0.18874236941337585,0.13747456669807434,-0.04656469076871872,0.24519793689250946,-0.022962337359786034,-0.21008214354515076,0.08964914083480835,0.16644138097763062,0.3336661159992218,0.12706482410430908,0.11888624727725983,0.32487043738365173,-0.06281106173992157,0.13101637363433838,0.17671653628349304,-0.13138684630393982,0.2004675567150116,0.05652553588151932,0.15692122280597687,0.02920558489859104,-0.02152147889137268,-0.477422297000885,0.3868434429168701,0.07402190566062927,-0.9208769798278809,0.5282686948776245,-0.07655069977045059,0.42077377438545227,-0.2024497240781784,0.36389443278312683,-0.7665897607803345,0.008380642160773277,-0.15507681667804718,-0.6646347045898438,-0.6948369145393372,0.12640151381492615,0.30154508352279663,-0.06474669277667999,0.3317391574382782,-0.08054625988006592,0.1802239567041397,0.24251002073287964,-0.07444886118173599,0.06833050400018692,-0.0278615839779377,-0.01786009594798088,-0.10784588009119034,0.07042652368545532,0.27580568194389343,-0.28293317556381226,0.14638164639472961,0.17775341868400574,-0.6467772722244263,-1.023542881011963,-0.5957649350166321,-0.9795777797698975,-0.20928627252578735,-0.3423135280609131,0.3591543138027191,-0.49908646941185,0.07749636471271515,0.46417129039764404,0.8797390460968018,-0.4308026432991028,-0.7771845459938049,-0.1380772739648819,0.13943392038345337,-0.15422780811786652,0.264080286026001,0.05641260743141174,-0.1479155421257019,0.26756981015205383,0.13706713914871216,-0.8718844652175903,-0.02564111351966858,-0.15477831661701202,0.1600836217403412,-0.3003823757171631,0.27931779623031616,0.056910134851932526,-0.04425418749451637,-0.336328387260437,0.03562847524881363,-1.0642361640930176,-0.4233638346195221,-0.38347727060317993,-0.29598164558410645,-0.6775332093238831,-0.4617893099784851,-0.5859351754188538,1.0563632249832153,0.7141817212104797,-0.25594085454940796,-0.2888471782207489,-0.014024524949491024,0.13056229054927826,0.20317745208740234,-0.11017270386219025,0.25199711322784424,0.13332687318325043,-0.10968690365552902]},"conv.0.bias":{"shape":[16],"data":[0.3464335501194,0.09104052186012268,-0.1300283968448639,0.38486143946647644,0.014452489092946053,0.39682266116142273,0.10882106423377991,0.20745104551315308,0.033927615731954575,-0.21350812911987305,-0.014260128140449524,-0.02834644727408886,-0.1236768364906311,-0.23855112493038177,0.11692425608634949,-0.060131993144750595]},"conv.2.weight":{"shape":[32,16,3,3],"data":[0.0030111910309642553,-0.12094134837388992,-0.02739367075264454,-0.03047078475356102,0.0014485387364402413,-0.07022107392549515,0.018543874844908714,-0.08616872876882553,0.02708035334944725,-0.019286904484033585,-0.08061186224222183,-0.002626042813062668,-0.0029214650858193636,-0.04188653826713562,-0.02316596545279026,-0.08835304528474808,-0.08292648196220398,0.0347076952457428,0.052917979657649994,0.012664453126490116,-0.026014452800154686,0.028562862426042557,-0.0005176225095055997,-0.03510579094290733,-0.07954858243465424,-0.0446881465613842,-0.006716161500662565,0.01176308374851942,-0.09238649159669876,0.002300999127328396,-0.03205691650509834,-0.0813513845205307,-0.0365387462079525,-0.06747926026582718,-0.008376033045351505,0.031486306339502335,-0.018207650631666183,-0.07020219415426254,-0.07973488420248032,-0.019872942939400673,-0.09801062196493149,-0.025424495339393616,-0.05311695486307144,0.0333508662879467,-0.11136716604232788,-0.10047032684087753,-0.021930299699306488,-0.06463354825973511,-0.0601964108645916,-0.08813507854938507,-0.0854651927947998,0.06350837647914886,0.060675449669361115,-0.10326137393712997,-0.0945337563753128,-0.031182782724499702,-0.0179884135723114,-0.1155487671494484,-0.0811101421713829,-0.021800082176923752,-0.10496535152196884,-0.045546770095825195,0.03949391841888428,0.05841941758990288,-0.020419323816895485,0.0008625334012322128,0.042660124599933624,0.012255166657269001,0.04904044046998024,0.06897319108247757,0.04120301455259323,-0.03820100054144859,-0.03326226770877838,-0.0723922997713089,0.029419980943202972,0.03439228981733322,0.019815627485513687,0.015389113686978817,-0.02926560677587986,0.0018705108668655157,0.040531229227781296,0.0032513942569494247,-0.02730577066540718,-0.007877100259065628,0.017943812534213066,-0.04774182289838791,-0.08805359154939651,-0.14431776106357574,-0.12223786115646362,-0.061017923057079315,0.02312280237674713,-0.020419765263795853,0.017526602372527122,-0.0331360325217247,-0.08517909049987793,-0.028250988572835922,-0.09701360017061234,-0.0471036434173584,-0.10065480321645737,-0.06655886769294739,0.021450748667120934,-0.04847545549273491,-0.06367047876119614,-0.024900143966078758,0.04978946968913078,0.007155703380703926,-0.06705693155527115,-0.06306379288434982,0.02890869975090027,-0.0006002201698720455,-0.09146033227443695,-0.13525640964508057,-0.020062511786818504,-0.09705689549446106,-0.06820093095302582,-0.11003322899341583,-0.09306882321834564,-0.08068930357694626,0.022504763677716255,0.034737251698970795,-0.08454500138759613,-0.05919624865055084,-0.0832187831401825,-0.055754177272319794,0.06138939410448074,-0.046369194984436035,-0.014452437870204449,0.06463377177715302,0.02605249546468258,-0.007108013145625591,-0.03704165294766426,-0.04989411681890488,-0.07099658250808716,0.0749109759926796,-0.06665895879268646,0.0058721574023365974,-0.04714367166161537,-0.0019132811576128006,-0.02401811070740223,-0.10932198166847229,-0.08146797120571136,-0.03153975307941437,-0.10132395476102829,0.0159146748483181,-0.8201486468315125,-0.24626749753952026,-0.37725594639778137,-0.4208329916000366,-0.1724322885274887,0.013779577799141407,-0.05131446570158005,0.0220223106443882,0.08128120005130768,0.35741931200027466,0.18477824330329895,0.012172914110124111,-0.34688180685043335,-0.11262253671884537,-0.060116708278656006,-0.20612980425357819,-0.36478501558303833,0.2622529864311218,-0.03275114670395851,1.0206066370010376,-0.13910141587257385,0.09061048179864883,0.8750399351119995,0.19822202622890472,0.034726645797491074,0.6224601864814758,0.9187362790107727,-0.4610791504383087,-0.7274103164672852,-0.4929729104042053,-0.2051209807395935,-0.485686331987381,-0.6119452118873596,0.026175471022725105,-0.6758912801742554,-0.6101323366165161,0.01048443466424942,-0.39410126209259033,0.06912076473236084,-0.3151533603668213,-0.1424282044172287,0.2191808670759201,0.3324015736579895,0.040648892521858215,-0.053531158715486526,-0.24221284687519073,0.07653883099555969,-0.27386248111724854,-1.2450199127197266,0.03769334405660629,-0.02191067673265934,-1.245364785194397,-0.0674830749630928,-0.614652693271637,-0.38880473375320435,-0.4764709174633026,-0.028042778372764587,-0.19532185792922974,0.05429878830909729,0.22921720147132874,-0.039183493703603745,0.2991630434989929,0.23810002207756042,-0.25271546840667725,-0.7377074360847473,-0.32452890276908875,-0.12711992859840393,-0.28428536653518677,-0.39127787947654724,-0.09390220791101456,0.16195082664489746,0.2821429669857025,0.2306658774614334,-1.0022523403167725,-0.37367022037506104,0.15065671503543854,-0.2224331945180893,0.12317271530628204,0.40541601181030273,-0.15858875215053558,0.2938523292541504,-0.03704247996211052,-0.25764745473861694,0.26626163721084595,-0.1632770597934723,0.2054370939731598,0.33855146169662476,-0.02993467077612877,0.3013143539428711,-0.009907189756631851,-0.010635021142661572,-0.04757721722126007,0.09944900125265121,0.13200785219669342,-0.2009321004152298,-0.05728043243288994,0.03754344955086708,-0.12113294005393982,-0.11524751782417297,0.16577814519405365,0.07645003497600555,-0.12288150936365128,0.17901109158992767,0.3006809651851654,-0.45366087555885315,0.0991092175245285,0.29118770360946655,0.30086272954940796,0.048085372895002365,0.28132233023643494,0.04121078923344612,-0.004211864434182644,0.2292119562625885,0.2356909066438675,-0.6132473945617676,-0.926342785358429,-0.4922824800014496,0.2367088943719864,-0.30325666069984436,0.5257158279418945,0.136525958776474,-0.009906820021569729,-0.4109160304069519,0.6117505431175232,0.3844577670097351,0.2438524216413498,-0.523381233215332,0.3088712990283966,0.13495978713035583,-0.18446478247642517,-0.9523162841796875,0.6262869238853455,0.12063589692115784,-0.2148175984621048,0.28908589482307434,-0.10179955512285233,0.060542941093444824,0.04567773640155792,0.14861395955085754,-0.5602448582649231,0.18653647601604462,0.1038757860660553,0.14352965354919434,-0.4503990709781647,0.10660222917795181,0.22360514104366302,-0.5212833285331726,-0.2329072803258896,0.13703297078609467,-0.1028207316994667,0.07299566268920898,0.561726450920105,0.4515751600265503,0.05050882324576378,-0.2670039236545563,-0.1987614929676056,-0.28199443221092224,0.11744128912687302,0.1467108428478241,-0.11586807668209076,-0.012805587612092495,0.1769532561302185,-0.609818696975708,-0.45558854937553406,-0.524836540222168,-0.7025499939918518,-0.3910841643810272,-0.5847967863082886,-0.8113746047019958,-0.3481479585170746,-0.19187097251415253,-0.12643671035766602,0.23180586099624634,0.2728319764137268,0.05124514177441597,0.1540779322385788,-0.021374907344579697,0.9789270162582397,-0.17321068048477173,0.2168518602848053,-0.05786258354783058,-0.062152206897735596,-0.005640586372464895,0.0007313739624805748,-0.166881263256073,-0.014570856466889381,0.016350969672203064,-0.038089875131845474,0.24011081457138062,0.043872490525245667,0.011399672366678715,-0.10247424989938736,-0.06078854575753212,0.4192580282688141,-0.1150236651301384,-0.9329851865768433,-0.20186634361743927,-0.9864174723625183,-0.017698347568511963,-0.1447633057832718,-0.16190649569034576,-0.2814899682998657,-0.2925983965396881,-0.07502846419811249,0.2004760503768921,-0.3706103563308716,0.42964646220207214,-0.019383367151021957,-0.0056428504176437855,-0.025266287848353386,0.018415633589029312,-0.19690173864364624,-0.2574102580547333,-0.3756888508796692,-0.416373610496521,-0.2508991062641144,0.003300074953585863,-0.4710046350955963,0.03165525197982788,-0.11733339726924896,-0.5109273195266724,-0.007976926863193512,0.28106021881103516,-0.2834683656692505,0.06298168003559113,0.19109444320201874,0.1344107985496521,0.11250680685043335,0.2585495114326477,-0.24428142607212067,0.24269606173038483,0.017463622614741325,0.23916643857955933,-0.11123587191104889,-0.32530415058135986,-0.44574835896492004,-0.38308748602867126,0.24089518189430237,-0.12986378371715546,-0.058626290410757065,0.09020280838012695,0.1972372680902481,0.009477179497480392,0.25083211064338684,-0.12762723863124847,-0.054030850529670715,0.17519745230674744,0.23832547664642334,-0.015807438641786575,-0.2308453768491745,0.08060675859451294,-0.38716670870780945,0.27990642189979553,0.22632098197937012,0.21328198909759521,0.04968076944351196,0.2409101128578186,0.07063642144203186,-0.27869588136672974,0.006998761557042599,-0.0411803312599659,0.10804808884859085,-0.3805003762245178,0.18907319009304047,-0.32276251912117004,-0.2779477834701538,0.1751774549484253,-0.23126652836799622,0.38075050711631775,0.38797780871391296,-0.3937920928001404,0.20547789335250854,0.2347385436296463,0.5782386660575867,0.03288641199469566,0.4037478566169739,0.0780106782913208,-0.010534833185374737,0.7493112087249756,-0.48405003547668457,-0.07983142882585526,0.31180620193481445,0.2883945405483246,0.0736231729388237,-0.018057599663734436,0.24180945754051208,0.5063260793685913,0.22327718138694763,0.1711205691099167,0.021592164412140846,0.04274500906467438,0.22733545303344727,0.12256427854299545,0.1978314071893692,0.07738491147756577,-0.17306290566921234,-0.09753770381212234,0.01384943537414074,0.2325301468372345,-0.013857509009540081,-0.2704213857650757,-0.01471356675028801,-1.081580638885498,-0.015330413356423378,-0.4125252366065979,-0.536378800868988,0.16686859726905823,0.4467460513114929,0.15969344973564148,-0.0335824191570282,0.13532714545726776,-0.03906139358878136,0.5906112790107727,0.04420182481408119,0.4376886487007141,-0.1645929217338562,-0.08446687459945679,-0.09556311368942261,0.12348423153162003,0.506719172000885,0.6092551350593567,-0.005447416566312313,0.29312023520469666,-0.0013384755002334714,0.03172799572348595,0.046531956642866135,0.25873398780822754,0.10973288863897324,0.11066659539937973,0.29814231395721436,-0.7931073307991028,-0.01890088990330696,0.06798781454563141,0.05752190575003624,0.2447323501110077,0.13664990663528442,-0.02989155240356922,0.038412272930145264,-0.119943767786026,-1.482954978942871,-1.186310887336731,-0.3467247486114502,-0.10790745913982391,0.05982261896133423,-0.2681664526462555,-0.13919122517108917,-0.18906299769878387,0.018314439803361893,-0.14053598046302795,-0.2938366234302521,-0.026625314727425575,-0.043052103370428085,0.04572666808962822,-0.08494389057159424,0.019103314727544785,-0.11567772179841995,-0.22204606235027313,0.03591680899262428,-0.7955759167671204,-0.8729915022850037,-0.195139542222023,-0.28488147258758545,-0.271689772605896,0.32244670391082764,-0.371067613363266,-0.2175447940826416,-0.19364643096923828,-0.1294345259666443,0.05786352604627609,0.21395862102508545,0.06665725260972977,0.23986469209194183,0.09361408650875092,0.0119428476318717,0.2410873919725418,-0.05538097769021988,0.09434829652309418,-0.219695582985878,-0.23198698461055756,-0.2008352279663086,-0.08586762845516205,-0.06418371945619583,0.06675557047128677,0.12045466154813766,0.12599629163742065,0.044451337307691574,-0.004073962103575468,0.23402409255504608,0.03993954882025719,-0.06534901261329651,0.06352661550045013,0.0780540183186531,-0.03725835308432579,0.06638167053461075,-0.3798162639141083,-0.48479771614074707,0.24044637382030487,0.3687223494052887,0.2896978557109833,0.1441110521554947,0.13667233288288116,0.12269090861082077,-0.48164102435112,-0.2949651777744293,-0.5601126551628113,-0.007170486729592085,-0.1580292284488678,0.34538426995277405,-0.07807575166225433,0.3790626525878906,-0.21999721229076385,-0.4393472373485565,0.48175710439682007,0.11059925705194473,-1.7850453853607178,-0.4055861532688141,-1.142297387123108,0.41630998253822327,0.5583320260047913,0.6105606555938721,0.15893392264842987,0.47956404089927673,0.44562098383903503,0.1568266600370407,0.3372531235218048,-0.34196916222572327,0.3267844319343567,0.1854882687330246,0.006673382595181465,0.2762918174266815,0.2168407142162323,-0.39965736865997314,-0.28850001096725464,-0.09901170432567596,-0.6850985288619995,-0.6438539028167725,0.2573367953300476,0.056255050003528595,-0.04347550496459007,0.37211430072784424,0.24754539132118225,0.43516501784324646,0.3754339814186096,-0.063802570104599,0.35248446464538574,0.6793631315231323,0.0883045494556427,0.5115987658500671,0.8798776865005493,0.43307095766067505,0.6554117798805237,0.47131556272506714,0.9404070377349854,0.6007649898529053,1.0371296405792236,0.8641728758811951,0.8240225315093994,0.9436221718788147,0.3662477731704712,-0.16853676736354828,0.4683462679386139,-0.6894988417625427,0.3379737138748169,0.469157338142395,0.2393215149641037,-0.1965349018573761,0.07922814041376114,0.05750405788421631,0.04768327996134758,0.00129138573538512,-0.1909034699201584,0.07871663570404053,0.26033249497413635,0.2556804120540619,0.20947568118572235,0.13803821802139282,0.4820210933685303,-0.00879475474357605,-0.05995199829339981,-0.27369701862335205,-1.21077299118042,-0.39522379636764526,-0.3140285015106201,-0.8057882785797119,-0.048720695078372955,-1.0513432025909424,-0.32474109530448914,0.05998968705534935,-0.17041726410388947,-0.005860964301973581,0.08133605122566223,0.034792959690093994,0.0646272823214531,-0.0407317690551281,-0.12743355333805084,-0.15085870027542114,-0.0795239806175232,-0.3664761185646057,-0.0878216102719307,-0.11046214401721954,-0.3480612337589264,-0.1702645868062973,0.14069588482379913,0.17095772922039032,0.05865861847996712,0.04900422319769859,-0.5063110589981079,0.2658504545688629,-0.04368329793214798,-0.4287552535533905,0.40348634123802185,-0.05438960716128349,-0.2117081731557846,0.011631983332335949,0.030735556036233902,-0.18670342862606049,0.07786578685045242,-0.04071031138300896,-0.09363841265439987,-0.18106664717197418,0.0008907988667488098,0.008804826997220516,-0.28513020277023315,-0.2640209496021271,-0.412981778383255,0.15061326324939728,0.0733221247792244,0.21295078098773956,-0.17067423462867737,-0.030064700171351433,-0.2536490261554718,0.16773483157157898,-0.04315095767378807,-0.05028821527957916,-0.06281759589910507,0.32952216267585754,0.2239643633365631,-0.5577648878097534,0.14357374608516693,-0.551766574382782,-0.03094024769961834,0.2384425848722458,0.21475736796855927,-0.511216402053833,-0.4017125368118286,-0.3885325789451599,-1.4719983339309692,0.044461965560913086,-0.547761082649231,-0.16831310093402863,-0.35354581475257874,-0.19957144558429718,-0.1411277800798416,-0.1866259127855301,0.2338813841342926,0.2644495368003845,-0.04001978412270546,0.24413365125656128,0.4560718834400177,0.5979321002960205,0.12017255276441574,0.5049677491188049,-0.04779839143157005,0.4271891713142395,0.6745356321334839,0.15200980007648468,0.5034390687942505,0.04348238930106163,-0.3368212878704071,-0.04933028295636177,0.5380461812019348,-0.06381464749574661,-0.2477710098028183,0.37428954243659973,0.2344145029783249,-0.5897242426872253,-0.5857400298118591,-0.039636529982089996,-0.24979494512081146,-0.3846816122531891,-0.47424840927124023,0.03201865777373314,0.5007978677749634,0.20714108645915985,-0.01689460314810276,-0.22990143299102783,-0.3088483214378357,-0.14598774909973145,0.028612418100237846,-0.2752782702445984,-0.6305549144744873,-0.026409413665533066,-0.32840412855148315,-0.45778387784957886,-0.1710302233695984,0.23436830937862396,-0.06757750362157822,0.19583629071712494,0.039433401077985764,-0.3830040395259857,0.8730624318122864,0.15836291015148163,0.03316415101289749,-0.4780939221382141,0.05475126951932907,0.21090993285179138,0.12606993317604065,0.2594287395477295,-0.20731590688228607,0.26160117983818054,0.24706532061100006,-0.27988409996032715,-0.02161891758441925,0.1717526763677597,0.2171575129032135,-0.28490591049194336,-0.10697446763515472,0.24792014062404633,-0.3441769778728485,-0.14095623791217804,0.13100415468215942,-0.08982626348733902,-0.16225731372833252,-0.11671240627765656,-0.163265660405159,0.002823775401338935,-0.08980923891067505,-1.0675724744796753,-0.3522525131702423,-0.05813531577587128,-0.764411211013794,-0.5575113892555237,-0.05667834356427193,-0.3761812746524811,-0.3505874574184418,-0.01958167925477028,-0.3332626521587372,-0.1523084193468094,-0.15060089528560638,0.1818743348121643,-0.15986569225788116,0.09170711785554886,0.1635439097881317,-0.04255663603544235,-0.027163565158843994,0.16527029871940613,-0.052859559655189514,-0.029419708997011185,-0.44930359721183777,-0.4199967384338379,0.010513460263609886,-0.06758098304271698,-0.2529295086860657,-0.33038023114204407,-0.13237127661705017,-0.2627185881137848,-0.2220771610736847,0.24073100090026855,0.2521812915802002,0.20421560108661652,-0.01267203688621521,-0.23810656368732452,-0.10710225254297256,-0.37969034910202026,-0.2486230581998825,-0.10402287542819977,-0.07115200161933899,-0.15929363667964935,-0.6742054224014282,-0.06979475915431976,0.13021910190582275,0.1167820394039154,-0.10781321674585342,0.016488084569573402,0.1536576747894287,-0.24123810231685638,0.30189889669418335,0.2009689211845398,-0.07501204311847687,0.27485549449920654,0.2641009986400604,-0.24213410913944244,0.1658899188041687,0.19943571090698242,0.12358570098876953,0.06181028112769127,0.10234417021274567,0.12866991758346558,0.15023714303970337,0.1419561207294464,0.23940493166446686,0.37049442529678345,0.2765449285507202,-0.9097945690155029,-0.04868451505899429,0.3013249337673187,-0.5446742177009583,-0.294899046421051,0.4208046793937683,-0.09717440605163574,0.039407603442668915,0.788051962852478,0.9432007670402527,-0.01723857782781124,0.6779680848121643,0.9411935210227966,0.46448010206222534,0.21996769309043884,0.6302282810211182,0.9381260871887207,0.168356791138649,0.36091703176498413,0.623090386390686,0.08997460454702377,0.8209142088890076,0.5376980304718018,0.3142702579498291,0.5201654434204102,0.5740094780921936,0.5506457686424255,0.5099599361419678,0.15890128910541534,0.04101661220192909,0.6703150272369385,-0.2841249406337738,-0.5137031078338623,0.6364469528198242,-0.3891555964946747,-0.8846601247787476,-0.16445812582969666,0.49470406770706177,-0.03936437517404556,0.0030207664240151644,0.5986645817756653,-0.053134094923734665,-0.6238306164741516,0.08010584115982056,-0.7722214460372925,0.1320483684539795,0.8430538177490234,0.4384603798389435,0.6688445806503296,-0.09492848813533783,0.5217598080635071,0.5288911461830139,-1.0417429208755493,-1.3263282775878906,0.16291563212871552,0.2858521640300751,0.23769351840019226,-0.5374822616577148,0.07351282238960266,-0.6983988285064697,-0.1567154973745346,0.2428683340549469,0.5437134504318237,0.09613129496574402,0.2943304777145386,0.35613104701042175,-0.14496943354606628,-0.027455003932118416,-0.251211017370224,-0.9499214291572571,-0.09026318788528442,-0.3899257779121399,0.12229438126087189,-0.18273870646953583,-0.2715950906276703,0.31816554069519043,-0.010577031411230564,-0.17310024797916412,0.15552613139152527,-0.05440046638250351,-0.11261066049337387,-0.05050155147910118,0.2931235730648041,0.011685176752507687,-0.3177606463432312,0.2531847059726715,-0.43835699558258057,-0.2348199486732483,0.07230306416749954,-0.06965173780918121,0.3400155007839203,-0.23208919167518616,0.41872671246528625,-0.5343724489212036,-0.4470786452293396,0.15752752125263214,-0.1875905692577362,-0.28009480237960815,0.23737917840480804,-0.0378485731780529,-0.7794427871704102,-0.4730575382709503,-0.5534485578536987,-0.9027484655380249,-0.7597467303276062,-0.1561230719089508,0.35778817534446716,-0.3651505708694458,0.45927348732948303,0.561095118522644,-0.0941154882311821,0.058339666575193405,0.26435163617134094,0.20718160271644592,-0.02894783765077591,-0.02101597748696804,-0.2573607861995697,-0.279033899307251,-0.07129167020320892,-0.4286545515060425,0.032819513231515884,0.1236785352230072,0.0024119315203279257,0.04492521286010742,0.030741289258003235,-0.010899543762207031,0.07661377638578415,-0.24087586998939514,-0.13558639585971832,0.3105166256427765,0.0059770564548671246,-0.14101779460906982,0.6913975477218628,-0.007641744799911976,0.4429067075252533,-0.0642719492316246,-0.12470134347677231,-0.20275618135929108,0.008246345445513725,-0.2694105803966522,0.011364012956619263,0.3926718235015869,0.3020121455192566,0.3325331211090088,-0.219034805893898,0.34461644291877747,-0.9486974477767944,0.300723671913147,0.2928348481655121,0.43099960684776306,1.4199106693267822,0.5822446346282959,-0.8948198556900024,0.3020440936088562,0.8302796483039856,0.8149302005767822,-0.3294878900051117,0.17203746736049652,-0.03821469470858574,0.23479753732681274,0.8991332650184631,0.672931432723999,0.4176175594329834,0.3949160873889923,-0.3343318700790405,0.09562969207763672,0.11422281712293625,-0.3833674192428589,-0.4317665696144104,0.35076260566711426,0.7747567296028137,-0.061014387756586075,2.840776323864702e-05,-0.001494573662057519,-0.024137990549206734,0.005726215895265341,-0.007969412952661514,-0.026622457429766655,-0.009886467829346657,0.02432413212954998,-0.07303778827190399,-0.05827025696635246,-0.039060309529304504,-0.008631299249827862,-0.057914849370718,-0.09526597708463669,0.010064749047160149,-0.052870187908411026,0.02557801455259323,0.0007730990764684975,0.021931957453489304,-0.06798645853996277,0.002782980678603053,0.033438488841056824,-0.040568336844444275,-0.07713760435581207,-0.021851103752851486,-0.009499387815594673,0.017232246696949005,-0.07388565689325333,-0.10478825867176056,-0.07295458763837814,-0.03999718278646469,-0.08037905395030975,-0.01695413328707218,-0.034225765615701675,-0.06761544197797775,-0.05652303993701935,-0.015325679443776608,0.002404342405498028,0.02736113965511322,-0.06110675632953644,-0.020729079842567444,-0.05656042695045471,0.02300799824297428,0.006340141873806715,0.02713138982653618,-0.028076333925127983,-0.013883574865758419,-0.021208006888628006,-0.028359131887555122,-0.08369903266429901,0.046476997435092926,0.04056064411997795,-0.02958676777780056,-0.06718919426202774,-0.0455850213766098,-0.05456111207604408,-0.011837026104331017,-0.07694195955991745,-0.048774149268865585,-0.13220961391925812,-0.14508967101573944,-0.02432587370276451,0.010878752917051315,-0.06199619546532631,-0.09616295248270035,-0.07036510854959488,-0.09509354084730148,-0.006332237273454666,-0.09627894312143326,-0.013519021682441235,-0.04145331680774689,-0.05062033236026764,-0.0026305571664124727,-0.06396862119436264,-0.055095262825489044,0.004128667060285807,-0.12408173829317093,-0.003283606143668294,-0.048714932054281235,-0.017412878572940826,-0.0760512575507164,-0.05206654965877533,-0.032342568039894104,0.0612923726439476,0.04188409820199013,-0.08601575344800949,0.023144589737057686,0.012634594924747944,-0.008746348321437836,-0.09346184134483337,-0.02302539348602295,-0.10797035694122314,-0.12755857408046722,-0.032665953040122986,-0.07187548279762268,-0.049808017909526825,-0.11491791903972626,-0.009078912436962128,-0.14784666895866394,-0.038016386330127716,-0.04032839834690094,-0.06377764791250229,-0.11236516386270523,-0.04290056601166725,0.06418254226446152,-0.12669262290000916,-0.12086889892816544,-0.023090733215212822,-0.06823716312646866,-0.1052405908703804,-0.12641681730747223,-0.07875030487775803,-0.007283539045602083,-0.030174631625413895,-0.043538182973861694,0.014518188312649727,-0.0006416821270249784,-0.06017754226922989,-0.04740099236369133,0.008212726563215256,-0.09434092789888382,-0.15435278415679932,0.07215992361307144,-0.0059020328335464,-0.06531844288110733,-0.024841589853167534,-0.08530638366937637,0.046075958758592606,0.01152915321290493,-0.10400652885437012,-0.11503113806247711,-0.05342450737953186,0.039258021861314774,-0.04690924286842346,-0.12770619988441467,-0.06343735009431839,-0.076545350253582,0.013337512500584126,-0.03602544590830803,0.06390982866287231,0.0821213647723198,-0.04101093113422394,-0.05928170680999756,-0.10154126584529877,-0.10515260696411133,-0.6101025938987732,-0.3038260340690613,-0.3263669013977051,-0.8960310816764832,0.8470039367675781,0.4464002549648285,-0.35439664125442505,-0.01668817363679409,0.06353385746479034,0.2311195433139801,0.35272735357284546,0.2897528409957886,-0.4519006907939911,0.29246729612350464,0.29132017493247986,0.15593981742858887,0.6721950769424438,0.5278072357177734,0.43777602910995483,0.6602458357810974,0.32902631163597107,0.11878926306962967,0.7596745491027832,0.43091151118278503,0.23427554965019226,0.1764286905527115,-0.13457579910755157,-0.44765573740005493,-0.058950118720531464,-0.30911755561828613,0.44853585958480835,-0.003935782704502344,-0.3415851294994354,-0.1689223349094391,0.03152038902044296,-0.295798659324646,-0.058574091643095016,-0.08358961343765259,-0.01546434499323368,0.09789853543043137,0.13007348775863647,0.08905233442783356,0.18959945440292358,0.1656523048877716,0.27114126086235046,0.01895100064575672,-0.5636776089668274,0.015499052591621876,-0.526314914226532,-0.12741822004318237,-0.355389267206192,-0.9108412265777588,-0.0008450638852082193,-0.1498112976551056,0.023015303537249565,-0.15894809365272522,-0.006970562506467104,-0.02459242008626461,0.10156311094760895,0.22773373126983643,-0.46242469549179077,-0.5138179063796997,-0.4474661350250244,-0.3678603768348694,-0.5447909235954285,-0.26303595304489136,-0.305257111787796,-0.4360702335834503,-0.3853492736816406,-0.06740985810756683,0.01957736723124981,-0.35571956634521484,-0.2369289994239807,0.14862333238124847,-0.1621600240468979,0.18743322789669037,0.053429458290338516,0.10860629379749298,0.20382829010486603,-0.26470881700515747,-0.13849173486232758,0.08518259972333908,-0.28321346640586853,-0.014047274366021156,-0.07965680211782455,0.20034442842006683,-0.05861525610089302,-0.050518084317445755,-0.30825117230415344,-0.5029553174972534,-0.32359203696250916,-0.3000987768173218,-0.39725515246391296,-0.1678684800863266,-0.09663411229848862,0.04947206750512123,-0.11871084570884705,0.0795048251748085,-0.05387583374977112,-0.49269476532936096,0.29392126202583313,0.025859426707029343,-0.42276373505592346,0.2661501467227936,-0.08730458468198776,-0.041099127382040024,0.4031243622303009,0.31545570492744446,0.1972189098596573,0.23019573092460632,0.03695892170071602,0.14220446348190308,-0.7111862301826477,-0.13391010463237762,-1.1303040981292725,-0.09046991914510727,-0.016556449234485626,0.27728861570358276,0.3373427987098694,0.07943903654813766,-0.22129319608211517,-0.1357766091823578,-0.11094985902309418,0.27373361587524414,1.5994337797164917,0.20300626754760742,0.5602017641067505,-0.6225118041038513,0.47745653986930847,-0.19173236191272736,-0.4813216030597687,0.06687416136264801,-0.11078203469514847,-0.3712790608406067,-0.27618658542633057,0.13106690347194672,-0.04034824296832085,-0.15027068555355072,-0.04489103704690933,-0.13766928017139435,-0.12182601541280746,0.02486739680171013,-0.8781428933143616,-0.11539657413959503,-0.29913076758384705,1.3261443376541138,0.8122235536575317,-0.8929192423820496,0.021835677325725555,0.672356903553009,-0.6495689153671265,0.30394935607910156,-0.07194995880126953,0.2626398205757141,0.08626580238342285,0.204937145113945,0.6965175271034241,0.04619649797677994,-0.30078479647636414,0.21200235188007355,-0.6427104473114014,0.7126577496528625,-0.1563645601272583,-0.34695547819137573,-0.22497276961803436,0.2818315625190735,-0.15819968283176422,-0.5630890727043152,-0.3266751170158386,-0.232496976852417,-0.7464033365249634,-1.6077163219451904,0.5621170997619629,0.3504580855369568,0.17401085793972015,0.04143271967768669,0.08529748022556305,0.05052676424384117,-0.4722820222377777,0.03649487718939781,0.15637554228305817,-0.22666163742542267,-0.06952282041311264,0.010597074404358864,0.32973822951316833,0.5254132747650146,0.7238797545433044,-1.8352584838867188,-0.5554813742637634,-0.23181670904159546,-0.641094446182251,-1.7877802848815918,-0.01839425042271614,-0.3711009919643402,-2.318556308746338,-0.5807220935821533,-0.04041843116283417,0.31687819957733154,0.2567809522151947,0.13070550560951233,0.19006139039993286,0.28143689036369324,-0.2658880949020386,-0.07963429391384125,-0.1357921063899994,-0.36392056941986084,-0.022069677710533142,0.19779856503009796,-0.17786385118961334,0.03744988888502121,-0.11568618565797806,-0.0019444494973868132,0.028168264776468277,-0.6588667035102844,-0.14971259236335754,-0.2906237244606018,-0.4650557339191437,0.363298624753952,0.0548819862306118,-0.4712609648704529,-0.12422877550125122,0.10995957255363464,-0.5271851420402527,0.05265355855226517,0.3029232323169708,-0.017560159787535667,-0.16574691236019135,-0.14393331110477448,0.011595847085118294,0.1559828221797943,-0.00841083936393261,0.3845440149307251,0.05689951404929161,-0.0009779244428500533,0.09944784641265869,0.16072115302085876,0.09125964343547821,0.044043898582458496,-0.17523516714572906,-0.2205582708120346,-0.5909562706947327,-0.18278953433036804,-0.17849206924438477,-0.3408007025718689,0.31422531604766846,-0.20857954025268555,0.13327711820602417,0.141305074095726,-0.014161488972604275,-0.01863010600209236,-0.3257449269294739,-0.2923426032066345,0.22422897815704346,-0.265478253364563,-0.21678757667541504,-0.9996379613876343,-0.3244439959526062,-0.7252177596092224,-0.560167670249939,0.28611433506011963,0.611487627029419,0.08583710342645645,0.1047527864575386,0.3115994930267334,0.3894263505935669,-1.7390384674072266,-0.7015230655670166,0.021018069237470627,-1.0677586793899536,-0.7626567482948303,0.18070703744888306,0.5428100824356079,0.167131245136261,0.13775955140590668,-0.11537566781044006,0.5488179922103882,0.3025760054588318,0.6024312973022461,0.7047483921051025,0.04805028811097145,-0.4714832901954651,-0.4870736598968506,-0.2685256004333496,-0.7892207503318787,-0.6451661586761475,-0.2197127789258957,-0.9291481971740723,-1.0554550886154175,-0.4625650942325592,-0.6780650615692139,-0.9406037926673889,-0.5553447604179382,-1.0218422412872314,-0.47545477747917175,-0.027353378012776375,-0.5595205426216125,-0.30935370922088623,0.11626563221216202,-0.5873491168022156,0.39532598853111267,-0.11726488173007965,-0.07862631976604462,-0.2599634528160095,0.17677372694015503,-0.7101170420646667,0.6693940162658691,0.2675812542438507,0.20110923051834106,0.4542180299758911,0.5080463886260986,0.6725658774375916,0.538465678691864,0.5741426348686218,-0.30040550231933594,0.6350786685943604,-0.46133431792259216,0.4796863794326782,0.8943918347358704,-0.34699031710624695,-0.2597881555557251,0.08427879959344864,0.0905805304646492,-0.2938496470451355,0.08176515996456146,-0.0875830426812172,0.1082616075873375,0.23480285704135895,-0.4055929481983185,0.22025004029273987,0.37309715151786804,0.09552659839391708,-0.20480912923812866,0.20043396949768066,0.11379969865083694,-1.4826642274856567,-0.6751210689544678,-0.6097674369812012,-0.2512257695198059,-1.2995836734771729,-0.7313222885131836,-0.1386311948299408,-0.46958938241004944,-0.13190746307373047,-0.3050307631492615,-0.1013529822230339,0.06382773816585541,-0.08370286971330643,-0.10812952369451523,0.020358243957161903,-0.16756129264831543,-0.18170513212680817,-0.04964012652635574,-0.14338694512844086,-0.1292043775320053,-0.1744735985994339,-0.0031338317785412073,0.08173207193613052,0.07082483917474747,-0.03474253788590431,0.08580837398767471,-0.7661900520324707,0.32867082953453064,0.04663291573524475,-0.13313207030296326,0.19962231814861298,0.22002917528152466,-0.12030092626810074,0.08092696219682693,0.006143398582935333,-0.16043055057525635,0.1687159240245819,0.23766042292118073,0.22669146955013275,-0.04045691341161728,0.23257285356521606,-0.0829298123717308,-0.041472677141427994,0.03488317131996155,-0.09999530762434006,-0.055837515741586685,-0.015713617205619812,-0.12239673733711243,-0.04994342476129532,-0.01658797636628151,0.025989215821027756,-0.08495552837848663,-0.269429475069046,0.11061301082372665,0.20276480913162231,0.011790641583502293,-0.12113190442323685,0.2859564423561096,0.08929913491010666,0.21634401381015778,0.030263107270002365,0.005069746635854244,0.08261627703905106,0.3564494252204895,0.3763168752193451,0.26317277550697327,-0.2226211577653885,0.06272180378437042,0.060856301337480545,0.18089355528354645,-0.25303414463996887,-0.1559205800294876,-0.1323123723268509,0.059667762368917465,-0.11306988447904587,-0.13746751844882965,0.3892684280872345,0.015319012105464935,0.9149807691574097,0.26913556456565857,0.17165115475654602,1.2385978698730469,-0.45042183995246887,-0.10273970663547516,0.03501744940876961,0.4658815264701843,-0.47784826159477234,0.1086864322423935,-0.1688731163740158,-0.19450224936008453,-0.060988057404756546,-0.14172197878360748,0.24663257598876953,0.43810850381851196,-0.11310464143753052,0.16440525650978088,-0.019787225872278214,0.03061811439692974,-0.007766293827444315,0.06612923741340637,-0.0033817877992987633,-0.08557521551847458,0.023290392011404037,-0.016379760578274727,-0.029651297256350517,0.03195866569876671,0.061702437698841095,-0.05245677009224892,-0.015969762578606606,-0.09695453941822052,-0.09291031956672668,-0.0027957733254879713,-0.07912614196538925,0.05095262825489044,-0.004359506536275148,-0.07845019549131393,-0.0973019078373909,-0.06088275834918022,-0.12533459067344666,-0.045021459460258484,0.0026874125469475985,0.019810346886515617,-0.08425523340702057,-0.03434018790721893,0.03589509800076485,0.028208669275045395,-0.06450588256120682,-0.06187502667307854,0.018917961046099663,-0.005471301265060902,-0.06793750077486038,-0.10987705737352371,-0.02670796774327755,0.019647663459181786,0.05017642676830292,-0.0983106791973114,-0.003394401865079999,-0.09124098718166351,0.04050551727414131,0.05411813408136368,-0.006402286235243082,-0.1283043622970581,-0.11047997325658798,-0.11884755641222,-0.02039385586977005,0.06220042705535889,0.04668590798974037,0.04560272395610809,0.0357217863202095,0.03380794823169708,-0.01296035386621952,-0.002518125344067812,0.03196306154131889,0.015072599984705448,-0.060632046312093735,-0.05346517264842987,-0.029961366206407547,-0.08764779567718506,-0.014209034852683544,-0.024447793141007423,-0.036579810082912445,0.045617539435625076,-0.19658750295639038,-0.03357833996415138,-0.03902576491236687,-0.06244347244501114,-0.07956474274396896,-0.010981153696775436,-0.008660090155899525,-0.10725713521242142,-0.10154983401298523,-0.08174453675746918,-0.08774283528327942,-0.08652195334434509,-0.04330127313733101,-0.021200548857450485,0.04117640107870102,0.046474914997816086,-0.02417818084359169,-0.03882867470383644,0.020520847290754318,0.029643753543496132,-0.02516094036400318,-0.04332641884684563,-0.053615111857652664,0.005090449471026659,0.007570900954306126,0.03326238691806793,-0.03265582397580147,-0.036073360592126846,-0.03831564635038376,0.03976200520992279,-0.06865545362234116,-0.09250344336032867,-0.08912725746631622,-0.016623739153146744,-0.05366072058677673,-9.668731217971072e-05,-0.07570088654756546,0.015902195125818253,-0.051305413246154785,-0.06587117165327072,-0.09264007955789566,0.0015848141629248857,-0.01335325837135315,0.026165926828980446,0.007150992285460234,-0.09474501758813858,-0.09579399228096008,0.023698728531599045,-0.037381723523139954,-0.06834270805120468,-0.017318595200777054,-0.00023222286836244166,0.027316346764564514,-0.017136167734861374,-0.07718261331319809,-0.003111862111836672,0.044799309223890305,0.00958762876689434,-0.012852014973759651,-0.04351630434393883,-0.09068958461284637,-0.06927605718374252,0.00832571554929018,-0.06482459604740143,0.011719295755028725,0.05512251704931259,-0.022220661863684654,-0.0056874980218708515,-0.10616449266672134,-0.10516469180583954,-0.02585936337709427,-0.05248343199491501,0.042250700294971466,-0.09506360441446304,0.06605522334575653,0.01785065233707428,-0.04730840399861336,0.006406608037650585,-0.48243021965026855,-0.16987280547618866,0.23254403471946716,0.1331317275762558,0.08113299310207367,0.30146101117134094,0.796283483505249,0.46237993240356445,0.10034661740064621,0.25413382053375244,0.15637758374214172,-0.059142958372831345,0.2628801167011261,0.38364604115486145,-0.018232520669698715,0.10168556869029999,0.27792713046073914,-0.3502698540687561,0.5443426966667175,0.5143522620201111,0.5352173447608948,0.3929179012775421,0.9656729698181152,0.45463016629219055,0.411170095205307,1.1193034648895264,0.4625648856163025,-0.01168316975235939,-0.288260281085968,-0.6083875894546509,0.20227424800395966,0.3216802477836609,-0.22055485844612122,0.1428610384464264,0.31830620765686035,-0.2742064595222473,-0.14489251375198364,0.26044321060180664,-0.10873617231845856,0.008677156642079353,-0.010791718028485775,-0.0456179641187191,0.6611277461051941,0.28991276025772095,-0.2183123677968979,-0.11707504093647003,-0.12772132456302643,0.1262056529521942,-0.19521968066692352,-0.08471817523241043,0.1313263475894928,0.4000040888786316,-0.14221513271331787,0.06077965348958969,0.27912604808807373,-0.1641770899295807,-0.16724924743175507,0.11138628423213959,-0.31196117401123047,-0.0811195820569992,0.025443803519010544,-0.04941675439476967,0.05402473732829094,-0.3484266400337219,-0.2460206300020218,-0.4514974057674408,-1.0204126834869385,-0.2156536728143692,-0.3096030056476593,-1.6484545469284058,-0.6316936016082764,0.01557822898030281,-0.4521939754486084,0.3083685636520386,-0.6835521459579468,-0.5038206577301025,0.08428023755550385,-1.2993921041488647,-0.15258117020130157,-0.1726967990398407,-0.9064959287643433,0.09842688590288162,0.023094795644283295,-0.12485969066619873,0.1319776028394699,0.04020659253001213,0.13560330867767334,-0.16816718876361847,0.38082629442214966,0.2688666880130768,-0.12621529400348663,-0.11276143044233322,-0.18997909128665924,-0.15079732239246368,-0.2011106163263321,-0.042764537036418915,-0.07172700762748718,-0.11625657230615616,0.15310116112232208,-0.16021281480789185,-0.084663525223732,0.33837050199508667,0.06987331807613373,0.09331049770116806,0.41592711210250854,-0.40984296798706055,-0.005374743603169918,0.04682917892932892,0.4059904217720032,0.41950100660324097,0.282684862613678,-0.10928911715745926,0.050118349492549896,0.1295839250087738,0.05439853295683861,-0.9448807835578918,0.21446938812732697,0.34175223112106323,0.01740911416709423,-0.06310804188251495,-0.09048525243997574,-0.4693964123725891,-0.9877707958221436,-0.37702447175979614,0.2525010406970978,-0.8856158256530762,-0.8418617844581604,0.6293364763259888,-0.34242141246795654,-0.9541398882865906,0.03246334567666054,0.3282610774040222,-0.6174314022064209,-0.1550718992948532,-0.1588863730430603,-0.3350965082645416,-0.334201842546463,-0.7919712662696838,0.1837780475616455,-0.6955934166908264,-0.07318279147148132,-0.9002241492271423,-0.8269023299217224,-0.44940871000289917,0.5919772386550903,0.16287444531917572,-0.08280781656503677,0.5486050248146057,0.058377109467983246,-0.1683812290430069,-0.5696459412574768,-0.1330084353685379,-0.12996593117713928,0.25048092007637024,0.08597612380981445,0.2518978416919708,0.10973326116800308,-0.19895845651626587,-0.036187246441841125,0.013269023038446903,-0.3487823009490967,-0.001374690211378038,-0.23015950620174408,-0.03119312785565853,0.08099990338087082,0.35571303963661194,0.16985401511192322,0.05187815800309181,-0.4470658004283905,-0.2958991527557373,0.10360799729824066,-0.41938820481300354,-0.05712627246975899,-0.36021220684051514,-0.2851732671260834,-0.6003448963165283,-0.11150261759757996,-0.6381784677505493,-0.09499736875295639,-0.39854586124420166,0.23956197500228882,0.005843771621584892,0.03799775615334511,0.27611616253852844,0.08701635897159576,0.10535064339637756,0.02701459638774395,0.25264135003089905,0.37021997570991516,0.3613072335720062,0.10642623901367188,-0.3094327449798584,0.23955421149730682,0.18965990841388702,-0.4550505578517914,0.07868778705596924,-0.37997114658355713,-0.6032912731170654,0.024545282125473022,-0.1372586190700531,-0.12980006635189056,-0.27461233735084534,0.13166934251785278,0.031615253537893295,-0.15735673904418945,0.03933098167181015,0.10035105794668198,-0.2146623432636261,-0.3698510229587555,0.19085143506526947,0.029230603948235512,0.016961967572569847,0.24437116086483002,0.006023857276886702,0.013894017785787582,-0.08588644862174988,0.48026856780052185,0.15913064777851105,0.12107747048139572,0.568371593952179,-0.057420942932367325,0.17415209114551544,0.1069757416844368,0.05360206216573715,-0.025354908779263496,-0.6067765951156616,0.1328335702419281,0.36369675397872925,0.036271169781684875,0.15251487493515015,0.06587682664394379,0.4501584768295288,-0.21317507326602936,-0.15853773057460785,-0.210434690117836,-0.24855096638202667,-0.2943462133407593,0.00452560605481267,-0.1342981457710266,-0.12457742542028427,0.0023913616314530373,-0.1302139163017273,-0.2143186777830124,0.3881570100784302,0.35661718249320984,0.015973592177033424,0.23611107468605042,0.07897553592920303,-0.3971228003501892,0.4755454957485199,0.07411238551139832,-0.6513132452964783,-0.02027220092713833,-0.0638519898056984,0.31968194246292114,-0.511693000793457,-0.014812339097261429,-0.21877647936344147,-0.40006887912750244,0.18820565938949585,-0.3275553584098816,-0.5884871482849121,0.45766597986221313,0.28098779916763306,0.6717035174369812,0.46822845935821533,0.20074492692947388,-0.09701034426689148,-0.0894855484366417,-0.7668731212615967,0.43414366245269775,-0.07097925245761871,0.568687915802002,0.24457915127277374,-0.4274607300758362,0.08682399243116379,0.22157925367355347,-0.06266650557518005,0.2029876559972763,-0.631858766078949,0.21087796986103058,0.3947097659111023,-0.14579440653324127,0.1538267284631729,0.17364493012428284,-0.007423149421811104,-0.2295525074005127,-0.11145150661468506,-0.4847143888473511,0.12222804874181747,0.09684456139802933,-0.08868393301963806,-0.013305293396115303,-0.15086321532726288,0.20697467029094696,-0.6898488402366638,-0.08538050204515457,-0.14526061713695526,0.3258714973926544,-0.6068514585494995,0.15336444973945618,0.2608700096607208,-0.10154484957456589,0.27540794014930725,0.15328137576580048,0.25448161363601685,0.30828264355659485,0.6303009986877441,-0.1238550916314125,0.3555499017238617,1.0361777544021606,-0.23585590720176697,0.35302457213401794,0.4491748809814453,0.1901051253080368,0.28930360078811646,0.14707422256469727,-1.7485121488571167,-0.04833364486694336,0.45554661750793457,0.012442419305443764,-0.20818625390529633,-0.7797921895980835,-0.2930879592895508,-0.02598683349788189,0.19661171734333038,-0.2737995386123657,-0.23451921343803406,0.053942784667015076,-0.04983118176460266,-0.4429693818092346,-0.10863825678825378,-0.10964568704366684,0.050418298691511154,-0.22837288677692413,-0.3250536024570465,-0.3949245810508728,-0.8766798377037048,-0.12226494401693344,-1.051952600479126,-1.249764323234558,-0.36054253578186035,-0.37964677810668945,-0.018410108983516693,-0.011264828033745289,-0.29890021681785583,0.0161574836820364,0.13723784685134888,-0.9018522500991821,-0.15434011816978455,0.02904977835714817,-0.11811140924692154,-0.3483037054538727,-0.04310047999024391,-0.2243974506855011,-0.27722856402397156,-0.1846136748790741,-0.11035645008087158,0.2798124849796295,-0.2157088816165924,-0.12780123949050903,-0.35869455337524414,0.21545836329460144,0.10382429510354996,-0.14414270222187042,0.08378170430660248,0.2960248291492462,0.3597826659679413,0.15585577487945557,-0.40023037791252136,0.0019708829931914806,-0.08357354253530502,-0.503839373588562,0.010080243460834026,-0.03872651979327202,0.024133747443556786,-0.10355303436517715,0.05997045338153839,-0.3939347267150879,-0.06234583631157875,-0.12024157494306564,-0.12176667153835297,-0.2047085016965866,-0.14694800972938538,0.008926755748689175,-0.1048930436372757,0.03604946658015251,-0.189240500330925,-0.3537607491016388,-0.10582687705755234,-0.2077794373035431,-0.1423182487487793,-0.6311925649642944,-0.007784842047840357,-0.08719787746667862,-0.1815304011106491,0.41027534008026123,0.02270830236375332,0.1510958969593048,0.7771235108375549,-0.07221459597349167,-0.2935762107372284,-0.2086065709590912,-0.05303754657506943,0.5698804259300232,-0.5495795607566833,0.11690682917833328,-0.10796260088682175,-0.6765985488891602,0.05405101180076599,-0.020514514297246933,0.3852147161960602,0.13723239302635193,-0.4257037043571472,1.0205155611038208,0.7833879590034485,-0.7113969326019287,-0.18902792036533356,0.2926058769226074,-0.1219131126999855,-0.7353627681732178,-0.08404145389795303,0.2966877520084381,-0.1321057677268982,-0.48813843727111816,0.22389963269233704,-0.15107177197933197,0.08413156121969223,0.0846252366900444,0.05141445994377136,-0.042626604437828064,0.3532435894012451,-0.5425325036048889,-0.47703084349632263,-0.31472572684288025,-2.358668327331543,-0.09134622663259506,-0.5488216876983643,-0.3706602454185486,0.3128342628479004,-0.5976583957672119,-0.09270095080137253,-0.020457398146390915,0.18440602719783783,0.14133216440677643,0.32031479477882385,-0.03353431075811386,0.33845701813697815,-0.5124290585517883,-0.26549723744392395,0.3965113162994385,0.4920256435871124,0.26826590299606323,0.44953951239585876,0.5304279923439026,0.20987774431705475,-1.6619402170181274,1.0579173564910889,0.299043744802475,0.28199493885040283,0.18636448681354523,-0.36569350957870483,-0.5869377255439758,0.1255267709493637,0.5544537901878357,-0.2604767382144928,-0.09477916359901428,-0.006861911155283451,-0.193051278591156,-0.33280280232429504,-0.537065327167511,-0.23326241970062256,-0.1768730878829956,-0.3406602144241333,0.34945040941238403,0.16546358168125153,-0.5537307262420654,-0.22901807725429535,0.3725082278251648,0.1808614432811737,-0.7351199388504028,-0.017028646543622017,0.3172120451927185,-2.0227596759796143,0.05705821141600609,-1.1421489715576172,-0.15035240352153778,-0.1183246374130249,0.025731947273015976,-0.13824981451034546,0.10013691335916519,0.2913895845413208,0.1466761976480484,-0.01783635839819908,0.03976582735776901,0.1489265114068985,-0.2602840065956116,-0.37015900015830994,-0.1370803713798523,-0.10233321040868759,-0.08211309462785721,0.035873882472515106,-0.4081726372241974,0.0398743562400341,-0.13021202385425568,-0.7923855781555176,0.010260718874633312,0.004719817545264959,-0.2578548192977905,0.2541569173336029,0.15715843439102173,0.18354730308055878,-0.6786268949508667,-0.9489216208457947,-0.15236417949199677,-0.18476338684558868,0.15321555733680725,-0.03903784975409508,-0.038084596395492554,0.38908684253692627,0.011201784946024418,0.07214949280023575,0.14835098385810852,0.029079755768179893,-0.5768230557441711,-0.16305382549762726,-0.15922199189662933,-0.28301677107810974,0.11753588169813156,-0.11613199859857559,-0.012348854914307594,0.20119908452033997,0.15887446701526642,-0.0040134587325155735,0.18822944164276123,-0.004729258827865124,0.1385267674922943,0.1988600343465805,-0.13076497614383698,0.3193332850933075,-0.18950724601745605,-0.05369153991341591,0.10497840493917465,-0.05090220645070076,0.35187941789627075,0.293596088886261,0.058004286140203476,0.02204216457903385,-0.9509835839271545,-0.3626139163970947,-0.0453946515917778,-0.09064467251300812,0.6700772643089294,-0.19424816966056824,-0.3913670480251312,-0.042049750685691833,0.435071736574173,0.07000517845153809,1.2235172986984253,1.3106590509414673,0.004499445669353008,-0.0217021182179451,-0.10997086018323898,-0.0905449390411377,-0.6261406540870667,0.2537165582180023,0.34664884209632874,0.22909985482692719,0.08065766096115112,0.26624947786331177,0.07116758078336716,-0.23352853953838348,-0.3716469705104828,-0.2578202486038208,0.14382599294185638,0.11558298766613007,-0.10362106561660767,-0.046504195779561996,-0.7216802835464478,-0.7173357605934143,0.4656960070133209,-0.35896486043930054,0.19717001914978027,0.4824512004852295,0.2762452960014343,-0.18271078169345856,0.2618712782859802,-0.419275164604187,0.5201317071914673,-0.12638473510742188,-0.22515691816806793,0.04825163632631302,0.24298076331615448,0.22978395223617554,0.6688603162765503,0.5435957908630371,0.02272895537316799,0.29081273078918457,0.687778115272522,0.74509197473526,0.11377839744091034,1.0559524297714233,0.7193196415901184,-0.14162956178188324,0.14865602552890778,-0.2566911578178406,0.2575664520263672,0.047584205865859985,-0.01447985228151083,0.1577519178390503,-0.07113105058670044,0.1964358538389206,-0.08871617168188095,-0.18400901556015015,0.11148630827665329,0.11025665700435638,0.12782905995845795,0.09833402931690216,-0.011865313164889812,0.20553287863731384,-0.08513449877500534,-0.0930355042219162,0.2894071340560913,0.0770372748374939,-0.9868831634521484,-0.36465954780578613,-0.4290182590484619,-1.314947485923767,0.484054833650589,-0.4752246141433716,-0.20249436795711517,0.07922238856554031,-0.07756906747817993,-0.22844253480434418,-0.10688354820013046,-0.3718741536140442,0.016315776854753494,0.08564186096191406,0.011306282132863998,-0.3047042191028595,-0.32308468222618103,-0.833781898021698,-0.016166727989912033,-0.24458646774291992,-0.8534152507781982,-0.04287755489349365,-0.49132415652275085,0.535810112953186,-0.3530896008014679,-0.641720712184906,0.02137887105345726,-0.04040791094303131,-0.13165518641471863,0.18592524528503418,0.1928916573524475,-0.17280186712741852,0.21469320356845856,-0.7827377915382385,-0.08188877254724503,0.01201527938246727,0.0403013713657856,0.05953038111329079,0.07032323628664017,-0.16676482558250427,-0.03772636875510216,0.23721380531787872,0.021304339170455933,-0.3701632618904114,-0.6105709075927734,-0.031815726310014725,-0.3699074685573578,0.07395025342702866,-0.190585196018219,-0.0018143764464184642,0.1333487182855606,0.037385039031505585,0.32101675868034363,-0.20609283447265625,0.2861611247062683,-0.1440921127796173,-0.2737216651439667,-0.08524094521999359,0.0017193828243762255,-0.32756975293159485,0.3608817756175995,0.10639014095067978,0.022523626685142517,-0.32728925347328186,0.4503224790096283,0.003700173692777753,0.6380442976951599,-1.0537198781967163,-0.7016249895095825,0.0948285236954689,-0.21068117022514343,0.2723458409309387,-0.16556304693222046,-1.0957030057907104,-0.04910789802670479,-0.3660365045070648,0.0791744813323021,0.2383117824792862,-0.08623383194208145,0.36360496282577515,0.6057106256484985,-0.19398339092731476,-0.29084140062332153,0.36773738265037537,-0.015676867216825485,-0.3380753695964813,-0.05453408136963844,0.23328374326229095,-0.13281555473804474,0.18601450324058533,0.21939441561698914,-0.29813382029533386,0.041047871112823486,-0.041770778596401215,0.3297439515590668,-0.2192150056362152,0.4571163058280945,-0.5116317272186279,0.3349916934967041,-1.2387982606887817,-0.2982396185398102,-0.4953056275844574,0.9473217725753784,0.21580509841442108,0.6918178200721741,0.3871058523654938,0.2036013901233673,-0.2829717993736267,0.3661300539970398,-0.5900012254714966,-0.1865251511335373,0.2466033399105072,0.10257440060377121,-0.2997560203075409,0.5330390930175781,0.4548042416572571,-0.4088856875896454,-0.08859992027282715,0.37381547689437866,0.8555275201797485,-0.5185695886611938,0.7079642415046692,0.23079539835453033,-0.1129019632935524,-0.11895345151424408,-0.13642506301403046,-0.10877730697393417,-0.012022390030324459,0.18541952967643738,-0.12635378539562225,-0.32060620188713074,0.32399868965148926,0.05534765124320984,-0.2931491434574127,0.19107170403003693,0.08489235490560532,-0.0004740527074318379,0.10236942023038864,-0.419534295797348,-0.42792293429374695,0.03612722083926201,-0.06978297233581543,0.2786270081996918,-0.2521674931049347,-0.07662134617567062,-0.8948984146118164,-0.5526076555252075,-0.5131200551986694,-0.7342714071273804,-1.2263648509979248,-0.343213826417923,-0.15067249536514282,0.04995770379900932,-0.010364050045609474,-0.098224937915802,0.05654904618859291,-0.27029502391815186,0.052526507526636124,0.061652038246393204,-0.5083478689193726,-0.12927289307117462,-0.399740606546402,-0.12178833037614822,-0.26673755049705505,-0.6292262673377991,0.3562674820423126,-0.08999098837375641,0.14476251602172852,-0.46164214611053467,-1.003002643585205,-0.09773040562868118,0.276694118976593,-0.02087218314409256,-0.23087294399738312,0.04227641969919205,-0.8473201990127563,0.1177901104092598,-0.30049383640289307,-0.5515567660331726,0.0977197140455246,0.02641540952026844,-0.5238949656486511,-0.06080268323421478,0.2762666940689087,0.142070472240448,0.06334500014781952,-0.07977928221225739,-0.2971530556678772,0.10180017352104187,0.14613282680511475,-0.11194232106208801,-0.11012907326221466,0.12030690908432007,0.0919819325208664,0.05655382201075554,-0.03716910630464554,-0.3095209002494812,-0.16710497438907623,0.5735694766044617,-0.205485999584198,-0.8001372218132019,0.06748393177986145,0.0061133066192269325,0.33909863233566284,0.179672509431839,0.21882060170173645,0.11120478808879852,-0.4610706567764282,0.629169225692749,-0.4200419783592224,-0.5655711889266968,-0.6133538484573364,-1.1510910987854004,0.29502958059310913,-1.261487603187561,0.726657509803772,0.34109532833099365,-0.38646456599235535,0.22344465553760529,-0.39944034814834595,-0.3033602237701416,-0.8441058993339539,-0.977685809135437,0.1769317388534546,-0.22160090506076813,-0.9014462828636169,-0.6049951314926147,-0.11603491008281708,-0.07425256073474884,-0.405478835105896,0.22133685648441315,0.08346883952617645,-0.18731209635734558,-0.13840635120868683,0.07216567546129227,-0.15423601865768433,-0.2374953031539917,-0.2190706580877304,-0.25733405351638794,0.013038829900324345,-0.11882735788822174,0.04271797835826874,-0.6081134676933289,-0.8324181437492371,-0.5747533440589905,-0.7095889449119568,0.11894401162862778,-0.5497068762779236,0.4543479084968567,-0.08356747031211853,0.07602977007627487,0.4624127149581909,-0.1266353875398636,0.7354004979133606,-0.5985545516014099,-0.11590742319822311,0.13672247529029846,-0.34371092915534973,-0.48877596855163574,0.942535936832428,0.7292770743370056,0.1464596539735794,0.6422402858734131,0.6277592182159424,0.4194084107875824,0.5499409437179565,0.4342656135559082,-0.2639850378036499,-0.2217477560043335,-1.5540316104888916,-0.019218074157834053,0.06121642887592316,0.2094106525182724,-0.24173931777477264,0.08770275115966797,-0.20751266181468964,-0.1004440188407898,0.025189612060785294,-0.33687159419059753,0.19640567898750305,-0.02085733786225319,-0.25846999883651733,-0.33874183893203735,-0.1769254356622696,0.1899200826883316,-0.22916628420352936,0.2053193747997284,0.13024908304214478,-0.3545381426811218,0.1545983999967575,-0.05286654084920883,-0.35512325167655945,-0.23046588897705078,-0.724393904209137,-0.04068126529455185,-0.25451576709747314,-0.23467853665351868,0.08279566466808319,0.2641478478908539,0.16275112330913544,-0.054225172847509384,0.071757011115551,0.22155292332172394,-0.06475915014743805,-0.3295815885066986,-0.25486040115356445,-0.006910498719662428,-0.20232723653316498,-0.15476438403129578,0.09930574148893356,0.10229113698005676,-0.19150537252426147,-0.11051250994205475,-0.21669815480709076,-0.365365207195282,0.4461848735809326,0.258234441280365,-0.07257276773452759,-0.29260504245758057,-0.03353665769100189,0.0031002245377749205,0.08218548446893692,-0.23038457334041595,-0.16838997602462769,-0.14545457065105438,-0.14619193971157074,0.20376111567020416,0.20661120116710663,0.3601751923561096,0.3509731590747833,-0.2824993133544922,-0.07804279774427414,0.06608765572309494,-0.4494107663631439,-0.22995468974113464,-0.34895920753479004,-0.19164755940437317,-0.07807266712188721,-0.12053535878658295,0.0017998068360611796,-0.1105746179819107,0.2151062786579132,-0.012568985112011433,0.17607474327087402,-0.07765752822160721,-0.024998864158988,0.12373685836791992,-0.33431991934776306,0.1885279268026352,0.05251001939177513,-0.06466865539550781,0.1639685183763504,0.28098350763320923,0.2721422016620636,-0.5579423904418945,-0.45562857389450073,-0.30795615911483765,0.2818876802921295,-0.1624322235584259,-0.26436135172843933,-0.11782381683588028,0.3793812394142151,0.02889123372733593,0.30464136600494385,0.1418592482805252,0.14053499698638916,-0.16066117584705353,-0.4113022983074188,0.12358257174491882,0.02311895787715912,0.39476317167282104,-0.2838471829891205,0.2363164722919464,-0.5571042895317078,0.24795857071876526,-0.28609076142311096,0.02164289355278015,0.48937153816223145,0.19760310649871826,-0.16816994547843933,0.15079905092716217,0.18642021715641022,0.07493608444929123,-0.03301197662949562,-0.4600505232810974,-0.5049099326133728,-0.15419287979602814,-0.13620686531066895,-0.1337449699640274,-0.5055033564567566,0.16888831555843353,0.5349273085594177,-0.1528746634721756,0.12805253267288208,-0.42221489548683167,-0.7087087631225586,0.1256275326013565,0.17487619817256927,-0.2925107181072235,-0.3742045760154724,-0.20129530131816864,-0.2551509141921997,-0.35183289647102356,-0.010280059650540352,-0.08224989473819733,-0.08709767460823059,0.6516836881637573,0.31953713297843933,0.09086711704730988,0.7125517725944519,0.4263254404067993,-0.3062494397163391,0.13926486670970917,-0.3082306385040283,0.29027828574180603,0.251421183347702,0.019539639353752136,-0.008516176603734493,0.00036534256651066244,-0.23125654458999634,0.14605025947093964,0.1409231275320053,0.09036079794168472,0.028392164036631584,-0.03957042843103409,0.1686497926712036,-0.03256624564528465,0.08536329865455627,0.24902896583080292,0.2583674490451813,0.15001095831394196,0.12885715067386627,-0.8213570713996887,-0.985895574092865,-0.4799029231071472,-0.9017312526702881,0.02006295509636402,-0.5605867505073547,0.03753761574625969,0.047374218702316284,-0.18803977966308594,-0.3808397352695465,-0.3430923819541931,-0.25610780715942383,0.20625054836273193,0.2317637950181961,0.17251434922218323,0.09346336126327515,-0.05833530053496361,0.0034243471454828978,0.06283161044120789,0.09928050637245178,0.0012660539941862226,-0.08240674436092377,0.39499783515930176,0.5353590250015259,-0.15249745547771454,0.23488566279411316,-0.05103468894958496,0.22809626162052155,0.06486277282238007,-0.2760240137577057,0.35395389795303345,0.16758576035499573,-0.06714916229248047,-0.0766315683722496,-0.14966930449008942,-0.1630181521177292,-0.010085483081638813,-0.06019606441259384,-0.08867964893579483,0.2359062284231186,-0.1883590668439865,0.06479165703058243,-0.42144954204559326,-0.32001203298568726,-0.7983278632164001,-0.010103271342813969,0.0601465180516243,-0.03900995850563049,0.22430023550987244,0.10732884705066681,-0.06515273451805115,0.1165342703461647,-0.0251621063798666,0.08543422073125839,0.09255491197109222,0.06548789888620377,0.23981577157974243,-0.2015615701675415,0.24596968293190002,-0.29429715871810913,0.10748291015625,0.24603718519210815,0.09106284379959106,0.17688077688217163,0.18176761269569397,0.19202791154384613,-1.3524442911148071,-0.24347993731498718,-1.9058932065963745,-0.04466428980231285,-0.1671539694070816,-0.11979139596223831,0.027853647246956825,0.06629392504692078,0.12911099195480347,0.7058762311935425,0.607110857963562,0.3028923571109772,0.8594105243682861,0.11987225711345673,0.11286702752113342,-0.5926857590675354,-0.2417072355747223,-0.07971922308206558,0.9830273985862732,-0.38366401195526123,-0.7589223980903625,0.3280911445617676,-0.22747306525707245,-0.5122654438018799,0.04476647078990936,0.026259636506438255,0.013178716413676739,0.16688956320285797,-0.3639066219329834,0.07160843908786774,0.032173220068216324,0.33804574608802795,-0.6361086964607239,0.02990683913230896,0.18708960711956024,-0.4111931622028351,-1.0877372026443481,-0.3275027573108673,-0.29181918501853943,0.25747305154800415,0.45764267444610596,0.09861919283866882,0.09691506624221802,0.1290174275636673,-0.6743716597557068,0.14446325600147247,0.0507633239030838,-0.0860617533326149,0.12541310489177704,1.4787874221801758,0.47683584690093994,0.18352378904819489,0.9292171597480774,0.6104755401611328,0.22483070194721222,0.24521702527999878,0.25791189074516296,-0.53044193983078,-0.03778085485100746,0.37843969464302063,0.01109925378113985,0.09574615210294724,0.3100334405899048,0.1822289079427719,0.21675579249858856,0.22105319797992706,0.1166202574968338,-0.06403878331184387,-0.03185947611927986,-0.19725440442562103,0.022660547867417336,-0.06199556961655617,-0.4871322512626648,0.08190958946943283,0.13977836072444916,0.16250303387641907,0.17022208869457245,0.09725777804851532,-0.15486696362495422,0.2184554934501648,-0.24919493496418,-0.6419521570205688,-0.3046782314777374,-0.7792694568634033,-0.11571965366601944,0.20431606471538544,0.11966684460639954,0.27428045868873596,0.03046654537320137,0.24283285439014435,0.15406057238578796,-0.09764760732650757,0.04923362284898758,-0.5746039152145386,-0.6069461703300476,-0.31753742694854736,-0.19248875975608826,-0.34443262219429016,-0.19184128940105438,-0.016721732914447784,0.10260038077831268,-0.7343694567680359,0.09534818679094315,-0.5079675316810608,-0.2233457714319229,0.15984898805618286,0.07150492817163467,-0.1372835785150528,-0.2630532681941986,0.24609142541885376,0.21040821075439453,-0.12387268245220184,0.043256066739559174,-0.15374065935611725,-0.11109858006238937,-0.10472515970468521,-0.07847032696008682,0.13420608639717102,-0.15710581839084625,-0.241937056183815,-0.033500976860523224,-0.05516831576824188,0.09045501053333282,-0.06022433191537857,-0.2359681874513626,-0.24133425951004028,-0.18400642275810242,0.06817829608917236,-0.023859234526753426,0.26453524827957153,0.16050659120082855,0.18136152625083923,0.17313197255134583,0.20387962460517883,-0.07352641224861145,-0.018587030470371246,0.04119877144694328,-0.9421024918556213,0.2196834832429886,0.14745968580245972,0.3427220582962036,0.09404001384973526,0.03960961103439331,0.19253477454185486,-0.6484081745147705,0.12294074892997742,-0.2857508957386017,-0.2116168588399887,0.25793540477752686,-0.17521707713603973,-0.5611129999160767,0.24565796554088593,0.036185648292303085,-0.15348494052886963,0.17119339108467102,0.22309599816799164,-1.3946115970611572,-0.08166346698999405,0.0747358426451683,0.1782587617635727,0.1704310029745102,0.40437448024749756,-0.36954978108406067,0.4867476522922516,-0.013113887049257755,0.1534641832113266,0.07516229897737503,0.31820932030677795,0.1248650997877121,-0.3776756823062897,-0.0027728916611522436,-0.16608043015003204,-0.0162052009254694,0.037743695080280304,-0.1489475518465042,-0.03711864724755287,0.20588597655296326,-0.7431573867797852,0.12580421566963196,-0.01799667254090309,0.7236254215240479,0.2890383005142212,-0.30313628911972046,0.704301655292511,0.38190823793411255,-0.41685056686401367,-0.5721940994262695,-0.35429251194000244,-0.4963378608226776,0.358004093170166,-0.06521108001470566,-0.512809693813324,0.23564738035202026,0.2455153465270996,0.6924238204956055,0.1250007301568985,0.5244574546813965,-0.032472990453243256,0.5301357507705688,0.6428547501564026,-0.22867856919765472,-0.2960831820964813,-0.353570818901062,-0.8296775817871094,-0.09161525964736938,0.21012629568576813,-0.0023590729106217623,0.1419554203748703,-0.6241807341575623,-0.3381909728050232,0.11695953458547592,-0.14257821440696716,-0.176323801279068,-0.2711358070373535,0.024725696071982384,0.2354832887649536,0.11921849101781845,0.012915020808577538,-0.07160734385251999,0.14872029423713684,0.1909087598323822,-0.041863493621349335,-1.1991972923278809,-0.5406243205070496,0.06616932898759842,-0.5995908975601196,0.13539455831050873,-0.7038986086845398,0.42982420325279236,-0.2582602798938751,-0.1664673089981079,-0.2296721488237381,-0.7410163283348083,0.07249681651592255,-0.5293012857437134,-0.2402661293745041,0.23084869980812073,0.028341850265860558,-0.3741706907749176,0.0144817428663373,0.1926129311323166,-0.17828193306922913,-0.31030043959617615,-0.26823848485946655,-0.054196201264858246,0.06004330888390541,0.23745940625667572,-0.4640316069126129,-0.5789206027984619,-0.2406805157661438,0.08328618109226227,0.07921792566776276,-0.24216489493846893,-0.03541331738233566,-0.2972085773944855,0.2410474270582199,-0.7032842040061951,-0.03250761702656746,-0.007045367732644081,0.10504637658596039,-0.0866026058793068,-0.3673153221607208,-0.35852983593940735,-0.09362546354532242,-0.35943201184272766,-0.5215064287185669,0.2702925205230713,0.038594648241996765,-0.11188168078660965,-0.052828263491392136,-0.017675362527370453,0.06488098949193954,-0.14949390292167664,0.3343281149864197,0.1463259756565094,0.1934727430343628,0.29626980423927307,0.30738791823387146,-0.04138242453336716,-0.15330550074577332,-0.22570829093456268,-0.08788394182920456,0.2015867382287979,0.1315397322177887,-0.00020154319645371288,0.15266229212284088,0.479961633682251,0.5048328042030334,-0.050540972501039505,0.6086611747741699,-0.43913453817367554,-0.6002482175827026,-0.46548065543174744,-0.0159204863011837,-0.6596670746803284,-0.7081809639930725,-0.10107546299695969,0.04961716756224632,0.6971765160560608,0.4040660262107849,-1.2965766191482544,-0.541082501411438,0.20779171586036682,-0.6945796012878418,0.4893662929534912,-0.10693280398845673,0.3864828944206238,0.4735504984855652,-0.050178468227386475,0.29749369621276855,0.112531378865242,-0.15596459805965424,-0.04178101196885109,0.2814394235610962,0.2265411615371704,-0.026271702721714973,0.3557005226612091,-0.10050807893276215,-0.1999352127313614,-0.09751202911138535,-0.2711711823940277,-0.7514441609382629,-0.08980917185544968,0.470200777053833,0.3330649733543396,0.17903125286102295,-0.20636558532714844,-0.1466377228498459,-0.33848926424980164,-0.11277222633361816,-0.20900453627109528,0.3337407112121582,0.18654073774814606,0.11768796294927597,0.24376143515110016,-0.05308062210679054,0.5668022036552429,0.42409029603004456,-0.003893463872373104,0.6789134740829468,0.7165696024894714,-0.08788454532623291,0.3251515328884125,0.5107913613319397,0.07795827835798264,-0.46562618017196655,0.0845348984003067,0.06864656507968903,0.08988769352436066,0.21398161351680756,0.179783433675766,-0.19329221546649933,-0.5022748112678528,-0.15922130644321442,-0.10685151815414429,-0.5959039926528931,0.019647853448987007,0.06406550854444504,-0.14566589891910553,0.3436904549598694,0.17423014342784882,-0.2756282389163971,0.21944871544837952,0.3765197694301605,0.07888569682836533,-0.07777927070856094,-0.6048869490623474,-0.05050377547740936,-0.8996075391769409,-2.6602556705474854,0.12383311986923218,-0.35247325897216797,-0.24225300550460815,-0.3800434172153473,-0.08205442130565643,-0.168829545378685,-0.5725029706954956,0.12801513075828552,-0.11002933233976364,-0.3330724537372589,0.036606963723897934,-0.24250434339046478,-0.32100188732147217,-0.403449147939682,-0.06393994390964508,-0.35206618905067444,-0.65072101354599,0.3339722752571106,0.22945629060268402,0.20654115080833435,-0.11978895962238312,-0.5382010340690613,-0.553523063659668,0.2819892168045044,-0.2372567057609558,0.13771207630634308,0.3449699282646179,-0.7249783873558044,0.11747265607118607,0.06536046415567398,-0.8724281191825867,0.17573797702789307,0.06680990755558014,-0.3055536150932312,0.25354042649269104,0.13706663250923157,0.2926903963088989,0.07685928791761398,-0.6524308323860168,0.2269425094127655,0.0751325711607933,-0.09135287255048752,-0.10626762360334396,-0.29707494378089905,0.09835102409124374,-0.10633309185504913,-0.11291565746068954,0.4861079156398773,-0.0828707292675972,-0.15985427796840668,0.0845419242978096,-0.03806677833199501,-0.1887911856174469,-0.023832719773054123,0.168723464012146,-0.14763599634170532,0.1676691323518753,0.40321409702301025,0.09677664935588837,-0.15181177854537964,0.31387096643447876,-0.0758678987622261,-0.09729379415512085,-0.11915241926908493,-0.08414389938116074,0.2639414668083191,-0.8949055671691895,0.3214215934276581,-0.5140159726142883,-0.28307902812957764,0.36300984025001526,0.32050421833992004,0.33069199323654175,-0.14325986802577972,0.38298192620277405,0.3863746225833893,0.2593510150909424,-0.6107621788978577,0.047019846737384796,0.14979824423789978,-0.25471261143684387,0.08516465872526169,0.18574848771095276,-1.0694271326065063,-0.01941501535475254,0.21289214491844177,-0.013694796711206436,0.1542871594429016,0.08280341327190399,-0.11909333616495132,0.15304744243621826,-0.6270339488983154,-0.028122399002313614,-0.04218271002173424,-0.0854809582233429,-0.0737546905875206,-0.08755587041378021,0.12852036952972412,0.06192566081881523,-0.5512939095497131,-0.9688605666160583,-0.1876840889453888,-0.029022248461842537,0.11856288462877274,0.27290400862693787,0.18060867488384247,0.2922265827655792,0.25434213876724243,0.03472761809825897,-0.679215669631958,0.06279558688402176,-0.017528843134641647,0.686016321182251,0.2914540469646454,0.6874563694000244,0.1820530891418457,0.3464197516441345,-0.1592029184103012,-0.8241299986839294,0.15927477180957794,0.14182615280151367,0.8884884715080261,0.5007485151290894,-0.16444633901119232,0.5383719801902771,0.15585002303123474,-0.43647319078445435,-0.17635297775268555,-0.14356213808059692,0.0892215371131897,0.020863402634859085,-0.5722528100013733,-0.14424440264701843,0.1696614921092987,0.5882967114448547,-0.6134516596794128,0.24862590432167053,0.28713154792785645,0.19287404417991638,-0.13370747864246368,-0.17303484678268433,-0.39515194296836853,-0.2338174432516098,-0.988885760307312,-1.0167869329452515,0.30407947301864624,-0.3381706476211548,0.01921062357723713,-0.02244362235069275,-0.05029863864183426,-0.14695300161838531,-0.031936585903167725,0.08651430904865265,0.24678201973438263,-0.25992661714553833,-0.2990007698535919,-0.19252385199069977,-0.22495229542255402,0.04194631054997444,-0.15379714965820312,-0.15242008864879608,0.18542170524597168,-0.08639837801456451,-0.11684448271989822,-0.8108294010162354,0.08804622292518616,-0.24695202708244324,-0.7490968704223633,-0.12684524059295654,-0.024356726557016373,-0.15398664772510529,-0.4175436496734619,0.13343070447444916,-0.2087872326374054,0.14759016036987305,0.03550039976835251,0.22036050260066986,-0.09790119528770447,0.04140413552522659,0.08976941555738449,-0.4728074371814728,-0.1817464679479599,-0.9289312362670898,-0.023342277854681015,-0.3035913407802582,0.03616662696003914,-0.05676467344164848,0.07927882671356201,-0.15800583362579346,-0.14460481703281403,0.18301482498645782,0.3037601411342621,-0.13418662548065186,-0.49258437752723694,-0.06718677282333374,0.051627058535814285,-0.3604371249675751,-0.5037208795547485,-0.15541289746761322,0.04353667423129082,0.11015128344297409,0.32120656967163086,0.05018017441034317,0.14635519683361053,0.20629797875881195,0.044927775859832764,-0.663861870765686,-0.738430380821228,0.23073117434978485,-0.2333543449640274,-0.28989124298095703,0.49843069911003113,0.01875346153974533,-0.33874067664146423,0.27907854318618774,0.9983705282211304,-0.8764818906784058,-0.16734905540943146,-0.3724396824836731,-0.3686901926994324,0.2759621739387512,0.1353369951248169,-0.6384035348892212,0.22906312346458435,0.04616577550768852,-0.20544523000717163,0.29842063784599304,-0.041455063968896866,-0.21602937579154968,0.058987438678741455,-0.14382019639015198,-0.07595939934253693,0.09508448094129562,-0.1864621341228485,0.02868901751935482,-0.4312376379966736,-0.07038523256778717,0.09539199620485306,-0.06703920662403107,-0.0763343945145607,-0.07760149985551834,-0.08314642310142517,-0.036668356508016586,-0.09223027527332306,0.1243232861161232,0.008641937747597694,-0.06589286774396896,-0.0541091114282608,-0.047416530549526215,-0.08522915095090866,0.014167789369821548,-0.09227779507637024,-0.06475120037794113,0.014974059537053108,-0.0970616266131401,-0.02166886255145073,-0.07718179374933243,-0.011750212870538235,0.010742376558482647,0.01588919758796692,0.025263121351599693,0.017409663647413254,0.011440962553024292,-0.013191853649914265,-0.14403113722801208,-0.03775697946548462,-0.1366998255252838,-0.10083414614200592,-0.1341094672679901,-0.09662926197052002,-0.14648179709911346,-0.0015690297586843371,-0.011310429312288761,-0.0547579750418663,-0.007388102822005749,0.03647148236632347,-0.01911705732345581,0.02079649455845356,-0.058985140174627304,0.01997924968600273,-0.07550745457410812,-0.14323680102825165,0.0018486303742974997,-0.10445619374513626,0.022604867815971375,-0.00016836944269016385,-0.09431691467761993,-0.06812089681625366,0.004803684074431658,-0.003738259430974722,-0.07872065156698227,-0.02614733576774597,-0.11321564763784409,-0.018768487498164177,-0.16642393171787262,-0.12972325086593628,-0.16797122359275818,-0.11985015124082565,-0.0616617426276207,-0.15065693855285645,-0.08693981915712357,-0.140669584274292,-0.06846213340759277,-0.1265057474374771,-0.08591610938310623,-0.007277364376932383,-0.1081361398100853,-0.09267514944076538,-0.13232138752937317,-0.1652393788099289,-0.16470542550086975,0.006161906290799379,-0.03732230141758919,0.0010509967105463147,-0.14015640318393707,-0.09047336876392365,-0.0924084335565567,-0.14821909368038177,-0.1511252075433731,-0.152190700173378,-0.07392064481973648,-0.030125366523861885,-0.14697375893592834,-0.03874609246850014,-0.11291263997554779,-0.10934331268072128,-0.13845619559288025,-0.020672976970672607,0.010267968289554119,-0.013701824471354485,-0.17313025891780853,0.012120482511818409,-0.05281073972582817,-0.024146147072315216,-0.043382931500673294,-0.13712657988071442,-0.1089751198887825,0.061140384525060654,-0.13256177306175232,0.08290070295333862,0.05627027526497841,-0.13820098340511322,-0.048881467431783676,-0.029011569917201996,-0.03940718621015549,-0.06108534708619118,0.0627610832452774,-0.06743908673524857,-0.017502984032034874,-0.15159839391708374,-0.05601930990815163,-0.10739292204380035,-0.07585066556930542,-0.09429962933063507,-0.1199285089969635,-0.03933931142091751,-0.06751134246587753,-0.058428164571523666,-0.19587263464927673,-0.1265820562839508,-0.023331308737397194,-0.06583276391029358,0.0013522271765396,0.025296002626419067,-0.04479513689875603,-0.004853236488997936,-0.07892511039972305,0.0572490468621254,-0.025783270597457886,0.021636851131916046,-0.14735397696495056,-0.04485268518328667,-0.12584525346755981,-0.06323322653770447,-0.14223192632198334,-0.0669446736574173,-0.10539659857749939,-0.02385375276207924,-0.05734599754214287,-0.15519307553768158,-0.14138872921466827,-0.11640181392431259,-0.3689064681529999,-0.3151162266731262,0.3517836928367615,-0.007504373323172331,-0.2092081606388092,0.4343022406101227,-0.002073432318866253,0.2815927565097809,-0.18809841573238373,-1.1141210794448853,-0.5135768055915833,-0.18310755491256714,-0.12531901895999908,0.09633093327283859,0.15039263665676117,0.15188899636268616,0.299280047416687,0.6766396760940552,-0.034005288034677505,-0.9078112244606018,0.39255377650260925,0.37795379757881165,0.5929180383682251,0.8951188921928406,0.32170969247817993,-0.31726184487342834,-0.04940183460712433,-0.10406588762998581,0.004068784881383181,0.12319490313529968,0.46262678503990173,-0.5631150603294373,-0.2812994718551636,-0.2258218228816986,-0.18788431584835052,0.106986865401268,-0.039352647960186005,0.10007355362176895,0.32339125871658325,-0.06123512238264084,-0.0809832438826561,0.0011798180639743805,-0.01598169095814228,0.059408269822597504,0.21144695580005646,0.12400327622890472,-1.0003246068954468,-0.31875789165496826,0.12808464467525482,-0.5308212041854858,0.3222680389881134,0.2778306007385254,0.12346343696117401,-0.01861252635717392,0.26196810603141785,-0.030761949717998505,-0.5137615203857422,0.03977571800351143,0.018666554242372513,-0.1292710155248642,-0.1617124229669571,-0.4423317611217499,-0.3447209596633911,0.1601949781179428,0.0921408012509346,-0.5190991163253784,-0.057829599827528,0.10713603347539902,-0.07661122828722,-0.34104111790657043,-0.35855403542518616,-0.2492089569568634,-0.0373966209590435,-0.15306124091148376,0.2426324188709259,0.07977869361639023,0.7896112203598022,-0.09596714377403259,0.050698697566986084,-0.17427892982959747,0.27389881014823914,-0.07732454687356949,0.19792799651622772,0.16472536325454712,-0.4374777376651764,-0.06409861147403717,0.0088271489366889,0.5112701654434204,-0.3654926121234894,-0.10858424007892609,-0.20977361500263214,-0.26230892539024353,-0.3767865002155304,-0.4604761004447937,-0.05721099302172661,0.1803118735551834,0.14630521833896637,0.15925663709640503,-0.030068419873714447,0.3753354847431183,0.22970518469810486,-0.11042045056819916,0.16914275288581848,-0.39867544174194336,-0.055497296154499054,0.2784839868545532,-0.16340500116348267,-0.1494968980550766,0.17682112753391266,0.29671236872673035,0.5099268555641174,-0.1832272857427597,-0.9659008979797363,-0.9601630568504333,0.0027236812748014927,0.2634623944759369,0.17013098299503326,-0.3477165102958679,-0.6158078908920288,-0.3323756754398346,-0.06447315961122513,0.04534571245312691,0.4793335795402527,0.5742891430854797,-0.3378690779209137,-1.2405378818511963,0.1594584584236145,-0.5408226847648621,-0.37080758810043335,0.16970540583133698,0.2568182945251465,-0.0472930483520031,-0.08810694515705109,-0.30956459045410156,-0.7186145782470703,0.1337500661611557,0.21106478571891785,-0.08011559396982193,-0.052673544734716415,-0.24887877702713013,-0.17059993743896484,0.027085155248641968,0.16403385996818542,0.043417129665613174,-1.8117811679840088,0.32112711668014526,-0.012388340197503567,-0.774135410785675,0.1769343912601471,0.10430854558944702,-0.06565249711275101,-0.023078134283423424,0.15555456280708313,-1.651251196861267,0.23937620222568512,0.37583789229393005,-1.470883846282959,-0.37027662992477417,-0.04716937243938446,0.5451653003692627,0.14489983022212982,0.8136253952980042,-0.6596671342849731,0.2549643814563751,1.1474379301071167,-0.5101425647735596,0.24970634281635284,0.9207171201705933,-0.3458750545978546,0.010135024785995483,0.03862249106168747,-0.7225940227508545,0.01040455512702465,-0.3546419143676758,-0.7541688084602356,-0.04709063097834587,-0.12639068067073822,-0.4409791827201843,0.4233478009700775,0.022776592522859573,-0.22413255274295807,0.17052777111530304,0.10697562992572784,-0.28117936849594116,-0.06458811461925507,0.1253298968076706,-0.05289271101355553,-0.06308920681476593,-0.35867708921432495,-0.8190661072731018,-0.1267823576927185,-0.06842902302742004,-1.0559208393096924,-0.2748393416404724,-0.06813142448663712,-0.5954548120498657,0.07041679322719574,-0.24786782264709473,-0.3871617019176483,0.06601927429437637,-0.21612584590911865,-0.4198850989341736,-0.01007748767733574,-0.12242545932531357,-0.1330794394016266,-0.10409574210643768,0.1380746066570282,-0.2574882507324219,-0.10373594611883163,-0.3463607430458069,-0.218379944562912,0.01789359375834465,-0.7598820924758911,-0.38033100962638855,0.5221679210662842,-0.20822647213935852,0.4207970201969147,0.6445778608322144,-0.06091870367527008,0.02065911702811718,0.514327883720398,-0.04206939414143562,-0.49994957447052,0.5441891551017761,-0.5464529395103455,-0.1822270005941391,-0.7744669318199158,-0.9424636960029602,0.07390537112951279,-0.681378185749054,-0.24016310274600983,0.14982759952545166,-0.004689396359026432,-0.6456728577613831,0.18126258254051208,-0.12649202346801758,-1.1642805337905884,-0.4386289119720459,-0.11293543875217438,-0.5480530858039856,-0.3264009654521942,0.1658448725938797,-1.4617189168930054,0.13034729659557343,0.13179177045822144,-0.61857008934021,-1.1786103248596191,0.13183385133743286,0.40605172514915466,0.20838096737861633,-0.028673207387328148,-0.04392954334616661,-0.291018009185791,0.1138356626033783,-0.531214714050293,-1.2552204132080078,0.36899223923683167,-0.3880801498889923,-0.8516232967376709,-0.19039854407310486,0.31953898072242737,-1.1259478330612183,0.007193603552877903,0.20450296998023987,-0.18547388911247253,0.37715861201286316,0.11427225917577744,-0.7867770791053772,1.3541902303695679,0.27546411752700806,0.10797639191150665,-0.33593735098838806,0.8780748248100281,-1.1017673015594482,-0.3037577271461487,0.3466523587703705,-0.22384929656982422,-0.25474852323532104,-0.1350095421075821,0.35355648398399353,0.250236839056015,-0.6054531335830688,-0.16851702332496643,0.3028341829776764,-0.6786990165710449,0.6361731886863708,0.5497536063194275,0.19210629165172577,0.12855492532253265,0.38919371366500854,0.17076969146728516,0.3953094184398651,0.5467203855514526,0.29165422916412354,0.9404311180114746,-0.21476337313652039,0.12338261306285858,0.2903514504432678,0.0641317069530487,-0.10915646702051163,0.22898712754249573,-0.003458228660747409,0.38480183482170105,1.2977138757705688,-0.215153768658638,-1.0238490104675293,-0.17787785828113556,0.380342036485672,-0.16512997448444366,0.06266547739505768,0.40629395842552185,-0.13329465687274933,-0.021034792065620422,0.3385099470615387,0.29208993911743164,0.041213635355234146,0.019242221489548683,0.173228457570076,0.20947089791297913,-0.1302102953195572,-0.22136735916137695,0.098899707198143,0.66399085521698,0.18241706490516663,0.08641128987073898,0.12757660448551178,0.2526897192001343,0.003064232412725687,0.0912695974111557,0.2187725007534027,-0.19462209939956665,0.052750665694475174,0.10748432576656342,0.02927011251449585,0.1452397108078003,-0.1230984628200531,0.06832509487867355,0.19124245643615723,-0.08880718052387238,0.2845310568809509,0.07106919586658478,-0.020673319697380066,-0.2059764862060547,-0.030489135533571243,-0.053165335208177567,0.026154115796089172,0.31743812561035156,0.14866508543491364,0.11276909708976746,0.09235948324203491,-0.01196312252432108,-0.12280712276697159,-0.05470297485589981,0.08091746270656586,0.053373292088508606,0.19551558792591095,0.07637686282396317,-0.02682553045451641,-0.04106958210468292,-0.20644120872020721,0.2225438803434372,0.03560918569564819,-0.24010595679283142,0.11950864642858505,-0.1135992631316185,0.0729413703083992,0.005785507149994373,-0.10103712975978851,-0.25825709104537964,-0.07819009572267532,-0.27523931860923767,-0.0113200843334198,-0.12741868197917938,0.11930034309625626,-0.06408283859491348,-0.1594809889793396,0.14748796820640564,0.30152249336242676,0.13977794349193573,0.15064649283885956,0.27840641140937805,0.23220735788345337,0.1220974400639534,0.1704878956079483,0.003661579918116331,-0.5551943778991699,-0.3085252046585083,0.04304981604218483,-0.5981233716011047,-0.4357606768608093,-0.2723237872123718,-0.27310001850128174,0.06773678958415985,-0.014825950376689434,-0.047938887029886246,-0.1581943929195404,0.05200129374861717,-0.6820037961006165,-0.460243821144104,-0.45442700386047363,-0.10173492133617401,-0.29358571767807007,-0.34050872921943665,-0.1819007843732834,-0.40897735953330994,-0.09390556067228317,-0.19112160801887512,0.3338452875614166,0.2450517863035202,-0.26388585567474365,-0.7323319315910339,-0.3860234320163727,-0.14612765610218048,0.06570892781019211,-0.24183519184589386,-0.10647998750209808,-0.40081822872161865,-0.5208403468132019,-0.5370303988456726,-0.009180470369756222,0.4665730595588684,0.11563203483819962,0.1606704592704773,0.1315917670726776,0.3998234272003174,0.20012283325195312,0.38488560914993286,-0.07047700136899948,0.3260241150856018,0.227711483836174,-0.06321482360363007,-0.004897072911262512,0.36109834909439087,-0.08622463047504425,-0.1545124500989914,0.20850765705108643,-0.3786523640155792,-0.16202384233474731,-0.012764655984938145,0.04407700151205063,0.3774741291999817,-0.22853060066699982,-0.16594521701335907,0.2853633463382721,0.08387701958417892,0.004185448866337538,0.3289320468902588,0.3406549394130707,-1.226244330406189,0.4506560266017914,0.20196548104286194,-1.8670783042907715,0.7013669013977051,0.08486364036798477,-0.9286330938339233,0.12528741359710693,0.09404745697975159,-0.09472325444221497,-0.05041984096169472,-0.041571177542209625,-0.6316720247268677,-0.2020159214735031,0.2454954981803894,-0.014329548925161362,-0.20443330705165863,0.3494526147842407,0.18126504123210907,0.07082753628492355,0.12062142789363861,0.3740796148777008,-0.7600392699241638,-0.19973213970661163,0.01981293596327305,-0.050297901034355164,0.06430433690547943,-0.5076828598976135,-0.11401832103729248,0.11146243661642075,-0.42864763736724854,-0.12260407954454422,0.08481601625680923,-0.21631918847560883,0.2751080095767975,0.4336673319339752,-0.25633737444877625,-0.33761411905288696,0.3324006199836731,-0.015296353958547115,-0.07770561426877975,0.19511371850967407,-0.08712328970432281,-0.02719157189130783,-0.035149674862623215,-0.6817542314529419,-0.5873088836669922,0.23451915383338928,-0.0559847392141819,-0.3892117142677307,0.11157026886940002,-0.017561621963977814,-0.14874081313610077,0.4542859196662903,-0.3475229740142822,0.0004149076412431896,0.29741397500038147,-0.3106158971786499,0.014581344090402126,0.2241860181093216,0.12827129662036896,0.2833998501300812,0.07026637345552444,0.125608891248703,0.02033676579594612,0.26138150691986084,0.08747794479131699,-0.2606959044933319,0.3155798614025116,-0.6245818138122559,-0.16409504413604736,-0.16819922626018524,-0.04645581170916557,-0.4249972403049469,0.2502668499946594,-0.17604424059391022,-0.46550530195236206,-0.15923769772052765,-0.5215157270431519,-0.377066969871521,-0.23814794421195984,-0.32417818903923035,-0.08871874213218689,0.13461600244045258,-0.6008318066596985,0.2649692893028259,0.11647656559944153,-0.12387676537036896,0.06814485788345337,0.013532553799450397,-0.0688457116484642,0.009239423088729382,0.3330684304237366,-0.8360365033149719,-0.9888615012168884,0.19650132954120636,-0.08272077888250351,-0.3513776659965515,0.11557863652706146,-0.23465317487716675,0.23391978442668915,-0.16363009810447693,0.8525354266166687,0.18314656615257263,-0.22531697154045105,-0.4617285132408142,0.8891903758049011,-0.7209348678588867,-0.3253786265850067,0.1749894767999649,0.693316638469696,0.20853307843208313,-0.24193702638149261,0.32404834032058716,-0.6615589261054993,0.06191524118185043,0.21955329179763794,0.05606827884912491,-0.055743712931871414,0.6804544925689697,0.14810624718666077,-0.5252020359039307,0.6579412221908569,0.47486060857772827,-0.1990300416946411,0.8083673119544983,-0.14168770611286163,0.05736299231648445,0.16500861942768097,0.06789327412843704,-0.40703335404396057,0.10051780939102173,-0.32238009572029114,-0.7759988903999329,-0.5392353534698486,0.2732844352722168,-0.042646780610084534,-0.3164754807949066,0.081001415848732,0.02394009567797184,-0.1980638951063156,0.22274553775787354,-0.05364752933382988,-0.6423964500427246,0.11928731948137283,-0.367209255695343,-0.5948243737220764,0.2457415759563446,-0.028951475396752357,-0.7577711939811707,0.3587724268436432,-0.7344489693641663,-0.41179603338241577,0.1323423534631729,-0.11119658499956131,-0.7674668431282043,0.08112829178571701,0.052736546844244,0.02668069861829281,-0.2558901309967041,-0.5802667737007141,-0.004160039592534304,0.20854134857654572,0.1748020499944687,-0.17838440835475922,-0.5105656981468201,0.003632579930126667,-0.2191232293844223,0.0820947140455246,-0.011519583873450756,-0.08652619272470474,-0.07848501205444336,-0.1792730689048767,-0.13549040257930756,0.02916709892451763,-0.2277943193912506,-0.028054121881723404,0.2945113182067871,-0.24706079065799713,-0.0403478741645813,-0.026958128437399864,0.17071481049060822,0.20827235281467438,0.19570185244083405,0.07628549635410309,0.46628573536872864,0.08509030193090439,-0.06783781200647354,0.18195576965808868,0.3028182089328766,0.02169833518564701,0.1748225837945938,0.24989821016788483,-0.09317708015441895,0.2246973216533661,-0.023305367678403854,-0.4207531809806824,0.24457021057605743,0.3812125027179718,0.4148961305618286,0.5405174493789673,0.23753681778907776,0.19425532221794128,0.3303215205669403,-0.029336296021938324,-0.3178791403770447,-0.27141472697257996,-0.2962428331375122,-0.12362608313560486,-0.20129188895225525,0.1138002797961235,0.12970879673957825,-0.1342606395483017,-0.0705295205116272,0.13893166184425354,0.09190047532320023,-0.2163749784231186,-0.21054047346115112,0.04610903188586235,-0.11760387569665909,-0.09969453513622284,-0.14599192142486572,0.14648890495300293,-0.029471764340996742,-0.06061318516731262,-0.07920484244823456,-0.15929964184761047,-0.26312169432640076,-0.2115315943956375,0.06785600632429123,0.29136374592781067,-0.07917369902133942,0.2944544553756714,0.06460563838481903,0.041897233575582504,0.10271138697862625,-0.08154759556055069,-0.02566640079021454,-0.18189065158367157,0.02868950553238392,-0.32807061076164246,-0.8772189021110535,-0.030804364010691643,-0.24784715473651886,0.02742527425289154,0.047261808067560196,-0.23016111552715302,0.10350558161735535,0.05603892728686333,0.16797156631946564,0.5275532007217407,0.09236695617437363,-0.7012959718704224,-0.6841703057289124,-0.1265210509300232,-0.5380573868751526,-0.4436770975589752,-0.5346696376800537,-0.00023577525280416012,0.24804513156414032,-0.4935436248779297,0.10956660658121109,0.2765750288963318,0.1330718696117401,0.057980090379714966,0.21298030018806458,0.2365586757659912,0.07296588271856308,0.2120429426431656,-0.08701011538505554,-0.344759076833725,-0.1987650990486145,-0.9124609231948853,-0.41989198327064514,0.2533056437969208,-0.06365099549293518,-0.6180272102355957,-0.09381600469350815,-0.1503152996301651,0.1255720853805542,0.29765602946281433,-0.1523677259683609,-0.3095511496067047,0.02891261875629425,-0.3272331655025482,0.2105143517255783,-0.06837606430053711,0.07299355417490005,0.2819578945636749,1.0680996179580688,0.8104016780853271,-0.2719402313232422,1.151699423789978,0.10895738750696182,0.8296365141868591,1.1265524625778198,-0.6655545830726624,-0.7112160921096802,0.16216015815734863,-0.5345248579978943,0.056642163544893265,0.2792389690876007,0.34984922409057617,-0.20431652665138245,-0.42053961753845215,0.04032532498240471,-0.0656757801771164,0.2358328402042389,-0.11569450050592422,-0.2439061999320984,0.23344017565250397,0.30930763483047485,0.176355242729187,-0.34561342000961304,-0.1366848349571228,0.11673969030380249,0.013739104382693768,-0.4944685697555542,-0.7256150245666504,-0.6224614977836609,-0.1271519511938095,-1.0855051279067993,0.23551113903522491,0.06039641052484512,-0.2682071626186371,-0.10804847627878189,0.096413753926754,-0.047480612993240356,0.03271475434303284,0.025069553405046463,-0.03900584205985069,-0.17236392199993134,-0.07852713018655777,-0.3394184410572052,-0.9337461590766907,0.0006385764572769403,-0.03530627489089966,-0.7787852883338928,-0.397816002368927,0.06003224477171898,-0.14805717766284943,-0.3321017920970917,-0.406175822019577,-0.6616966724395752,-0.08301227539777756,-0.40476229786872864,-0.14374320209026337,-0.039938248693943024,0.7702164649963379,-0.3097980320453644,0.3445495665073395,-0.06473756581544876,0.1677016019821167,-0.023781852796673775,0.04989985376596451,-0.1130380928516388,-0.36471229791641235,-0.01581317000091076,0.2642921805381775,0.4243282079696655,-0.4818980395793915,-0.915851354598999,0.040798287838697433,0.19659946858882904,-0.10172932595014572,-0.030424252152442932,-0.04839377477765083,-0.09498993307352066,0.05865776911377907,0.2680363059043884,0.0508592464029789,0.12301347404718399,0.2790304124355316,-0.10006653517484665,-0.006336195860058069,-0.17936983704566956,-0.4896126985549927,-0.14163850247859955,0.06706692278385162,-0.09395773708820343,0.012110906653106213,0.10207224637269974,0.15470772981643677,-0.3140472173690796,-0.45672890543937683,-0.9507606625556946,-0.1572522073984146,-0.03280733898282051,0.12951812148094177,0.20747104287147522,-0.5662537217140198,-0.3249397873878479,0.17377488315105438,0.6467300057411194,0.5180990695953369,0.5770268440246582,-0.9449787735939026,-0.29120099544525146,-0.3912094533443451,-0.7008856534957886,0.025684833526611328,0.11210958659648895,0.10301673412322998,-0.4873393177986145,-0.08090730011463165,0.2894850969314575,-0.26656314730644226,0.5029367804527283,-0.427988737821579,-0.12276855856180191,