{"schema":"wishuponablock.model.v1","created_at":"2026-02-10T18:27:06.603090+00:00","source":{"checkpoint":"tools/ml/checkpoints/phase_polish/best.pt","epoch":7},"pieces":["I","O","T","S","Z","J","L"],"board_channels":["occupancy","holes","row_fill"],"model":{"input_channels":3,"conv_channels":[16,32,64],"mlp_hidden":64,"extra_features":8,"num_outputs":7},"params":{"conv.0.weight":{"shape":[16,3,3,3],"data":[-0.23667094111442566,-0.6703876256942749,-0.20134945213794708,0.6924692392349243,-1.2087817192077637,-0.7706333994865417,0.02642262913286686,0.2287435233592987,-0.5741953253746033,-0.3033211827278137,0.02616966888308525,0.03980828449130058,0.18200290203094482,-0.26369020342826843,-0.15919597446918488,0.059933047741651535,-0.6821524500846863,-0.13464678823947906,0.0370827317237854,-0.1908198595046997,0.15898747742176056,-0.008983371779322624,0.12957240641117096,0.37294328212738037,-0.24600061774253845,0.053422849625349045,0.27556100487709045,0.32977622747421265,-0.6577654480934143,0.40203753113746643,-0.4475765824317932,-0.7274867296218872,0.17659789323806763,-0.2915007472038269,-0.017629439011216164,0.2055734395980835,0.5657215118408203,-0.4751344621181488,0.030457889661192894,-0.9866156578063965,-0.7727875709533691,0.22730407118797302,-0.2435879409313202,-0.1779467910528183,0.25884461402893066,-0.29929426312446594,0.025503842160105705,0.21047334372997284,0.20716629922389984,0.17488445341587067,0.20787905156612396,0.008457438088953495,0.07172469049692154,0.093963123857975,0.1500246673822403,0.09392846375703812,-0.14816871285438538,0.026181424036622047,-0.18929517269134521,0.04006677493453026,-0.05229554697871208,-0.15388277173042297,-0.16013382375240326,0.013899496756494045,0.13374817371368408,-0.0862480103969574,-0.18251878023147583,-0.12542611360549927,0.06949830800294876,-0.052582819014787674,-0.1760493665933609,-0.01973750628530979,-0.11443503201007843,0.10529076308012009,-0.10708533227443695,-0.13228093087673187,0.033976417034864426,-0.14877000451087952,-0.05436214059591293,-0.035887282341718674,0.15275436639785767,-0.14192162454128265,-0.6185380220413208,-0.06496352702379227,0.14757679402828217,-0.6106545329093933,0.021874994039535522,-1.0895957946777344,-1.0203660726547241,0.06525438278913498,-0.5360903739929199,0.306774765253067,-0.33355817198753357,0.2647266089916229,0.13964153826236725,-0.46938687562942505,0.32055312395095825,-0.4095381796360016,-0.3968603312969208,0.16317853331565857,-0.38308605551719666,0.21321889758110046,0.22010987997055054,0.02457050234079361,-0.13344380259513855,0.7151610851287842,-0.03276800364255905,-0.17967334389686584,-0.1966577172279358,-0.4152367413043976,-0.12530283629894257,0.23932579159736633,0.222004696726799,-0.4695892333984375,-0.2636350095272064,0.19758805632591248,-1.054788589477539,-0.6249425411224365,-0.5706033706665039,-0.05730365961790085,-0.3363247215747833,-0.5837746262550354,-0.3598223030567169,-0.1790904998779297,-0.12398024648427963,-0.3687058091163635,0.06819029897451401,0.2069123089313507,0.25738662481307983,0.22071251273155212,0.2433767467737198,0.14216753840446472,-0.03170924633741379,0.14617376029491425,0.0809176117181778,0.00860186293721199,-0.8052495121955872,-0.4428916275501251,-0.7245906591415405,-0.33946123719215393,-0.4598205089569092,0.15815898776054382,-0.199217289686203,0.18926182389259338,-0.17460963129997253,-0.5843772888183594,-0.5551507472991943,-0.7060686945915222,-0.19485311210155487,-0.4265178143978119,0.27876558899879456,-0.16053487360477448,0.3091440200805664,0.06476687639951706,0.008729260414838791,0.2607959806919098,0.2379191517829895,0.11245044320821762,0.09188002347946167,0.2589532136917114,0.04340261220932007,0.25754478573799133,-0.5666320323944092,0.49751901626586914,0.20593437552452087,-0.40954113006591797,0.1541050523519516,-0.11376746743917465,0.4969995617866516,-0.36348146200180054,-0.09267862141132355,0.18680258095264435,-0.24732927978038788,0.13449643552303314,-0.3707628548145294,0.2301831692457199,-0.006041610613465309,0.5782502889633179,-0.1709640920162201,0.11402358114719391,-0.05465078353881836,0.14637209475040436,0.1020141988992691,0.18569356203079224,-0.0330272801220417,-0.049520958214998245,-0.20112423598766327,-0.03058229386806488,-0.0030915159732103348,-0.2218010425567627,0.21693764626979828,-0.24002279341220856,-0.809363603591919,0.65181964635849,0.1924494206905365,0.3279029130935669,0.32108455896377563,-0.020172428339719772,-0.7755301594734192,0.45638012886047363,-0.14663904905319214,-0.682733416557312,0.2676929831504822,0.32288533449172974,0.27302390336990356,0.21607431769371033,-0.0984647125005722,-0.18163931369781494,-0.00798762496560812,0.08196133375167847,-0.20026777684688568,-0.04955768957734108,-0.07743360847234726,-0.28428733348846436,-0.07662641257047653,-0.18944555521011353,-0.5733544230461121,-0.36713001132011414,-0.2310238480567932,0.07661048322916031,0.3005969524383545,-0.7554027438163757,0.33024492859840393,0.5292704701423645,-0.24363671243190765,-1.2694945335388184,0.2457023561000824,0.3017687201499939,-0.1180630773305893,-0.4734817147254944,0.01091852132230997,-0.044453270733356476,0.5135152339935303,-0.24680732190608978,-0.01347419898957014,0.09804174304008484,0.03314903751015663,-0.18850077688694,0.011024413630366325,-0.2427416890859604,0.06044629216194153,-0.32252854108810425,-0.05562971532344818,0.17590385675430298,-0.17164362967014313,0.28735414147377014,-0.11411593854427338,0.09369229525327682,0.2613488733768463,-0.1681220680475235,0.026620086282491684,0.0324372835457325,-0.2464854121208191,-0.19660843908786774,-0.22322343289852142,-0.7237374186515808,-0.040453094989061356,-0.5269716382026672,-0.0638355016708374,-0.030644021928310394,0.3319166302680969,-0.12526285648345947,0.036783233284950256,-0.005860630888491869,0.11774219572544098,-0.03497081249952316,0.03329808637499809,0.15861718356609344,0.1002170592546463,0.06875140219926834,-0.38606569170951843,-0.36862826347351074,-0.4972503185272217,0.11182739585638046,-0.042299021035432816,0.4035837948322296,-0.5419996380805969,-0.2963103652000427,-0.6161460876464844,0.3143618702888489,0.12297504395246506,0.20735090970993042,0.14126823842525482,0.10868216305971146,0.3037288784980774,0.18185560405254364,-0.077733613550663,0.4086313545703888,-0.5112664699554443,-0.13045640289783478,-0.13927771151065826,-0.2031792551279068,-0.0030806371942162514,0.13219887018203735,-0.019825156778097153,-0.1015935018658638,-0.16199152171611786,0.16217297315597534,-0.16550636291503906,-0.5208726525306702,-0.24516721069812775,0.22490619122982025,0.09872175753116608,0.024698978289961815,-0.026936188340187073,0.14579260349273682,-0.010409090667963028,-0.23400940001010895,-0.9641485810279846,0.08805279433727264,0.635603666305542,-0.2765656113624573,-0.10129909962415695,-0.4041672646999359,-0.18293635547161102,-0.10118384659290314,0.18627899885177612,-0.003772484138607979,0.19382792711257935,0.1125640720129013,0.36196520924568176,-0.38321325182914734,-0.19667166471481323,0.11445263773202896,-1.2946633100509644,-1.3339217901229858,-1.3820931911468506,0.09980431944131851,0.35161739587783813,0.10511250793933868,0.21561609208583832,0.1717873364686966,0.028738675639033318,0.142429381608963,-0.5241219401359558,0.20474474132061005,-0.1440432369709015,-0.17651347815990448,-0.3587552607059479,0.24341025948524475,0.46844539046287537,0.016162874177098274,0.24994419515132904,-0.2040490061044693,0.21139322221279144,0.21123813092708588,-0.21068820357322693,0.32082444429397583,0.06428715586662292,0.033103328198194504,0.025525474920868874,0.43558400869369507,-0.8230171203613281,0.43356481194496155,0.02782919444143772,-1.2575455904006958,0.03937823325395584,0.14825214445590973,-0.288964182138443,0.024882575497031212,0.12880882620811462,-0.40700358152389526,0.13480591773986816,0.26895445585250854,-0.657142698764801,0.40082722902297974,0.3453681766986847,-0.4192771017551422,0.1887374222278595,0.1692982017993927,-0.02114296518266201,0.006809554994106293,0.07593169808387756,-0.07843487709760666,-0.12261023372411728,-0.06819808483123779,-0.0016765422187745571,-0.1031578779220581,0.37398871779441833,0.25144970417022705,-0.5657750368118286,-0.11570142954587936,0.03420445695519447,-0.7603471875190735,-0.35939404368400574,-0.12898290157318115,-0.39458444714546204,-0.5467075705528259,-0.019926536828279495,0.5141345262527466,-0.1850758194923401,-0.5765848159790039,0.46710577607154846,0.0512610524892807,-0.7997446656227112,0.40581363439559937,-0.31875723600387573,-0.05680475011467934,-0.1730147749185562,0.13186751306056976,-0.11094257235527039,-0.0023900640662759542,-0.013091357424855232,-0.11946039646863937,-0.15262281894683838,-0.1785772293806076,-0.048795778304338455,0.045989617705345154,-0.31398117542266846,0.1026354655623436,0.29491567611694336,-0.23066958785057068,0.1912684291601181,-0.37317249178886414,-0.11477023363113403,-0.2077791839838028,-0.10464789718389511,0.11629374325275421,0.17972004413604736,0.06817424297332764,-0.2724106013774872,0.20977993309497833,0.5565081238746643,-0.20728237926959991,-0.3617347776889801,-0.09297630935907364,-0.1834745705127716,-0.14428135752677917,-0.2975906431674957,-0.14537498354911804,-0.27038562297821045,-0.3092419505119324]},"conv.0.bias":{"shape":[16],"data":[0.1697162687778473,0.03772405907511711,-0.2299479842185974,0.2609180510044098,-0.06520833820104599,0.1973591446876526,-0.08548028767108917,0.15360988676548004,0.04072185233235359,-0.23726625740528107,0.014026420190930367,-0.1162981241941452,-0.18099668622016907,-0.15905733406543732,-0.06546442955732346,0.04059382155537605]},"conv.2.weight":{"shape":[32,16,3,3],"data":[-0.02741290256381035,-0.1112402081489563,-0.09373536705970764,-0.02134762704372406,-0.009780432097613811,-0.03918405994772911,0.03523208200931549,-0.12098035216331482,0.041370563209056854,0.029020994901657104,-0.08322747051715851,-0.08554362505674362,0.020189475268125534,-0.010611223988234997,-0.005457168910652399,-0.13678036630153656,-0.08287472277879715,0.03454767167568207,0.0655873566865921,0.04380938410758972,-0.0026689867954701185,0.04433556646108627,0.0271875262260437,-0.04184485599398613,-0.07954858243465424,-0.0005964749725535512,-8.391340816160664e-05,-0.018598811700940132,-0.06505899131298065,0.02034778520464897,-0.0772724598646164,-0.05931651219725609,0.011152486316859722,-0.07931225001811981,-0.0748615711927414,0.005285203922539949,0.0010873912833631039,-0.17365485429763794,-0.14886733889579773,-0.01994842104613781,-0.06783463805913925,-0.0055062416940927505,-0.0593828447163105,0.03085840865969658,-0.14877061545848846,-0.10732382535934448,0.03224889561533928,-0.05278286337852478,-0.05505761131644249,-0.07789165526628494,-0.06048737093806267,0.06034296378493309,0.06175542250275612,-0.08251893520355225,-0.07958455383777618,-0.12142547219991684,-0.040245067328214645,-0.16779717803001404,-0.0862732082605362,-0.07404434680938721,-0.1465427428483963,0.007624426390975714,0.08376651257276535,-0.04159412533044815,-0.04371139034628868,0.010777044110000134,0.015416307374835014,-0.02422952465713024,0.08174323290586472,0.05763951316475868,-0.012420415878295898,-0.03590606898069382,-0.038826242089271545,-0.11658304929733276,-0.04940126836299896,0.030568767338991165,0.06362606585025787,-0.008859879337251186,-0.010897244326770306,0.037315987050533295,-0.004360349848866463,-0.01714644953608513,0.007899148389697075,0.020913923159241676,0.020091837272047997,-0.04608519375324249,-0.1292334496974945,-0.227157324552536,-0.13916555047035217,-0.08347056806087494,0.03464581072330475,-0.0021134852431714535,0.06871328502893448,-0.032376728951931,-0.0471637062728405,-0.022130897268652916,-0.03654687479138374,-0.022998418658971786,-0.07405444234609604,-0.07211405783891678,0.06631974875926971,-0.12508085370063782,-0.14059090614318848,-0.046257536858320236,0.00249862321652472,-0.07116340100765228,-0.13145379722118378,-0.0916135162115097,-0.09232938289642334,-0.10067666321992874,-0.142470121383667,-0.06982942670583725,-0.037376247346401215,-0.1353076547384262,-0.06134410202503204,-0.13176178932189941,-0.0663551315665245,-0.048959821462631226,0.044934939593076706,-0.022873563691973686,-0.06357409805059433,-0.068030945956707,-0.08903232216835022,0.04761675000190735,0.06708218157291412,-0.09506814181804657,-0.014452437870204449,0.075336754322052,0.02605249546468258,-0.008152203634381294,-0.011971225962042809,-0.04989411681890488,-0.07099658250808716,0.046680521219968796,-0.06665895879268646,0.07914534956216812,0.017434271052479744,0.04504900798201561,0.022288259118795395,-0.06276963651180267,-0.05272259563207626,0.11827670782804489,-0.04684048891067505,0.07399781048297882,-0.4856845736503601,-0.09293412417173386,0.04357551038265228,0.17371681332588196,0.3803947865962982,-0.0489240400493145,0.321833997964859,0.2379780411720276,-0.3358478844165802,0.29052460193634033,-0.00978616438806057,-0.4784720242023468,0.3772658705711365,0.10231363028287888,-0.28417518734931946,0.4753430187702179,0.4803959131240845,0.7228817939758301,-0.006703610997647047,0.06343668699264526,-0.08063122630119324,-0.01797586865723133,0.11764165759086609,-0.023022977635264397,-0.047584597021341324,0.023568574339151382,0.09251176565885544,-0.05618776008486748,-0.20171765983104706,-0.16391527652740479,0.12242497503757477,0.28159356117248535,-0.06215059757232666,0.06542021036148071,0.15146644413471222,0.0077194939367473125,-0.09018334746360779,-0.08507618308067322,0.025954362004995346,-0.028622183948755264,-0.006799210794270039,0.07622871547937393,-0.1240081638097763,-0.09582304209470749,0.1055891215801239,-0.5997208952903748,-0.32287222146987915,-0.6829869151115417,-0.1993536651134491,-0.28202351927757263,-0.5268957614898682,0.27058759331703186,-0.15162838995456696,-0.524815559387207,-0.06913674622774124,-0.22097168862819672,-0.005024646874517202,0.014218336902558804,-0.0385773591697216,-0.143210768699646,0.07299236953258514,0.2554172873497009,0.1295897215604782,0.05571545660495758,-0.10467565059661865,-0.42133447527885437,-0.1736011803150177,0.008953941985964775,-0.06784417480230331,-0.34818392992019653,0.20789748430252075,0.5632121562957764,-0.05357276648283005,-0.16100776195526123,-0.30640825629234314,0.06504122167825699,-0.2952461540699005,-0.4614931046962738,-0.6234618425369263,0.05790572613477707,-0.07679551094770432,0.2604650855064392,-0.06040658801794052,0.019046282395720482,-0.03859288617968559,-0.11432142555713654,-0.20410653948783875,-0.008787108585238457,0.0004961277591064572,-0.02688705548644066,0.2829449772834778,0.06128738448023796,0.2464335560798645,-0.3828197717666626,-0.3923436999320984,-0.411518394947052,-0.06342300027608871,0.1294587254524231,-0.28433385491371155,-0.13994264602661133,0.04612790048122406,0.10227308422327042,-0.32021966576576233,-0.02210439182817936,-0.1684994101524353,-0.06549445539712906,0.07510798424482346,-0.053546540439128876,0.10726366937160492,0.3571073114871979,-0.08386167138814926,0.28503987193107605,0.15854963660240173,-0.20910347998142242,-0.2721359133720398,-0.4292282462120056,-0.35109272599220276,0.4637191891670227,0.9992328882217407,0.8901413679122925,0.32913073897361755,0.5777345895767212,0.3614134192466736,0.7476937174797058,0.45086804032325745,0.5306981801986694,-0.5334223508834839,-0.0996101051568985,0.397136926651001,-0.45300358533859253,-0.5161267518997192,-0.02625010535120964,0.003104829927906394,0.20426297187805176,-0.48451751470565796,0.07803987711668015,0.06631659716367722,0.4014405608177185,-0.35137730836868286,-0.22357425093650818,0.2725779414176941,-0.16526734828948975,0.13960272073745728,-0.009176308289170265,-0.09470030665397644,-0.41788047552108765,-0.21538612246513367,-0.07233615219593048,0.21971562504768372,-0.21749435365200043,-0.24983681738376617,0.03181341290473938,-0.4219109117984772,-0.17932339012622833,-0.21833835542201996,-0.7733160853385925,0.2973725497722626,0.35176143050193787,0.09246791899204254,0.10728859901428223,0.5122107267379761,0.6123138666152954,0.0659356489777565,0.06729856878519058,0.05287102609872818,-0.04393986985087395,0.02730163000524044,0.0045427787117660046,0.015000605024397373,-0.013656508177518845,-0.04016970843076706,-0.803388237953186,-0.1746044158935547,0.013104856014251709,-0.40659499168395996,0.12764832377433777,-0.3075590133666992,-0.0704103633761406,-0.8012878894805908,-0.8822256922721863,0.25294992327690125,0.15812769532203674,0.05061253532767296,-0.09378919005393982,-0.07249359041452408,0.04461576044559479,-0.2563304901123047,-0.04180479049682617,0.15029844641685486,0.08040681481361389,0.3805672526359558,-0.36004987359046936,-0.8619055151939392,-0.34629687666893005,-0.4691353440284729,-0.7874350547790527,-0.24277815222740173,-0.055994875729084015,0.10109663754701614,-0.2515678405761719,-0.03127569705247879,0.06997018307447433,0.036897022277116776,-0.25762805342674255,0.19028203189373016,-0.10477112978696823,0.4056304693222046,0.23871299624443054,-0.009653459303081036,-0.4318130314350128,0.023856133222579956,-0.06510638445615768,-0.1763381063938141,-0.15343008935451508,0.1861252337694168,0.010968043468892574,-0.06841625273227692,-0.387849897146225,0.07313480973243713,0.2839706242084503,-0.448544979095459,-0.35973498225212097,-0.25416624546051025,-0.1313209980726242,0.2569434642791748,-0.12859198451042175,-0.025891244411468506,0.06328635662794113,-0.01869761385023594,0.07535897195339203,-0.07908402383327484,0.03327949345111847,0.018869612365961075,-0.2779256999492645,0.1903749406337738,-0.12726055085659027,0.0927932858467102,-0.11985187977552414,-0.4239504039287567,-0.5106009244918823,-0.02838904969394207,0.15833665430545807,-0.20104271173477173,0.2548295855522156,0.31316372752189636,-0.3015322983264923,-0.12725313007831573,0.2609928846359253,-0.2772067189216614,-0.2536700367927551,-0.05405247583985329,-0.14566203951835632,0.29444950819015503,0.10852720588445663,-0.19247977435588837,0.15319094061851501,-0.8843487501144409,-1.061148762702942,-0.3100633919239044,-0.031070267781615257,-0.1749369353055954,0.30214637517929077,0.7846738696098328,0.4445066452026367,0.761762261390686,0.8363258242607117,0.41543927788734436,0.7827589511871338,0.5801588296890259,0.45899656414985657,-0.3420100808143616,-0.474394828081131,0.16369721293449402,-0.3617134690284729,-0.6892815232276917,0.14810559153556824,-0.3138265013694763,0.3542936444282532,-0.39247092604637146,0.16599991917610168,-0.4231886565685272,0.11315467953681946,-0.19792874157428741,-0.12818989157676697,-0.29253825545310974,-0.031340982764959335,-0.18826083838939667,-0.05166206136345863,0.27587443590164185,0.6147338151931763,-0.02840118668973446,-0.24623535573482513,0.42099854350090027,-0.09801997989416122,-0.8199974894523621,-0.6973922252655029,-0.20417065918445587,-0.2600756883621216,-0.024003159254789352,0.030771663412451744,-0.31748294830322266,0.2024478018283844,0.41158929467201233,-0.011154438368976116,0.37509432435035706,0.685238242149353,-0.03846244886517525,-0.008271429687738419,-0.028913846239447594,-0.056100033223629,0.04494743421673775,-0.028276115655899048,0.06713306903839111,0.030102364718914032,0.042174600064754486,-1.25702702999115,0.3809187114238739,0.5524537563323975,-0.6197417378425598,-0.00974219385534525,0.06690409034490585,-0.48319360613822937,-0.5326206088066101,-0.19571323692798615,0.2587236166000366,0.24951428174972534,-0.08320378512144089,-0.06455175578594208,0.2168041616678238,0.17880208790302277,-0.6381018161773682,-0.28071531653404236,0.3670920431613922,-0.0385880284011364,0.18238793313503265,0.22381123900413513,-0.25321412086486816,0.14459507167339325,0.04078004136681557,-0.5559086203575134,-0.36286088824272156,-0.8793736696243286,-0.145755797624588,0.17390239238739014,-0.015238714404404163,-0.11239595711231232,-0.4316592216491699,0.018086902797222137,-0.18316178023815155,0.14609692990779877,0.15760497748851776,-0.010383365675807,-0.31525471806526184,-0.22542539238929749,-0.2661706507205963,-0.7188249230384827,-0.4228425621986389,0.011230564676225185,0.09594673663377762,-0.06848645210266113,0.08775743842124939,-0.1675141602754593,-0.40271294116973877,-0.5608455538749695,-0.27238330245018005,0.013724594376981258,-0.5243282318115234,-0.17115843296051025,0.1751132309436798,-0.3316234350204468,-0.23098556697368622,0.01453772746026516,-0.4845462739467621,-0.36265507340431213,0.0029173847287893295,-0.2040194869041443,0.07628664374351501,-0.04679570719599724,-0.6677607893943787,0.2127089649438858,0.3253108263015747,-0.5991539359092712,-0.4139576256275177,0.2420554757118225,-0.7393245697021484,0.16967160999774933,0.10752307623624802,0.1305973082780838,-0.4007290303707123,-0.0716935247182846,0.4064887464046478,0.3168185353279114,-0.14321765303611755,0.14637252688407898,0.3153473436832428,-0.36143481731414795,0.09561242163181305,-0.032467909157276154,-0.1633581966161728,-0.09539918601512909,-0.04283398762345314,0.10754050314426422,-0.5163899064064026,-0.00944165512919426,-0.1316046565771103,-0.24262911081314087,0.7278176546096802,0.6892284750938416,0.20583170652389526,0.6680095791816711,0.648400604724884,0.682884693145752,0.4359253942966461,-0.01582471653819084,-0.16707628965377808,0.27596667408943176,0.18209119141101837,-0.3634229302406311,-0.06251149624586105,0.32027390599250793,0.35211285948753357,-0.6342294216156006,0.011770913377404213,-0.10383793711662292,-0.2274259328842163,-0.07562298327684402,-0.07129039615392685,-0.2177303284406662,-0.15952879190444946,-0.10244148969650269,-0.33259105682373047,0.458787739276886,0.0384315624833107,0.020484071224927902,-0.02263314090669155,0.2695768177509308,-0.9671433568000793,0.11981245130300522,-0.614509105682373,0.012095498852431774,0.1955655962228775,0.1222965195775032,0.0800631046295166,-0.03284643590450287,0.19538356363773346,-0.2901439666748047,0.34470000863075256,0.025615643709897995,-0.05034670606255531,0.15938210487365723,-0.034435171633958817,0.035781677812337875,0.08654512465000153,0.03760863468050957,-0.014952224679291248,0.052237533032894135,-0.0027849203906953335,-0.0015081107849255204,0.015151269733905792,-0.4970214366912842,-0.21875779330730438,-0.5497177243232727,0.42093005776405334,-0.9387761354446411,-0.8358963131904602,0.22255082428455353,0.5628921389579773,-0.7330275177955627,-0.1496790051460266,0.21473804116249084,-0.13551707565784454,0.14142389595508575,-0.2346043586730957,0.2216203361749649,-0.08658568561077118,-0.11616203933954239,0.4335794448852539,0.1768941879272461,0.20322051644325256,0.09298180043697357,-0.022619256749749184,0.7515268921852112,-0.41739240288734436,-0.22357378900051117,-1.028139591217041,0.021384235471487045,0.19201022386550903,0.0750361904501915,-0.1078820675611496,-0.031245222315192223,-0.042708948254585266,-0.33608320355415344,0.04896126687526703,-0.2914023697376251,-0.026617256924510002,-0.011180100962519646,-0.1154731959104538,-0.22710618376731873,-0.2980409860610962,0.030637195333838463,-0.05729742720723152,0.15432032942771912,-0.5838456153869629,-0.22485581040382385,-0.3355799913406372,-0.5433936715126038,-0.13161776959896088,-0.5569655895233154,-1.3749581575393677,0.21247464418411255,0.22509729862213135,-0.13591034710407257,-0.16778191924095154,-0.13465896248817444,-0.0741741880774498,-0.009086926467716694,-0.250173956155777,-0.1968287080526352,0.05258569121360779,0.03767525032162666,-0.07347145676612854,-0.0063921008259058,-0.08760154992341995,0.1900230050086975,0.2027243822813034,0.041468020528554916,-0.015369596891105175,0.2308262437582016,-0.34982535243034363,-0.029300084337592125,-0.13926641643047333,0.16751277446746826,0.23641522228717804,0.07343537360429764,-0.16096949577331543,0.3422432541847229,-0.14481288194656372,0.32549941539764404,0.02357492968440056,0.052425384521484375,0.179786816239357,-0.21312616765499115,0.027388261631131172,0.15053890645503998,0.1985578089952469,-0.047131311148405075,-0.37230798602104187,-0.13132381439208984,-0.11324512958526611,0.9005913138389587,0.724697470664978,0.881077766418457,-0.02284785360097885,0.1505219042301178,0.3291478753089905,-0.1260642558336258,0.04221156984567642,0.6354191303253174,0.4986918270587921,0.22299443185329437,-0.266250342130661,0.3131096661090851,0.13585959374904633,-0.06615111231803894,0.0751335620880127,0.26227596402168274,0.1527683138847351,-0.1810053288936615,0.11967942863702774,-0.18766626715660095,-0.23756290972232819,-0.025416096672415733,0.11847159266471863,0.16284264624118805,-0.12116310745477676,0.15724579989910126,0.358285516500473,0.5850736498832703,-0.9385125041007996,0.1678210198879242,-0.02354048751294613,-0.14003710448741913,0.09972167760133743,-0.8963397145271301,-0.3782157599925995,-0.1437477022409439,0.1545417159795761,0.30824410915374756,-0.33297690749168396,-0.3228943347930908,-0.06168857961893082,-0.32945412397384644,-1.0973271131515503,0.19919249415397644,-0.06301295012235641,0.05045405402779579,-0.05873948708176613,-0.06546060740947723,0.051622625440359116,0.006664269603788853,-0.03179945796728134,0.06445036083459854,0.05070289596915245,-1.6162532567977905,0.30361345410346985,-0.12120814621448517,-0.9051022529602051,0.15509216487407684,-0.4883437752723694,0.08195401728153229,0.3196696639060974,-0.485857218503952,0.31044936180114746,-0.12347517162561417,-0.11057478189468384,-0.6002441644668579,-0.007026640698313713,-0.3630439043045044,-0.25080209970474243,0.24230700731277466,-0.10842137783765793,0.15728510916233063,-0.038095708936452866,0.3208862841129303,0.050829965621232986,-0.23360967636108398,-0.13717307150363922,0.006350332871079445,0.5065581202507019,-0.7956625819206238,0.20041432976722717,0.04370294511318207,-0.04440777376294136,-0.30123353004455566,0.17884008586406708,0.3772414028644562,-0.0864555612206459,0.10927360504865646,0.09367039799690247,-0.2938057482242584,-0.3514404296875,0.34201252460479736,0.08012601733207703,-0.002247628988698125,0.4114226996898651,0.2654505968093872,0.22027160227298737,-0.16436685621738434,-0.28175613284111023,-0.8169991970062256,-0.2771153151988983,0.02812579646706581,0.11402573436498642,0.2234901487827301,-0.6949551105499268,0.8055524826049805,0.2541187107563019,0.04393536597490311,0.0930158942937851,0.06371153146028519,-0.3155546188354492,-0.07596273720264435,0.02460426092147827,-0.1338987797498703,-0.08261969685554504,-0.20096051692962646,-0.3229534327983856,-0.5401740074157715,-0.2338264137506485,0.022626424208283424,0.37975430488586426,0.4144422113895416,-0.26968058943748474,-0.6240814328193665,0.09012079238891602,-0.23077335953712463,-0.4343656897544861,0.2059728354215622,0.45127058029174805,0.334190309047699,-0.14103396236896515,0.17034104466438293,0.19663222134113312,-0.14075705409049988,0.025521792471408844,0.16367614269256592,0.30195289850234985,-0.8409532904624939,-1.4821609258651733,-0.47205930948257446,-0.7184335589408875,-0.2496822327375412,-0.9178197383880615,-0.15319985151290894,-1.162150502204895,-0.869164228439331,0.030831167474389076,-0.025815356522798538,-0.48118388652801514,-0.228253573179245,-1.6766483783721924,-1.2360211610794067,0.28776615858078003,-0.10511546581983566,0.40976473689079285,-0.03840617090463638,0.08747811615467072,-0.11608437448740005,-0.06153806671500206,0.2268250286579132,0.06971898674964905,-0.15691299736499786,-0.18224328756332397,-0.11760196834802628,0.3358248770236969,0.49174249172210693,0.38005051016807556,0.0787980854511261,-0.049125105142593384,0.04697777330875397,0.028714396059513092,0.2003045529127121,0.060270294547080994,0.10627394169569016,0.17069846391677856,0.25659263134002686,-0.7585566639900208,-0.636053204536438,-0.13485586643218994,0.1565316766500473,0.05245267599821091,0.25950372219085693,0.24026736617088318,0.2344801127910614,0.15149244666099548,-0.6829230189323425,-1.015089750289917,-1.2892284393310547,-0.02890280820429325,-0.01984502747654915,0.07163792848587036,-0.013495228253304958,0.04490795359015465,0.0018454756354913116,0.009953068569302559,0.025120627135038376,-0.034078240394592285,0.3235136568546295,0.49909839034080505,0.45982861518859863,-0.28507521748542786,-0.3610089421272278,0.0934767797589302,-1.0418899059295654,-1.1468416452407837,-0.571253776550293,0.14510276913642883,0.02071162313222885,-0.14596456289291382,-0.6355164051055908,-0.42066454887390137,-0.06704053282737732,-0.12449131160974503,0.18844914436340332,-0.16091474890708923,0.060872819274663925,-0.12822666764259338,-0.1294330656528473,0.28001102805137634,0.29936668276786804,0.2278916835784912,-0.3952990770339966,-0.4114125669002533,-0.08771328628063202,0.04210970178246498,-0.03672202676534653,-0.07792236655950546,-0.38030076026916504,-0.07562316209077835,0.4427488446235657,-0.36867958307266235,-0.47303515672683716,0.13336609303951263,0.15063780546188354,0.21349884569644928,-0.16659919917583466,-0.07118396461009979,0.11168791353702545,0.09952490776777267,0.12371530383825302,0.0324992761015892,-0.1776774823665619,0.19183363020420074,0.09293366223573685,0.20816849172115326,0.18411897122859955,0.1750093549489975,0.18206168711185455,-0.06310416758060455,0.03451060131192207,-0.15976254642009735,-0.26781535148620605,-0.03668717294931412,-0.06226538121700287,-0.0324290506541729,-0.44353124499320984,-0.042467545717954636,0.0003153638099320233,-0.14868466556072235,-0.2793654799461365,0.1639467477798462,-0.07807864993810654,-0.18630294501781464,-0.12291546165943146,0.042346399277448654,-0.15169166028499603,-0.14412705600261688,-0.38016024231910706,0.09159757196903229,0.14676959812641144,0.28619062900543213,0.27350088953971863,-0.18414677679538727,-0.13821884989738464,0.058426473289728165,0.1072765588760376,0.08229488134384155,-0.06255458295345306,-0.20044206082820892,-0.3841361999511719,-0.4907490015029907,-0.07295240461826324,-0.23687805235385895,-0.13891451060771942,0.3577762246131897,0.21075500547885895,0.27494463324546814,0.655144989490509,-0.391979843378067,0.02507287822663784,1.032029151916504,0.4207350015640259,0.4276616871356964,0.4528888165950775,-0.08778291195631027,0.3301311135292053,0.7633674740791321,0.10695748031139374,0.7588112354278564,0.34033501148223877,-0.16701921820640564,0.676079511642456,-0.17620263993740082,0.1339828222990036,0.002637105528265238,-0.3476022183895111,-0.2247462272644043,0.0062930467538535595,-0.25461557507514954,-0.24827800691127777,0.1788320392370224,-0.08476612716913223,-0.40967607498168945,-0.09399740397930145,-0.03119002841413021,-0.005800485610961914,-0.008092072792351246,-0.03281593695282936,0.0015845992602407932,-0.013977380469441414,-0.0428243950009346,-0.015199651941657066,0.015819821506738663,-0.09227417409420013,-0.06479842215776443,-0.004940823186188936,-0.024882128462195396,-0.0659036710858345,-0.0411519892513752,0.058127857744693756,-0.019782694056630135,0.021554749459028244,0.00036252851714380085,0.038454752415418625,-0.019137460738420486,0.010998329147696495,0.04019872471690178,-0.02995368465781212,-0.0724116787314415,-0.021851103752851486,0.0004283611197024584,0.08495470136404037,-0.07317604124546051,-0.09884454309940338,-0.04388468712568283,-0.041132617741823196,-0.06591916084289551,-0.03580961748957634,0.02009621448814869,-0.06170499697327614,-0.06605980545282364,-0.021260231733322144,-0.003708562580868602,0.019682755693793297,-0.06713997572660446,0.03226563334465027,-0.06340084969997406,0.017992056906223297,-0.0007734352257102728,0.028411278501152992,0.031022783368825912,-0.011375118046998978,-0.027504272758960724,-0.033886559307575226,-0.08926249295473099,0.04191460832953453,0.03667313978075981,-0.03421632573008537,-0.0166780948638916,-0.04070969298481941,-0.002976034302264452,0.0377180390059948,-0.04576610401272774,-0.07171491533517838,-0.08051245659589767,-0.09817127883434296,0.02267102524638176,0.02730408124625683,-0.06341743469238281,-0.10008364170789719,-0.001167710986919701,-0.03766637295484543,0.006493156310170889,-0.044353071600198746,0.004652788862586021,0.0004696957184933126,-0.05671257898211479,0.03847125545144081,-0.018363462761044502,-0.02077632024884224,-0.004814594984054565,-0.07022533565759659,0.04049450531601906,-0.021022649481892586,-0.02228723280131817,-0.07654199004173279,-0.06229975074529648,-0.018291432410478592,0.052540503442287445,0.027613161131739616,-0.039028603583574295,0.013688264414668083,0.007707447279244661,0.02431562729179859,-0.0452796146273613,-0.00303696864284575,-0.07424809038639069,-0.08197283744812012,-0.002457384718582034,-0.03752477839589119,-0.006867545191198587,-0.0837385356426239,0.008117937482893467,-0.08802422881126404,0.02142706699669361,-0.0331745371222496,-0.06691725552082062,-0.06311500817537308,0.010548325255513191,0.06188023090362549,-0.08999166637659073,-0.0924903154373169,-0.07624007761478424,-0.017869621515274048,-0.0407964289188385,-0.0335080660879612,-0.021386124193668365,-0.013338026590645313,-0.07605103403329849,-0.09791870415210724,-0.03588106855750084,0.04965369775891304,-0.09615255147218704,0.007047991268336773,-0.0017058318480849266,-0.015459062531590462,-0.10122852772474289,0.05970757082104683,0.05638866126537323,-0.05934082716703415,-0.005048469174653292,-0.05868896096944809,0.03970149904489517,-0.023354636505246162,-0.09452584385871887,-0.0968141257762909,-0.04597070813179016,-0.018330125138163567,-0.08346296846866608,-0.11252707988023758,-0.09315364807844162,-0.09266649186611176,0.0070438077673316,-0.029017912223935127,-0.007843364030122757,0.041678398847579956,0.004930578172206879,-0.01768035627901554,0.5624914169311523,-0.006179888267070055,-0.31184259057044983,-0.7066734433174133,0.17408330738544464,-0.3098657429218292,0.0580807626247406,-0.24666593968868256,-0.4923964738845825,-0.11760880798101425,-0.08514895290136337,0.024230534210801125,0.1912943720817566,0.2106183022260666,-0.047349199652671814,0.5127394199371338,-0.050236776471138,-0.5390155911445618,0.015628088265657425,0.061112094670534134,0.011994421482086182,-0.06151285767555237,-0.06625624001026154,-0.05541636794805527,-0.020917614921927452,-0.02147231251001358,-0.0975312739610672,-0.33528679609298706,-0.5898053050041199,-2.2086620330810547,-0.2607313394546509,0.00021531636593863368,0.13701121509075165,-0.5872113108634949,-0.16512908041477203,-0.629656970500946,-0.21196186542510986,-0.7513139247894287,-0.2898728549480438,0.13338176906108856,0.027843087911605835,0.12017594277858734,-0.026718515902757645,0.05941731110215187,0.2866688668727875,0.42869848012924194,0.3703772723674774,0.20271635055541992,-0.18857312202453613,-0.07471857964992523,-0.38641566038131714,-0.3712555766105652,-0.6118034720420837,-0.843825101852417,0.13571345806121826,0.08633242547512054,0.06989911198616028,-0.1499251276254654,-0.38374343514442444,0.05080438405275345,-0.16812044382095337,0.3976719081401825,0.3057536482810974,0.03991131857037544,-0.5426194667816162,0.08160728961229324,-0.6857687830924988,-0.17177839577198029,0.1163020208477974,-0.5773745179176331,0.1541074514389038,-0.17533767223358154,0.2768426835536957,-0.032782938331365585,-0.052330438047647476,0.3983575403690338,0.0505734458565712,0.2158869057893753,-0.8797729015350342,0.12187886983156204,0.316803902387619,-1.2553969621658325,-0.10413665324449539,0.2116221934556961,-0.32043778896331787,-0.0321575328707695,-0.0641438290476799,-0.07857518643140793,0.06496600806713104,-0.03540504723787308,0.012299292720854282,-0.05458857864141464,0.05140712857246399,0.5806291103363037,-0.43787050247192383,-0.35596293210983276,0.3628382384777069,-0.17076219618320465,-0.13823121786117554,-0.47070661187171936,0.01307704858481884,-0.12153192609548569,0.054430972784757614,0.004270785488188267,0.0629420056939125,0.07413464039564133,-0.03718692064285278,8.716160664334893e-05,0.07714135199785233,-0.29706960916519165,-0.0786065012216568,0.2529953718185425,-0.03242851048707962,-0.11935068666934967,-1.26717209815979,-1.512323021888733,0.3487979769706726,0.1737978309392929,-0.22345584630966187,0.056819166988134384,0.4366201162338257,0.16289816796779633,0.2589549422264099,0.7800567746162415,0.5644049644470215,-0.12948034703731537,-0.31212735176086426,0.1077556386590004,-0.6583335995674133,0.17725491523742676,0.00787300430238247,0.24804744124412537,-0.3341197073459625,-0.2550981044769287,-0.026341654360294342,0.45587337017059326,-0.4966032803058624,0.20083585381507874,0.6668863296508789,-0.5194352269172668,-0.45036450028419495,-0.09232822805643082,-0.16069479286670685,-0.20828081667423248,-0.1328585147857666,0.43229272961616516,-0.8085160255432129,-0.07130327820777893,0.6166204810142517,-0.9926649332046509,0.25067567825317383,0.2911405563354492,-1.8408187627792358,-0.11767648160457611,0.15338173508644104,0.09162432700395584,-0.1856047809123993,0.4012496769428253,0.339962899684906,0.5981436371803284,-0.46909841895103455,-0.25279077887535095,-0.06976945698261261,0.02637544274330139,-0.04096309468150139,-0.04901773855090141,0.022783469408750534,0.045223310589790344,0.07352106273174286,-0.05539357662200928,-0.03775549679994583,0.03786959871649742,-0.5900048017501831,0.1950533241033554,-1.1650680303573608,-0.3558364808559418,0.8348296880722046,-0.7401793003082275,-0.013762741349637508,0.48456260561943054,0.32136550545692444,0.42828524112701416,-0.509544849395752,0.20569242537021637,-0.0332171693444252,-0.5506029725074768,-0.46732422709465027,-0.17891578376293182,0.25901108980178833,0.06788704544305801,-0.10215836018323898,-0.03798045217990875,0.05191268399357796,0.02506796270608902,-0.008814224973320961,0.16419276595115662,0.08367843925952911,-0.03601023927330971,-0.38997581601142883,0.23577646911144257,-0.6077516674995422,-0.13663801550865173,0.09260155260562897,-0.29058462381362915,-0.015825120732188225,-0.3038369119167328,-1.3116034269332886,-0.02012808993458748,-0.5258541703224182,0.1879805624485016,0.06859156489372253,-0.16182184219360352,-0.03839871659874916,-0.10391685366630554,0.5481900572776794,-0.6596711874008179,0.05262529104948044,0.02143966779112816,-0.09361512213945389,0.4048731327056885,-0.744547426700592,0.2741492986679077,-0.006872957572340965,-0.26753732562065125,0.6592473983764648,-0.07088389992713928,0.18609607219696045,0.03814970701932907,-0.9666503667831421,-0.1304904669523239,-0.05413302779197693,-0.39087432622909546,0.2989870309829712,-0.12304509431123734,-0.11837562173604965,0.17273759841918945,-0.5022053122520447,-0.3237697184085846,-0.6950918436050415,-1.4318528175354004,0.2705427408218384,0.06009739264845848,0.11055305600166321,-0.2741096019744873,-0.8226695656776428,0.6135072112083435,-0.1805988997220993,-0.27825653553009033,0.3537345826625824,0.11756936460733414,0.5405829548835754,-1.0764930248260498,0.21070420742034912,-0.23529598116874695,0.09993430227041245,0.4731390178203583,-0.5142567157745361,-0.5440934300422668,-0.4755677878856659,0.400717169046402,-0.697594404220581,-0.07446905225515366,-0.0803823247551918,-0.9376940131187439,-0.019629942253232002,-0.12136098742485046,-0.9202863574028015,0.40280240774154663,-0.6541886925697327,-0.5210615396499634,0.19854967296123505,0.8307273983955383,-0.6686437129974365,0.5834662318229675,-0.33798834681510925,-0.25373759865760803,-0.11164260655641556,-0.16785764694213867,-0.532814085483551,0.3119604289531708,-0.5487478971481323,0.5642104744911194,0.3352828025817871,-0.15398584306240082,0.24224290251731873,1.3916475772857666,-1.0628209114074707,-0.045243095606565475,-0.7115411162376404,-0.18612422049045563,-0.5935677289962769,-0.2607961893081665,0.2626563608646393,-0.20755141973495483,-0.276749849319458,0.5584462881088257,0.24227970838546753,0.010900260880589485,-0.005210033617913723,-0.47849175333976746,0.06332668662071228,0.27565932273864746,0.17463435232639313,-0.15880373120307922,0.27807462215423584,0.4857647716999054,0.07250373065471649,0.06951267272233963,-0.00016116941696964204,0.04777391254901886,-0.05584494024515152,-0.0010132077150046825,0.08356691896915436,0.03977825120091438,0.017565010115504265,-0.46571722626686096,-0.007531576789915562,0.027202825993299484,-0.590387225151062,-0.29604747891426086,-0.044375501573085785,0.22020022571086884,-0.02358909510076046,0.3981293737888336,-0.14103947579860687,0.11850453913211823,0.3896028399467468,-0.02540680207312107,-0.014751814305782318,-0.31258687376976013,-0.44732362031936646,-0.10325828939676285,-0.21038667857646942,-0.4260445237159729,-0.23280583322048187,-0.4136779308319092,-1.0138607025146484,-0.27271467447280884,-0.6184059977531433,-0.720554530620575,-0.6960781216621399,-0.5616759657859802,-0.18735262751579285,-0.2357061505317688,-0.026387404650449753,-0.03971583768725395,-0.2086208313703537,-0.29854533076286316,0.1402592808008194,-0.1810719072818756,0.056365031749010086,0.162014901638031,-0.07668548822402954,-0.30002209544181824,-0.1817420870065689,-0.26114341616630554,-0.12339217215776443,0.030981143936514854,-0.34573739767074585,0.3196641504764557,-0.29114219546318054,-0.35416340827941895,0.054285597056150436,0.3168368339538574,-0.4317992329597473,-0.8427790403366089,-0.7708861827850342,0.27402225136756897,-0.7715973258018494,-0.019946318119764328,0.12673425674438477,-0.08332619071006775,0.09421554207801819,0.11816637217998505,-0.1344064623117447,-0.12343809008598328,0.05472172051668167,0.001915034488774836,0.1956724226474762,-0.031243378296494484,-0.4098966717720032,-0.12489605695009232,0.04087633267045021,0.02065005525946617,0.17404714226722717,-0.17335110902786255,-0.11495520919561386,0.17691588401794434,0.15037855505943298,0.12136931717395782,-2.163316821679473e-05,-0.040060143917798996,0.1728251576423645,-0.22622057795524597,0.00421250332146883,0.20424465835094452,0.32102662324905396,0.3758389353752136,0.17197461426258087,-0.1269388645887375,0.42070621252059937,-0.10940579324960709,-0.03865395113825798,-0.15864978730678558,-0.3418136239051819,0.5218729972839355,0.793256938457489,0.20788565278053284,0.5716353058815002,0.5925270318984985,0.7651873826980591,1.1245681047439575,0.5295882225036621,0.3974224925041199,-0.07164053618907928,-0.3216027617454529,-0.08668121695518494,-0.29324936866760254,-0.628395140171051,0.3221080005168915,0.2279113531112671,0.7558885216712952,-0.23842979967594147,0.2096537947654724,-0.027958517894148827,0.08609921485185623,0.048922643065452576,0.31800150871276855,-0.19092364609241486,0.10844791680574417,0.3349607288837433,0.25097596645355225,-0.39437445998191833,0.46863800287246704,0.1931864470243454,-0.27553117275238037,0.29914993047714233,-0.15965454280376434,-0.46388161182403564,-0.01659472845494747,-0.3776604235172272,-1.6466630697250366,0.5950813293457031,-1.414731502532959,-1.199255347251892,0.017478816211223602,-0.8170304298400879,-0.040157727897167206,-0.13077883422374725,-0.8047295212745667,0.015017538331449032,-0.04569367691874504,-0.028063980862498283,-0.03253162279725075,-0.022922374308109283,0.03965618088841438,0.07091652601957321,0.05494000017642975,-0.010500593110918999,0.5746742486953735,0.6580303311347961,0.12264079600572586,-0.03281501308083534,0.00760300038382411,0.02137308567762375,-0.31925782561302185,0.12460993230342865,-1.10651433467865,0.5654468536376953,0.14238031208515167,-0.012213900685310364,-0.5079830288887024,0.15904048085212708,-0.09616150707006454,-1.0857783555984497,0.2830783724784851,-0.07515139877796173,-0.13553158938884735,-0.07789263874292374,-0.0773530900478363,-0.9017963409423828,-0.12824833393096924,0.0906306654214859,-0.6419222950935364,-0.5524925589561462,-0.27934107184410095,-0.29889100790023804,0.10705062001943588,0.4002254009246826,0.0906306579709053,-0.13244444131851196,-0.08388205617666245,-0.1750955581665039,-0.012100213207304478,-0.3009839951992035,0.19555294513702393,-0.6494236588478088,0.14995168149471283,-0.321920245885849,-0.07521753013134003,-0.0062277112156152725,0.15866310894489288,0.30711492896080017,0.07568434625864029,-0.035137102007865906,-0.34691691398620605,-0.3779153525829315,-0.37932154536247253,-0.3913648724555969,-0.045033108443021774,-0.09863527864217758,0.12846782803535461,-0.019254062324762344,-0.25113800168037415,0.02631046064198017,-0.06754684448242188,-0.1883600354194641,0.22125039994716644,-0.3814007639884949,-0.06172432377934456,0.06075270473957062,-0.3159485459327698,0.12774229049682617,0.19836165010929108,0.027462830767035484,0.03963784500956535,0.1573399156332016,-0.30780482292175293,0.19056881964206696,0.2994813621044159,-0.18244296312332153,0.06270990520715714,-0.6863257884979248,0.4220552444458008,0.09208151698112488,-0.22814612090587616,-0.8063485026359558,0.26896190643310547,0.26971209049224854,-0.14042486250400543,0.551236629486084,-0.4977121651172638,0.06819194555282593,-0.34604841470718384,-0.6772541999816895,-0.653022289276123,0.1475123018026352,-0.045823343098163605,-0.35772961378097534,-0.4598349928855896,0.6499585509300232,-0.3220745921134949,-0.8598470091819763,0.07305891811847687,0.15887387096881866,-0.8348637819290161,-0.6397160887718201,0.2679312825202942,0.34654492139816284,0.04646255820989609,-0.4638027548789978,-0.4190107583999634,-0.010395599529147148,0.34361669421195984,-0.11927186697721481,-0.06282419711351395,-0.3854641318321228,0.20323021709918976,0.1907973438501358,-0.11477033793926239,-0.18022096157073975,0.1839457005262375,-0.329993337392807,-0.3300746977329254,0.5760941505432129,-0.027977237477898598,0.5604382753372192,-0.6288176774978638,-0.02622484788298607,0.3127465546131134,-0.5968706011772156,-0.08869265764951706,-0.1438017636537552,-0.9775094389915466,0.08275561034679413,0.2184177190065384,0.2502578794956207,-0.07025685161352158,-0.03697141632437706,0.1679237335920334,-0.29927757382392883,-0.6754284501075745,-0.6966525912284851,-0.08855245262384415,-0.02714598923921585,-0.058367934077978134,-0.05289137735962868,0.035092197358608246,-0.0280293058604002,-0.010213145986199379,-0.0738224983215332,0.03191625699400902,0.03265483304858208,-1.6502870321273804,0.893738329410553,-1.098204255104065,-0.30296778678894043,-0.6175076365470886,-0.766864538192749,0.6501985192298889,0.18412746489048004,-0.48215484619140625,-0.7958655953407288,0.09992878139019012,0.0907946452498436,-0.23059263825416565,0.23528452217578888,0.17345751821994781,-0.1702452450990677,0.15568938851356506,-0.06297994405031204,0.45888301730155945,0.2986612617969513,0.1565002202987671,-0.14988909661769867,0.08781875669956207,-0.16518093645572662,-1.8238139152526855,-0.9949153065681458,-0.236626997590065,0.16195863485336304,-0.03977100923657417,0.0814681127667427,0.04293933883309364,-0.10389246791601181,0.20705829560756683,-0.030803745612502098,-0.3974803388118744,0.09143701940774918,-0.225626602768898,0.10418781638145447,0.29022878408432007,-0.5998839139938354,-0.28087684512138367,0.3639955222606659,0.23168238997459412,-1.1621936559677124,-0.3859608769416809,-1.07884681224823,0.5431479811668396,-0.08214499056339264,-0.4851592779159546,0.48921099305152893,-0.06580705940723419,-0.025495313107967377,0.12372101098299026,-0.5369883179664612,-0.03421539068222046,0.08618766814470291,0.1165863573551178,0.06216384470462799,0.017115671187639236,0.0886915922164917,0.08704078197479248,-0.042187586426734924,0.01521751843392849,-0.2593250274658203,-0.5348967909812927,-0.15623906254768372,0.14676415920257568,-0.6665858030319214,-0.4771934449672699,-0.1898648589849472,0.3527921736240387,0.04269973933696747,-0.1285599023103714,-0.061091210693120956,0.10823904722929001,0.3286004960536957,-0.05157572776079178,0.25516432523727417,0.17448340356349945,-0.1815008521080017,-0.0828910693526268,-0.4063428044319153,-0.5307847261428833,-0.15732142329216003,-0.7736350297927856,-0.29349657893180847,0.2779756784439087,-0.5908178687095642,-0.01724470593035221,-0.1548217386007309,-0.886267900466919,-1.742292881011963,0.10686566680669785,-0.14816914498806,-0.9067667126655579,0.2210073620080948,0.4594644606113434,-0.8392892479896545,0.6038459539413452,-0.22732332348823547,-0.28542008996009827,-0.7798227071762085,-0.3776492178440094,-0.7797079682350159,0.30734488368034363,-0.3855023682117462,-0.25199759006500244,0.09479133784770966,-0.17023149132728577,-0.26051953434944153,0.5116615891456604,-0.564424455165863,-0.2363971620798111,-0.22445917129516602,-0.398954838514328,-0.354647159576416,0.01613653637468815,-0.11478005349636078,-0.15862363576889038,0.03832506760954857,-0.12798990309238434,-0.046983152627944946,-0.03615538775920868,-0.16802042722702026,-0.14692911505699158,0.014299020171165466,0.011356663890182972,-0.03044348768889904,0.01168044749647379,-0.009343423880636692,-0.04391638562083244,-0.004500157665461302,-0.17866581678390503,-0.031150756403803825,-0.08379045873880386,-0.0007128366851247847,-0.058337800204753876,-0.06007649749517441,-0.04270518943667412,-0.015424758195877075,0.07881197333335876,-0.05435120314359665,-0.010262936353683472,0.056653253734111786,-0.131417915225029,-0.06463957577943802,-0.07333281636238098,-0.06723649799823761,-0.006107972469180822,-0.11948998272418976,-0.00215099286288023,-0.028996659442782402,-0.13113944232463837,-0.12547850608825684,0.007716792169958353,-0.05933322384953499,-0.11593414843082428,-0.03216160833835602,-0.12158557027578354,-0.15193280577659607,-0.1042943224310875,-0.11151663213968277,0.03216223418712616,-0.11948417872190475,-0.05226221680641174,-0.022591590881347656,-0.13368117809295654,-0.11695147305727005,0.00035650140489451587,-0.14152997732162476,-0.04291577637195587,-0.1435774713754654,-0.040074437856674194,-0.05506138876080513,-0.09849393367767334,-0.03238286077976227,-0.08917529881000519,-0.05032471939921379,-0.12075521796941757,-0.03237668797373772,-0.018473559990525246,0.04328172653913498,-0.11911356449127197,0.02554701827466488,-0.12253735959529877,-0.1294219195842743,-0.19961541891098022,-0.06701712310314178,-0.05225782096385956,-0.04604160413146019,0.08119307458400726,-0.08275964856147766,0.0814746618270874,-0.10403741151094437,-0.051399294286966324,0.1132691279053688,-0.05171339213848114,-0.15464723110198975,-0.0554543137550354,-0.05457998439669609,-0.0432589091360569,-0.1525786966085434,-0.08184438198804855,-0.12323044240474701,-0.04305604472756386,-0.06679031997919083,-0.06548305600881577,-0.04988624528050423,-0.0787874385714531,-0.04331495240330696,-0.0075400169007480145,-0.05066310241818428,-0.09544139355421066,0.07502468675374985,-0.0795106589794159,-0.012962169013917446,-0.06068804860115051,-0.008692593313753605,-0.062132690101861954,-0.12827761471271515,-0.1402902901172638,-0.10089469701051712,-0.09634283185005188,-0.1439829021692276,-0.06462647765874863,-0.10199657082557678,-0.11263280361890793,-0.11615602672100067,-0.10209831595420837,-0.0060727959498763084,-0.1551496684551239,-0.10250792652368546,-0.010192781686782837,-0.00829277653247118,-0.06145777180790901,-0.11994092166423798,0.0010081189684569836,-0.08311164379119873,-0.13452337682247162,0.08226431161165237,-0.11690979450941086,-0.12450660020112991,0.04928533732891083,0.008471705950796604,-0.022579221054911613,-0.10438582301139832,-0.004939279984682798,-0.055436573922634125,-0.08452882617712021,-0.016947066411376,0.01667371578514576,-0.011064792051911354,0.14732590317726135,0.00797022134065628,-0.04660584405064583,0.10882026702165604,-0.10922347754240036,0.007797186728566885,0.18246005475521088,-0.03946015238761902,-0.03662483021616936,-0.500141441822052,0.27236098051071167,-0.1016174927353859,0.25477030873298645,0.5543802976608276,-0.0529097355902195,0.16450564563274384,0.2823147475719452,-0.316599041223526,0.03636184707283974,0.37682685256004333,-0.09366704523563385,0.3317360579967499,0.42638054490089417,-0.04198300838470459,0.2149409055709839,0.12411686033010483,-0.6735436320304871,0.04449077695608139,0.008670334704220295,0.008310589008033276,0.02303994446992874,-0.005531035829335451,-0.03943658247590065,0.020587671548128128,-0.08557784557342529,0.02935919724404812,0.10497917234897614,0.7590587139129639,0.0877765640616417,-0.06831713020801544,0.16880784928798676,0.5777086615562439,0.06367036700248718,-0.6424644589424133,-0.6189255714416504,0.4224241077899933,0.23030425608158112,0.03659183159470558,-0.2169768363237381,-0.007613563910126686,-0.16316263377666473,-0.8446903824806213,0.32748669385910034,-0.12152943015098572,-0.1976655125617981,-0.02592240460216999,-0.1055234968662262,-0.3532164990901947,0.21831068396568298,0.23048214614391327,-0.6839278936386108,-0.6590247750282288,-0.5131735801696777,-0.2116418480873108,-0.1693272590637207,-0.07722318917512894,0.019270403310656548,-0.039032261818647385,0.022558989003300667,0.1322227269411087,0.30280768871307373,-0.04835490882396698,0.16381153464317322,-0.6351009011268616,-0.08416369557380676,0.020366860553622246,-0.2557636797428131,0.06623412668704987,-0.10703276097774506,0.24338513612747192,0.07466396689414978,0.038892798125743866,-0.7621328830718994,-0.0013455920852720737,0.20422399044036865,-0.31699973344802856,-0.5951268076896667,-0.21876360476016998,-0.015046683140099049,-0.516315758228302,-0.5535298585891724,0.0318608395755291,-0.059213787317276,-0.5819354057312012,0.09120364487171173,0.05426660180091858,-0.45027920603752136,-0.10666457563638687,-0.05578126385807991,-0.4857407510280609,0.2884863615036011,0.027701670303940773,-0.8469425439834595,0.4550126791000366,-0.04049859941005707,-0.18498815596103668,-0.1443624198436737,0.016882674768567085,0.13379420340061188,0.3140828013420105,0.5722322463989258,-0.18421019613742828,-0.27079376578330994,0.23266324400901794,0.13459566235542297,-0.23154252767562866,-0.09515170007944107,-0.007591418456286192,-0.09785475581884384,0.2914983332157135,-0.6168971657752991,-1.3060276508331299,0.4845290780067444,-1.0140641927719116,-1.4139169454574585,-0.3587738275527954,0.4593241214752197,0.443927139043808,-0.40664294362068176,0.7203081250190735,0.6778183579444885,-0.31183767318725586,0.804027259349823,0.331042617559433,-1.4934923648834229,-0.085483618080616,-0.11836499720811844,-0.6001664400100708,-0.5303923487663269,-0.0404597632586956,-0.46616020798683167,-0.09170366823673248,-0.6922709345817566,-0.12835277616977692,-0.5038284063339233,-0.25686725974082947,-0.11131611466407776,-0.17279422283172607,0.14243781566619873,0.02943938784301281,-0.007150426506996155,0.2152935266494751,-0.4683765172958374,0.2857103645801544,0.535205066204071,-0.13252024352550507,-0.738719642162323,-0.5883724093437195,-0.02957472763955593,0.6304768323898315,0.26326847076416016,-1.1731197834014893,-0.18615636229515076,0.3019396960735321,0.2595294713973999,0.14373940229415894,0.3742436170578003,0.43982240557670593,0.2602573037147522,0.12386859208345413,0.21328924596309662,0.07280334830284119,0.09198524057865143,0.022422324866056442,0.01713249459862709,2.853034675354138e-05,-0.03928453102707863,-0.05280263349413872,0.061990734189748764,0.02689230628311634,-0.6465561985969543,-0.40798914432525635,-1.5821362733840942,-0.5456034541130066,0.36125409603118896,0.5280812978744507,0.017102699726819992,-0.1963679939508438,-0.3021226227283478,0.21566303074359894,0.1397310495376587,-0.09346647560596466,0.14122818410396576,-0.2373470962047577,0.19489479064941406,-0.08249054104089737,0.015191897749900818,-0.008377470076084137,0.11216781288385391,0.37900272011756897,0.210320383310318,-0.32944437861442566,0.23119793832302094,-0.5173996686935425,-0.08130986988544464,-0.06563784182071686,0.029395820572972298,-0.037432216107845306,-0.022051943466067314,-0.2126830816268921,0.09827772527933121,0.08144210278987885,0.1324356198310852,-0.1488768756389618,0.09535571932792664,0.13184477388858795,0.13242296874523163,-0.40639883279800415,-0.03735026344656944,-0.31659892201423645,-0.024713115766644478,0.15313446521759033,0.2750273048877716,0.3932536840438843,-0.8101111054420471,0.27698153257369995,-0.19945380091667175,-0.2230719029903412,-0.17187021672725677,-0.351296991109848,0.23145784437656403,-0.661902129650116,-0.033225856721401215,0.4452759325504303,-0.28237593173980713,-0.19987072050571442,-0.025435958057641983,-0.12123153358697891,-0.03947433456778526,-0.07900727540254593,-0.09090188890695572,-0.1141737774014473,-0.07514086365699768,-0.47063910961151123,0.5047647953033447,0.2808055281639099,-0.34147709608078003,0.12885908782482147,0.33534160256385803,-0.4970788359642029,-0.28942757844924927,0.140984907746315,0.06815174221992493,0.06598822772502899,-0.11401725560426712,-0.09353050589561462,0.07502027601003647,-0.1793019026517868,0.09512294083833694,0.1423638015985489,-0.13901133835315704,0.2558841407299042,0.0900437980890274,0.16866418719291687,0.18481619656085968,0.07915011793375015,0.03569738194346428,-1.3172630071640015,-1.2303053140640259,-0.7943844795227051,0.520179271697998,0.684435248374939,0.5388349294662476,0.5514335036277771,0.5164862275123596,0.15683411061763763,0.43649229407310486,0.2331486940383911,0.03219415619969368,0.21765658259391785,0.3486419916152954,0.45032477378845215,0.12968634068965912,0.23897720873355865,0.27988120913505554,0.3879345655441284,0.12519551813602448,-0.37443843483924866,-0.07686160504817963,0.3871648907661438,-0.22729499638080597,-0.08678498864173889,0.47238850593566895,0.6901631355285645,-0.0027060990687459707,0.22927521169185638,0.2987566888332367,-0.5950972437858582,-0.05141189321875572,-0.2544061243534088,0.07646734267473221,-0.4442517161369324,-0.17601493000984192,-0.10099587589502335,0.14811667799949646,-0.08283517509698868,0.37096232175827026,0.18346865475177765,0.0494096502661705,0.37772008776664734,0.3085390329360962,-0.05310627818107605,-0.07961089164018631,0.30629730224609375,0.06018739938735962,0.04133102670311928,0.05501987785100937,0.07182534039020538,0.009535153396427631,0.022703969851136208,0.05482961982488632,-0.05772031843662262,0.09556275606155396,0.10296306014060974,-0.13763999938964844,0.5204635858535767,-0.21648770570755005,-0.823762834072113,-0.0015020067803561687,-0.40828344225883484,-0.38077661395072937,-0.11172805726528168,0.058123715221881866,0.2985173165798187,0.17371311783790588,-0.12104379385709763,-0.0806703194975853,0.24022918939590454,0.21149441599845886,-0.5054055452346802,-0.7020321488380432,-0.20923510193824768,0.1098773181438446,0.2713569402694702,0.041869938373565674,-1.3608587980270386,-0.33142325282096863,-0.3483683168888092,-0.9793899059295654,-0.40965723991394043,-0.6565126180648804,-0.38033950328826904,-0.214508518576622,-0.559240460395813,0.1125275194644928,0.11762814968824387,-0.10553235560655594,-0.22519302368164062,0.18658560514450073,0.3974599242210388,0.032180383801460266,-0.517426073551178,-0.7341907024383545,-0.21299251914024353,-0.4403780400753021,-0.04926750063896179,0.014528981409966946,-0.6697194576263428,0.6307783126831055,-0.5573323369026184,-0.2766565680503845,-0.28157198429107666,-0.8704186081886292,-1.2323133945465088,0.1636265218257904,-0.32308489084243774,-0.6510542631149292,0.09014257788658142,0.19057434797286987,-0.21097424626350403,0.0038837555330246687,-0.08515513688325882,-0.14454689621925354,0.24850085377693176,-0.4547838866710663,-0.14957211911678314,-0.32901909947395325,0.2618493437767029,-0.25072941184043884,0.3040209114551544,-0.6954909563064575,0.03747289627790451,0.21717247366905212,-0.248930424451828,0.03788222745060921,0.22033379971981049,-0.205583855509758,-0.23761621117591858,-0.1141699030995369,-0.14295385777950287,0.2740165889263153,0.18439361453056335,0.14176973700523376,0.2006964385509491,-0.03328854218125343,0.1880771517753601,0.28040480613708496,0.08448509871959686,0.02969983220100403,0.11350599676370621,-0.12460757791996002,-0.04583946242928505,-0.25602665543556213,-0.4440900981426239,0.7509276270866394,0.26927244663238525,0.3844701647758484,0.795089602470398,0.841975212097168,0.7935774922370911,0.6777312755584717,0.4450831413269043,0.3542877435684204,-0.956792414188385,-0.4409296214580536,0.6866642236709595,-0.22785407304763794,-0.6003246903419495,-0.24074791371822357,0.3197007179260254,-0.23927538096904755,0.32469722628593445,-0.04350236430764198,0.2935996651649475,-0.009258679114282131,0.1715657114982605,0.6454735994338989,0.3397459387779236,-0.019903505221009254,0.11932045966386795,-0.054645318537950516,0.33238354325294495,-0.03311224281787872,0.04136405512690544,-0.7434436678886414,-0.09389253705739975,-0.2432992309331894,-0.3901267647743225,-0.9208381175994873,-0.32601580023765564,0.21740271151065826,0.0708397924900055,0.05608273670077324,0.016067203134298325,0.050553590059280396,0.17810681462287903,-0.16436176002025604,-0.22575391829013824,-0.042682915925979614,0.08227979391813278,0.06633017212152481,0.023263752460479736,-0.019720755517482758,-0.06795144081115723,-0.024038316681981087,0.03322642669081688,0.039652105420827866,-0.023208286613225937,-0.1384328007698059,-0.28986066579818726,-0.9536109566688538,-0.04972673952579498,0.45328962802886963,-0.32096022367477417,-0.49922749400138855,0.34620070457458496,0.14847642183303833,0.3572080433368683,0.00868520699441433,0.006387385074049234,-0.25632569193840027,0.057273488491773605,-0.012146122753620148,-0.025270938873291016,0.07236593216657639,-0.025681043043732643,0.06175265088677406,0.12305987626314163,-0.050879523158073425,0.17127741873264313,0.008776196278631687,-0.09562031179666519,-0.604036271572113,-0.22188977897167206,-0.4442322254180908,-0.003949853125959635,0.38499915599823,-0.255789190530777,-0.049374110996723175,0.07401525229215622,-0.25409582257270813,-0.2113121598958969,-0.09049534052610397,0.01531938649713993,-0.11788204312324524,-0.2679309844970703,-0.29501068592071533,-0.2699768841266632,-0.25484931468963623,0.03252103552222252,-0.1895122081041336,-0.17005352675914764,-0.8975459337234497,0.04489798843860626,-0.5326681733131409,-0.318614661693573,-0.48859483003616333,-0.4620992839336395,-0.15983915328979492,0.7894614338874817,0.14454996585845947,-0.002354118274524808,-0.10137056559324265,-0.14378722012043,-0.06350879371166229,-0.03009048104286194,-0.12131588906049728,0.03715959191322327,0.05190400034189224,0.04097689688205719,-0.03605101630091667,0.3568456470966339,0.247653067111969,0.29885801672935486,0.01189170591533184,-0.040610071271657944,-0.07092136144638062,0.2397407591342926,-0.16069947183132172,0.155178964138031,0.0034365085884928703,0.2525723874568939,0.27739661931991577,0.016640866175293922,0.0902053639292717,0.15882755815982819,0.06336069852113724,0.07645036280155182,0.038891758769750595,0.2719340920448303,-0.0368175134062767,0.09487980604171753,0.33176523447036743,0.21333929896354675,0.21783632040023804,0.351152241230011,0.05177394673228264,0.10448170453310013,1.0413089990615845,0.8846422433853149,0.9341121912002563,0.7906970977783203,0.42627882957458496,0.4868396818637848,0.4514591693878174,-0.18913091719150543,0.37153103947639465,0.31208446621894836,0.12100861966609955,-0.20130655169487,0.3032701909542084,0.07273835688829422,-0.01708087883889675,-0.12169144302606583,-0.17770585417747498,0.3346412777900696,0.24896696209907532,0.2502005994319916,-0.09593304246664047,-0.0874723345041275,-0.1047622486948967,-0.01524303574115038,-0.17583556473255157,-0.1585504412651062,0.10116606950759888,-0.5789109468460083,-0.12296877056360245,0.27408313751220703,-0.5673887729644775,0.14777645468711853,0.07448559999465942,-1.0321282148361206,-0.6024242043495178,-0.6668283939361572,-0.2859751284122467,-0.021495327353477478,0.14859049022197723,-0.15117806196212769,0.17641858756542206,-0.13605916500091553,-0.43138501048088074,-0.22937172651290894,-1.3910034894943237,-0.023650897666811943,0.0063800872303545475,-0.013970006257295609,-0.004536402877420187,0.05329642444849014,0.05469946190714836,-0.049961209297180176,-0.006588643416762352,0.018958555534482002,-0.0603453703224659,-0.23314036428928375,-0.3141058683395386,0.012820541858673096,0.7066527605056763,-0.6133484840393066,-0.983427107334137,-0.08380202949047089,-0.47522181272506714,0.23082298040390015,-0.4144870340824127,-0.13144324719905853,0.15125924348831177,-0.5106915831565857,-0.5811132192611694,-0.19599346816539764,0.018517153337597847,-0.2833632528781891,-0.04909174144268036,0.09864094853401184,0.15386685729026794,-0.16918660700321198,-0.10827666521072388,0.4140552282333374,-0.28296807408332825,-0.9493100643157959,-0.3397882878780365,-0.46530550718307495,-0.13914735615253448,-0.004387157969176769,-0.046821173280477524,-0.22914740443229675,0.17341454327106476,-0.0759015902876854,-0.1657879501581192,0.28007009625434875,-0.011695575900375843,-0.7817791104316711,-0.16378365457057953,-0.03418906778097153,-0.015432550571858883,0.4040870666503906,0.22228547930717468,0.3984375,-0.10017163306474686,0.16232465207576752,-0.4598597288131714,0.3343430757522583,-0.530034065246582,-0.2558823227882385,-0.21648848056793213,0.03474855422973633,0.8326258659362793,0.25771981477737427,-0.518216073513031,0.09096288681030273,0.19728346168994904,-0.21805930137634277,0.0766630619764328,0.03251045197248459,-0.1202879324555397,0.06988228857517242,-0.17468468844890594,-0.5283594131469727,0.18061238527297974,0.28365713357925415,-0.07002516090869904,0.021479099988937378,0.36013877391815186,-0.14751051366329193,0.11096422374248505,0.22988584637641907,0.2859472632408142,-0.018067197874188423,0.09806462377309799,0.051671504974365234,-0.2782720923423767,0.3692682087421417,0.15204551815986633,0.0646921694278717,-0.0827617421746254,0.00969507172703743,-0.4082181453704834,0.2365151345729828,-0.010073550045490265,-0.33545419573783875,0.611099362373352,-0.2489079385995865,0.07574985176324844,0.16934223473072052,0.32265037298202515,0.22139742970466614,0.6228039264678955,0.5888721346855164,0.5790116190910339,-0.06826607882976532,0.22337263822555542,0.23501351475715637,-0.8357501029968262,-0.061590030789375305,0.3255704939365387,0.1708226352930069,-0.4920850992202759,0.28178566694259644,-0.2685275375843048,-0.10815571993589401,0.22766703367233276,-0.07263185828924179,-0.5504975914955139,0.19569236040115356,0.3156625032424927,-0.13745862245559692,0.31814754009246826,-0.32969507575035095,-0.30525660514831543,0.14433220028877258,-0.3315494656562805,0.07641547918319702,0.3760097622871399,-0.3042129576206207,0.048966411501169205,-0.13505661487579346,-0.0643048956990242,-0.38640525937080383,-0.23168973624706268,-0.3428218960762024,0.09421484172344208,0.2163819819688797,-0.21321867406368256,0.2507076859474182,0.12577082216739655,0.06029824540019035,0.10637422651052475,-0.12686656415462494,-0.4342229962348938,-0.030723443254828453,-0.03979802876710892,0.039406001567840576,0.03459212929010391,-0.03410731256008148,0.05232046917080879,0.02496408112347126,0.03808395192027092,0.06882429122924805,-0.8156657814979553,-0.6365116834640503,-1.3188132047653198,0.19046910107135773,0.6707277894020081,0.010332482866942883,0.47904980182647705,-0.20861656963825226,-0.39618203043937683,-0.12373163551092148,0.2657070457935333,-0.1261298656463623,-0.04548807442188263,0.1628735214471817,0.21768738329410553,-0.3168361783027649,0.23776069283485413,0.06784752011299133,0.37896835803985596,0.23957598209381104,0.09759202599525452,-0.33164894580841064,0.49721723794937134,-0.708946168422699,-0.35447636246681213,-0.6267895102500916,-0.06431414186954498,0.037650804966688156,-0.17696845531463623,-0.33753907680511475,-0.12223368138074875,0.1407654881477356,-0.048648711293935776,-0.41816145181655884,-0.14492546021938324,-0.2664300203323364,0.1345672607421875,-0.1999203860759735,0.16620422899723053,-0.502861738204956,-0.23028166592121124,-0.3798048794269562,-0.0015920618316158652,-0.7973525524139404,-0.7567014098167419,-0.12925612926483154,-0.12228337675333023,-0.35181742906570435,-1.332659125328064,-0.6041997075080872,-0.34957966208457947,-0.14582324028015137,-0.14686186611652374,-0.42561477422714233,-0.29722708463668823,-0.02168183960020542,-0.005998025648295879,-0.04208145663142204,-0.04044293984770775,0.149811789393425,0.12033144384622574,-0.026987142860889435,-0.0018246470717713237,0.3392343521118164,0.6955188512802124,0.6640143394470215,0.05993209034204483,0.10752306133508682,-0.09783120453357697,0.22118628025054932,-0.271764874458313,-0.1289518177509308,0.18230672180652618,-0.09247932583093643,0.06829242408275604,-0.10743498802185059,0.023387398570775986,-0.1973567008972168,0.06348574161529541,-0.07455841451883316,-0.2635849118232727,0.3612322509288788,0.12402678281068802,0.22466067969799042,0.133999764919281,-0.12943346798419952,-0.05335165560245514,-0.8997348546981812,-0.5589019656181335,-0.7553653120994568,0.31164640188217163,0.2517910599708557,0.257885605096817,-0.2978982627391815,0.38340938091278076,0.3012913167476654,0.00046221844968385994,-0.06529262661933899,0.384082168340683,0.8307822942733765,0.11385225504636765,-0.0027152136899530888,0.08369942754507065,0.08781623840332031,-0.6744993925094604,0.02836664952337742,-0.14644736051559448,-0.460097074508667,-0.13565269112586975,-0.04742344468832016,-0.12897281348705292,-0.0017206274205818772,-0.05825163424015045,-0.14651547372341156,-0.022908061742782593,-0.15888021886348724,-0.011510993354022503,0.4750976860523224,-0.07502905279397964,-0.2916052043437958,0.016723694279789925,-0.29051679372787476,-0.6434047222137451,-0.6070102453231812,0.21222376823425293,-0.06759754568338394,-0.1204051524400711,0.2492164522409439,-0.2250526398420334,0.0691647082567215,0.1743336170911789,-0.4363176226615906,-0.042782075703144073,0.24929127097129822,0.17468616366386414,-0.015062151476740837,0.027759840711951256,-0.09103751182556152,0.004862604197114706,0.008410085923969746,0.06691322475671768,0.02078300528228283,-0.015116170980036259,0.0004545951960608363,0.09437309950590134,-0.07058435678482056,-0.1253955364227295,-0.22297751903533936,-0.8057674765586853,-0.23354144394397736,-0.01742606982588768,-0.3211958408355713,0.40890249609947205,-0.09060702472925186,-0.08981450647115707,-0.2511472702026367,0.029283639043569565,0.10279308259487152,-0.1549791395664215,-0.16028428077697754,0.061348799616098404,-0.08760768920183182,0.08113966137170792,0.4105687141418457,0.21305398643016815,-1.174621820449829,-0.7295721769332886,-0.9372469782829285,-0.8525058031082153,-0.364923894405365,-0.9646607041358948,0.058039478957653046,-0.19821780920028687,-0.3663399815559387,0.0005820577498525381,0.12629589438438416,-0.17842252552509308,0.017260964959859848,-0.004039814230054617,0.1191328838467598,-0.12321321666240692,-0.21148045361042023,-0.1828341782093048,-0.6625044345855713,-0.3264123797416687,-0.4330446422100067,0.006720455829054117,0.0172764603048563,0.12797273695468903,0.620634138584137,0.14953239262104034,0.30581068992614746,0.11748666316270828,-0.7047295570373535,-0.5142982006072998,0.13015799224376678,-0.8596290946006775,0.32640066742897034,0.07849197834730148,0.0661865845322609,-0.02277902327477932,-0.018976932391524315,-0.1429697722196579,-0.0866287425160408,-0.1699228584766388,-0.050951600074768066,-0.22993263602256775,0.4775114357471466,0.6882171034812927,0.2070566713809967,0.43508049845695496,0.468713641166687,0.24766966700553894,0.19911983609199524,0.3884061574935913,0.1797041893005371,-0.10287656635046005,-0.1608603149652481,-0.06956420838832855,0.01558003481477499,0.3273826539516449,0.2169787883758545,0.11179697513580322,0.05214766412973404,0.024833397939801216,0.3115256428718567,0.3559759557247162,0.23930756747722626,-0.011664658784866333,0.34341904520988464,-0.04221966490149498,-0.08186459541320801,-0.4889676570892334,-0.5213752388954163,0.23539623618125916,-0.13784058392047882,-0.16048933565616608,0.40073472261428833,0.258308082818985,0.5327546000480652,0.6805216073989868,0.4006025791168213,0.5597401857376099,-0.17977601289749146,-0.06382493674755096,0.24616986513137817,0.20003119111061096,-0.104409359395504,-0.8753995299339294,0.6506920456886292,-0.14930413663387299,-0.38733208179473877,-0.04254251345992088,-0.46561357378959656,-0.28446632623672485,0.3176496922969818,0.0019675579387694597,-0.20241865515708923,-0.09163161367177963,-0.1261310577392578,-0.30925482511520386,-0.5015519857406616,0.09945813566446304,-0.41121771931648254,0.20472010970115662,0.16282349824905396,-0.30715423822402954,0.022396119311451912,0.3207094669342041,-0.2810346782207489,0.11710002273321152,0.004459389951080084,-0.2145535796880722,0.05386259779334068,0.011821904219686985,-0.1778680980205536,0.19876272976398468,-0.07038944959640503,0.017211001366376877,0.01736736297607422,-0.006580601446330547,0.11296959966421127,0.06831005215644836,0.10581912100315094,0.09689757227897644,0.0399562232196331,-0.0020977389067411423,-0.046042297035455704,-0.13384659588336945,0.5248246192932129,0.22812218964099884,0.11060284823179245,-0.02969830296933651,-0.03361298143863678,0.7352272272109985,-0.1486242711544037,-0.037218790501356125,0.16651439666748047,-0.0791366845369339,0.35149165987968445,-0.012192221358418465,-0.2640850841999054,-0.08134348690509796,-0.3823094367980957,-0.04766671732068062,0.0021287573035806417,-0.40652626752853394,-0.09074717015028,-0.354291707277298,-0.45954689383506775,-0.1614169329404831,-0.2679550349712372,-0.27656441926956177,-0.33117425441741943,-0.3527888059616089,0.095589779317379,-0.00862582866102457,0.16452547907829285,-0.27276426553726196,-0.09994883090257645,-0.2620096206665039,-0.0008124991436488926,0.07021019607782364,0.2600884735584259,-0.07306117564439774,-0.09388542920351028,-0.35811859369277954,-0.022705378010869026,-0.24006475508213043,-0.329792857170105,0.09401441365480423,0.09037885814905167,-0.024142557755112648,0.023714980110526085,-0.8418681621551514,0.00840475969016552,0.5112663507461548,-0.9208821058273315,-0.43852120637893677,-0.16773055493831635,-0.30999183654785156,-0.2584914267063141,0.012761098332703114,-0.007416664157062769,-0.11713065952062607,-0.05922293663024902,-0.037076372653245926,-0.35029852390289307,-0.12642137706279755,-0.06023243069648743,-0.30892693996429443,-0.13145814836025238,-0.23950845003128052,0.12198826670646667,-0.4044598639011383,-0.7713313698768616,-0.1350952833890915,-0.2539578080177307,-0.09737081825733185,-0.17113196849822998,-0.200170636177063,0.013107039034366608,0.24150638282299042,0.07026024907827377,0.11519598215818405,0.0142892487347126,-0.028513582423329353,7.197301601991057e-05,0.11653008311986923,0.45912906527519226,0.18776576220989227,0.06654978543519974,-0.18424394726753235,0.23386693000793457,-0.29714980721473694,-0.40584975481033325,-0.2758193910121918,-0.16597291827201843,0.7470123171806335,1.047027349472046,0.8130910396575928,0.5118777751922607,0.733376681804657,0.31250718235969543,0.6346997618675232,0.5354945659637451,0.7079615592956543,0.09311465919017792,-0.23819394409656525,-0.11825228482484818,0.42962825298309326,0.055484551936388016,-0.272256076335907,0.17270700633525848,0.19311194121837616,-0.4188372790813446,0.035522885620594025,-0.10113625973463058,0.09355029463768005,-0.18751844763755798,-0.35552048683166504,-0.006226737052202225,-0.09474562853574753,0.03420817479491234,0.03184514865279198,0.09412433207035065,-0.001033653737977147,0.21992020308971405,-0.23913554847240448,-0.08991999179124832,-1.3586719036102295,-0.06610029190778732,0.2194221317768097,-0.04326879233121872,0.231577530503273,0.16121461987495422,0.010361641645431519,0.08395672589540482,0.023305414244532585,-1.2381212711334229,0.08335892111063004,0.08812147378921509,1.0007729530334473,-0.022333964705467224,0.018112344667315483,0.051749613136053085,-0.0019153894390910864,0.04282121732831001,-0.07306428998708725,0.012245242483913898,-0.0751306340098381,-0.007428735960274935,-0.3977108597755432,0.6110715866088867,0.409245103597641,-0.20542995631694794,-0.019497614353895187,-0.47642648220062256,-0.08050879091024399,-0.38181230425834656,0.6833683252334595,0.1364232301712036,-0.040179479867219925,-0.5015671849250793,-0.3064914643764496,-0.015018267557024956,0.27661794424057007,-0.47134310007095337,0.1383754462003708,0.014544102363288403,0.08607197552919388,0.24581800401210785,0.2721055746078491,-0.9691876769065857,-0.7129048705101013,-0.026843756437301636,-0.8113278150558472,-0.32981348037719727,-0.1274552345275879,-0.263629287481308,-0.8284634947776794,-0.07059979438781738,-0.2048773616552353,0.19730491936206818,-0.4453839957714081,0.4583165645599365,-0.17521269619464874,0.16206376254558563,-0.12347318977117538,-0.3393228054046631,-0.42362838983535767,0.11168945580720901,-0.7325665950775146,-0.031377315521240234,0.10925804078578949,-0.11264965683221817,-0.4541553556919098,-0.07871886342763901,-0.35513386130332947,-0.5098057389259338,0.0404767245054245,0.16834188997745514,-1.092591404914856,0.002846022369340062,0.37606433033943176,-0.48719510436058044,-0.17668406665325165,-0.25887301564216614,-0.12328991293907166,-0.25265899300575256,0.03222855180501938,-0.12165838479995728,-0.33749499917030334,-0.04535853862762451,0.09465354681015015,0.027416901662945747,-0.6076820492744446,0.37210196256637573,0.15259014070034027,0.16257452964782715,-0.3599044680595398,-0.2574590742588043,-0.4995701014995575,-0.9353809356689453,-0.10915961861610413,-0.13510964810848236,-0.28994420170783997,0.2099582999944687,0.22026962041854858,0.5066413283348083,0.05696022883057594,0.12836529314517975,0.16892269253730774,-0.045804791152477264,0.06482580304145813,0.08004812896251678,-0.19390025734901428,-0.13486061990261078,0.08872268348932266,0.17351950705051422,-0.3646800220012665,-1.213677167892456,0.17476025223731995,0.619233250617981,0.05386916548013687,0.1379697173833847,0.6081852316856384,0.12304282933473587,0.4323013126850128,0.3535589575767517,0.6813665628433228,-0.04058443382382393,-0.27816036343574524,-0.13482555747032166,-0.05179375410079956,-0.15999294817447662,-0.26862046122550964,0.08491764217615128,-0.15814922749996185,-0.09586720168590546,-0.4265640377998352,-0.13681647181510925,0.14303801953792572,-0.393696129322052,-0.39233866333961487,-0.2689950168132782,-0.3723522424697876,-0.11543005704879761,-0.5764502882957458,0.41611945629119873,0.07699019461870193,-0.16602398455142975,-0.5174274444580078,-0.48484545946121216,-0.10311274975538254,-0.991237998008728,-1.1101953983306885,-0.6197846531867981,0.0605473667383194,0.08276021480560303,0.20253558456897736,0.098375603556633,0.052808694541454315,0.27982863783836365,-0.19324827194213867,-0.07908076047897339,-0.27226999402046204,0.06961555778980255,-0.019127024337649345,0.03326020762324333,-0.04835931584239006,-0.017367349937558174,0.09171796590089798,0.016649316996335983,0.07295531034469604,0.015386535786092281,0.15266552567481995,-0.347324937582016,-0.08143728971481323,-0.27864590287208557,-0.07685662060976028,0.41217318177223206,-0.3398699462413788,-0.4526427984237671,0.6092951893806458,0.03248455002903938,-0.12735001742839813,0.10150273144245148,-0.260150283575058,0.0037474038545042276,0.21011953055858612,0.077102892100811,-0.319217711687088,0.2953492999076843,0.10856852680444717,0.16062666475772858,0.09169628471136093,-0.20361143350601196,0.013727420940995216,-0.302656888961792,-1.0012962818145752,-0.39192694425582886,-0.42378658056259155,-0.29523736238479614,0.21602647006511688,-0.03528914973139763,-0.23288309574127197,0.09945116192102432,0.007871624082326889,0.03698286786675453,-0.11578283458948135,0.09867330640554428,-0.3378819525241852,-0.2680947184562683,-0.019640246406197548,0.08791778981685638,-0.4041917622089386,0.08377368003129959,0.45829811692237854,-0.4037814438343048,-0.33643147349357605,-0.04703988507390022,-0.017459919676184654,-0.06427500396966934,-0.3161257803440094,-0.7690392732620239,0.011660491116344929,0.13985370099544525,0.3159961700439453,0.10728073865175247,-0.013804002664983273,0.004706446547061205,0.18399818241596222,0.00893956795334816,-0.05637954920530319,-0.04256809875369072,-0.05314835533499718,-0.03571489080786705,-0.043097928166389465,-0.5138373374938965,0.12361814081668854,0.1013059914112091,-0.05229960009455681,0.2478829324245453,-0.05954475328326225,-0.0011715919245034456,-0.025436310097575188,0.1378767192363739,0.13645902276039124,0.009288517758250237,0.02135045826435089,0.21908341348171234,-0.12402894347906113,-0.23623797297477722,0.18546204268932343,0.02426588349044323,-0.38610774278640747,-0.1257149875164032,0.2962009310722351,-0.2418200671672821,-0.5306040644645691,0.27007341384887695,-0.35465747117996216,0.14311106503009796,0.3512619435787201,-0.13074509799480438,0.7237477898597717,0.9177079200744629,0.3199215829372406,1.1019638776779175,0.862048864364624,0.39131826162338257,0.9010053873062134,0.47632914781570435,0.07613523304462433,-0.435676246881485,0.20129252970218658,0.5951254963874817,-0.08351868391036987,-0.6641198396682739,0.054635271430015564,-0.48353680968284607,-0.6839496493339539,-0.4154057204723358,0.023287508636713028,-0.05426867678761482,-0.017649289220571518,-0.11704511195421219,0.17221200466156006,-0.41774672269821167,-0.2538176476955414,-0.022349491715431213,-0.31373196840286255,-0.03712087124586105,0.038128726184368134,-0.0665348470211029,-0.08266104012727737,-0.012073684483766556,-0.09200698137283325,-0.03267877921462059,-0.07435205578804016,0.05224071443080902,0.061093587428331375,-0.013646525330841541,-0.055885471403598785,0.0670829713344574,-0.05802636593580246,0.014604566618800163,0.0034246770665049553,-0.07803680747747421,0.030139097943902016,-0.028173666447401047,-0.02166886255145073,-0.07447143644094467,-0.018614819273352623,0.023210247978568077,0.012981276027858257,0.04968872666358948,0.012789716944098473,0.02887079119682312,-0.015010113827884197,-0.0649668499827385,-0.06446351110935211,-0.043617814779281616,-0.06290324777364731,-0.0632726177573204,0.010775909759104252,-0.06576418876647949,0.07122674584388733,-1.0132667966900044e-06,-0.052339132875204086,0.02497352845966816,-0.00882580503821373,-0.05514759570360184,0.022479623556137085,-0.0814078077673912,-0.03636924549937248,-0.07601550221443176,-0.04459716007113457,0.0003826723841484636,-0.05169025436043739,0.06358374655246735,-0.0008830989245325327,-0.12067651003599167,-0.07363572716712952,-0.0004898168845102191,-0.01644825004041195,-0.018522093072533607,0.011242394335567951,-0.07339975237846375,0.008390539325773716,-0.08377319574356079,-0.06861568987369537,-0.10129741579294205,-0.0418606698513031,-0.02684284746646881,-0.0517551563680172,-0.022793952375650406,-0.06450742483139038,-0.029136475175619125,-0.08182808011770248,0.01964402198791504,0.027793580666184425,-0.01736123487353325,-0.04288617894053459,-0.10364041477441788,-0.09010205417871475,-0.10318441689014435,0.041214294731616974,0.011116444133222103,0.03033827431499958,-0.08381570875644684,-0.07039174437522888,-0.018707286566495895,-0.0870286077260971,-0.08962327986955643,-0.0825170949101448,-0.016122594475746155,-0.005096046719700098,-0.09942322224378586,0.012026351876556873,-0.059265125542879105,-0.013972264714539051,-0.08182361721992493,0.020586689934134483,0.0053158169612288475,0.026663755998015404,-0.10439083725214005,0.0384695790708065,0.02494778484106064,0.052111752331256866,0.010016712360084057,-0.08942097425460815,-0.046450693160295486,0.04958491027355194,-0.0988667830824852,0.007327907253056765,0.05819873511791229,-0.07392190396785736,0.000739118258934468,0.021859867498278618,0.02785893715918064,-0.0029869640711694956,0.013101971708238125,-0.049077022820711136,-0.004943897482007742,-0.0852726623415947,-0.0962897539138794,-0.09536752104759216,-0.0018799197860062122,-0.04029879346489906,-0.09297464042901993,0.02274397760629654,-0.011654050089418888,0.014985216781497002,-0.1086558997631073,-0.013532180339097977,0.024027714505791664,-0.0087449811398983,-0.058368634432554245,0.01067255437374115,-0.0383029468357563,0.008944281376898289,-0.027328023687005043,-0.04358209669589996,-0.0384943000972271,0.022604135796427727,-0.1030404195189476,0.030124254524707794,-0.03940221667289734,-0.10274946689605713,-0.07487194240093231,0.0015578243182972074,-0.08619031310081482,0.027696123346686363,0.02449434995651245,-0.06143578886985779,-0.5499089956283569,-0.2277018278837204,-0.3898806869983673,0.09077272564172745,0.6360229849815369,-0.017564624547958374,0.4068138003349304,0.41705143451690674,0.18558043241500854,0.38197576999664307,0.2026163935661316,-0.2991432547569275,0.3537353277206421,0.3594434857368469,-0.2969606816768646,0.17748889327049255,0.41973987221717834,0.33959344029426575,0.04915870353579521,0.03905153647065163,0.055010177195072174,0.0665733590722084,0.08400986343622208,0.0037893836852163076,0.025268135592341423,0.06694281101226807,0.0032121094409376383,0.20992130041122437,0.10260505974292755,-0.07656450569629669,-0.2516099214553833,0.5060648918151855,0.17579570412635803,-0.3276159167289734,0.3015027642250061,0.244924396276474,-0.34572944045066833,0.012269019149243832,-0.0059901997447013855,-0.07329461723566055,0.3492594361305237,0.18940576910972595,0.006799424532800913,0.06545371562242508,-0.01965572126209736,-0.21768054366111755,0.03783563897013664,0.030071748420596123,-0.5556403994560242,-0.3482615053653717,-0.6236729025840759,0.07673346996307373,0.1849735528230667,-0.09548834711313248,-0.31477734446525574,-0.20017607510089874,-0.2063254714012146,-0.12259172648191452,-0.1364457756280899,-0.06617597490549088,-0.29277631640434265,0.03496198728680611,0.28827956318855286,-0.3859277069568634,-0.6669139266014099,-0.3570426404476166,-0.11020290851593018,-0.5788182616233826,-0.10301034897565842,-0.2925631105899811,-0.482937753200531,0.4094492197036743,-0.6551693677902222,-0.4113510549068451,-0.3897438645362854,-0.1593623161315918,-0.27332696318626404,-0.32382920384407043,0.10656457394361496,0.6264925599098206,-0.22715142369270325,-0.030149850994348526,-0.09393413364887238,-0.16884765028953552,-0.011253039352595806,0.033350784331560135,0.03189209848642349,-0.1792050153017044,-0.10193272680044174,-0.02221546322107315,0.05387668311595917,-0.07117907702922821,0.6242186427116394,-0.4352407455444336,0.0016447935486212373,0.058472733944654465,-0.20313020050525665,-0.49808433651924133,-0.1336859166622162,-0.16448929905891418,-0.09598827362060547,-0.18247786164283752,-0.19082596898078918,0.22544851899147034,0.10770987719297409,-0.19750244915485382,-0.19519853591918945,0.031546082347631454,0.12733899056911469,0.4590599536895752,0.003397159045562148,0.10548067092895508,0.5361460447311401,0.2604021728038788,0.3044300377368927,-0.2604290544986725,-0.587816059589386,0.64365154504776,0.6857548952102661,-0.08845308423042297,0.5847482681274414,0.7674867510795593,0.4084368646144867,0.7713125348091125,0.7115210890769958,0.5772325396537781,-0.18929484486579895,-0.2472391426563263,0.4760127067565918,-0.0342373251914978,0.0056769149377942085,-0.524864912033081,0.026477158069610596,0.26647600531578064,-0.00714468490332365,-0.13399755954742432,-0.025499414652585983,0.43357858061790466,-0.11481180787086487,0.12765717506408691,0.4777555763721466,-0.08589670062065125,0.10546533763408661,-0.1534954458475113,-0.0341939814388752,0.0007193967467173934,0.006729453336447477,0.00749251339584589,-0.036637820303440094,-0.0314919613301754,0.006083335727453232,0.002024642424657941,0.016435325145721436,-0.04509369283914566,-0.052961256355047226,-0.061141323298215866,0.0017431641463190317,0.040636371821165085,0.004539585672318935,-0.029501119628548622,-0.11356723308563232,-0.06264367699623108,0.052265167236328125,-0.041284944862127304,0.002002114662900567,-0.028949037194252014,0.045874204486608505,0.018199384212493896,-0.015856217592954636,0.02915160357952118,-0.051358044147491455,0.01912403106689453,-0.009123957715928555,-0.005405846983194351,-0.0646512359380722,-0.08473867177963257,-0.11381236463785172,0.04277823120355606,-0.07496936619281769,-0.008919239975512028,-0.030285265296697617,0.024006428197026253,-0.056149937212467194,-0.02965700812637806,-0.011409267783164978,0.05076318606734276,-0.08310091495513916,0.03656779229640961,0.030741743743419647,-0.022078262642025948,0.0068410723470151424,-0.03840046003460884,-0.09900367259979248,-0.03198213875293732,-0.0501876100897789,-0.0479300394654274,0.051326535642147064,-0.010256917215883732,-0.03312020003795624,-0.0218050517141819,0.017031816765666008,0.04010029882192612,0.02977738343179226,-0.09667607396841049,-0.06750470399856567,-0.08253376185894012,0.0014137652469798923,-0.050174612551927567,-0.05119772627949715,-0.06152050197124481,-0.0326048843562603,-0.07623980939388275,0.0017126334132626653,-0.05031784623861313,-0.07579375058412552,0.03371337056159973,0.012492654845118523,-0.01369132287800312,-0.052379269152879715,-0.05402299389243126,-0.13700217008590698,0.07982565462589264,-0.09204912930727005,-0.05185618996620178,0.04449687898159027,-0.06297127902507782,-0.12824702262878418,-0.008684189058840275,-0.07062055170536041,-0.11236459016799927,-0.01860581710934639,0.006373872980475426,-0.005766166839748621,0.03535056114196777,-0.1253083348274231,0.004684628453105688,0.003184952074661851,-0.056695275008678436,-0.016354963183403015,-0.0923067256808281,-0.0018282094970345497,0.033707696944475174,-0.03412395715713501,0.017500635236501694,-0.07171650230884552,0.03227894380688667,0.011905313469469547,-0.05895321071147919,-0.0739288181066513,-0.04755287244915962,-0.03239243105053902,-0.04223264381289482,-0.036787331104278564,-0.07383834570646286,0.038992173969745636,-0.05068517476320267,-0.061135582625865936,0.011281226761639118,-0.12225902825593948,-0.08168017864227295,-0.012973901815712452,-0.10220814496278763,0.028850378468632698,-0.06273037195205688,-0.08846305310726166,-0.03763720765709877,-0.009195895865559578,-0.06411580741405487,-0.06909605115652084,-0.08427437394857407,-0.03257337212562561,-0.06966248899698257,0.015517123974859715,-0.07734605669975281,-0.019995925948023796,0.04575224220752716,-0.03638371825218201,0.006244523450732231,-0.12615127861499786,-0.003197206649929285,-0.10063739120960236,-0.11113768070936203,-0.04569082707166672,-0.1113571748137474,0.023553790524601936,0.03639223799109459,0.03827884420752525,-0.044605057686567307,0.39897820353507996,0.14769181609153748,0.03495866060256958,0.08535994589328766,0.3113146126270294,-0.10266002267599106,-0.2256173938512802,-0.13241714239120483,-0.2727895975112915,-0.06584887951612473,0.060840263962745667,0.6206291317939758,-0.03661239892244339,-0.12495804578065872,0.5407646894454956,-0.28615543246269226,-0.1892983317375183,0.5001130700111389,0.004165280144661665,0.04693399742245674,0.04610538110136986,-0.0032806098461151123,0.024159090593457222,0.054842207580804825,0.0014093227218836546,-0.015635492280125618,-0.0239734910428524,0.14563661813735962,-0.12400050461292267,-0.06050249561667442,-0.19372880458831787,-0.13517063856124878,-0.017640141770243645,-0.2165469229221344,0.009061319753527641,0.07490440458059311,0.19812443852424622,-0.015666209161281586,0.08215469866991043,-0.25175148248672485,-0.03934123367071152,-0.03147798776626587,-0.2488260716199875,-0.1479618102312088,0.1249004676938057,0.17524310946464539,0.22348333895206451,0.03879358991980553,-0.003386059310287237,-0.0774422213435173,0.17445799708366394,-0.023964818567037582,0.030135633423924446,0.0753568708896637,-0.3037067651748657,0.013486569747328758,0.06996972858905792,-0.09517702460289001,0.14418472349643707,0.07284151017665863,-0.08993595838546753,-0.05312067270278931,0.06049279496073723,-0.013332637026906013,0.07310483604669571,0.11061664670705795,0.16640008985996246,0.21063220500946045,0.09525825083255768,0.08298193663358688,0.2510617673397064,-0.13887889683246613,-0.03520473837852478,-0.6404557824134827,0.21626491844654083,-0.08012116700410843,-0.3033480644226074,0.4646959602832794,0.05776868760585785,0.23075255751609802,0.3172492980957031,-0.4297574460506439,-0.152693971991539,-0.016086185351014137,-0.07756052911281586,-0.023697223514318466,0.1329110711812973,0.029537783935666084,0.06317138671875,0.016462014988064766,-0.27118566632270813,-0.06324046850204468,-0.26100900769233704,-1.1315921545028687,-0.923312783241272,-0.40440982580184937,-0.7785243391990662,-0.30387604236602783,-0.7816597819328308,0.14742282032966614,0.06219257786870003,0.027740202844142914,0.1531112939119339,-0.018072208389639854,-0.22636975347995758,0.2997077405452728,0.13289575278759003,-0.28132668137550354,0.16158686578273773,-0.09053163975477219,0.1870584636926651,-0.7174001932144165,-0.31190529465675354,-0.6575697660446167,-0.702799379825592,-0.5865597724914551,-0.5954025387763977,0.3376518487930298,0.03778533637523651,-0.14600536227226257,0.339423805475235,0.07403546571731567,-0.1707601547241211,-0.21766537427902222,-1.4254467487335205,-0.9896333813667297,-0.3589722216129303,0.11695916205644608,-0.2693600058555603,-0.27423661947250366,0.10815667361021042,-0.8168219327926636,-0.5116239786148071,-0.19627119600772858,-0.2678033113479614,0.034325260668992996,0.004924841225147247,0.23332731425762177,-0.20516400039196014,-0.15719357132911682,0.18087618052959442,-0.3170001804828644,-0.10146687179803848,0.07356277853250504,0.44980359077453613,0.23396125435829163,-0.16733816266059875,-0.3518298268318176,-0.2991189956665039,-0.47650760412216187,0.07910027354955673,0.5315418243408203,-0.26751938462257385,-0.17729300260543823,0.286232590675354,0.30962038040161133,0.21113741397857666,-0.21956585347652435,0.2002052217721939,-0.14378298819065094,0.33010366559028625,0.19648607075214386,-0.00999192800372839,0.033819086849689484,0.017998158931732178,-0.03186599537730217,0.0111481212079525,-0.10040562599897385,-0.06164095923304558,-0.0822320431470871,0.01882879249751568,-0.10487498342990875,0.11562898755073547,-0.5564707517623901,0.3239193558692932,0.0064503950998187065,0.3140488564968109,0.06464952975511551,-0.22018806636333466,0.6700704097747803,-0.0925351232290268,-0.054074980318546295,0.0270997267216444,-0.028098376467823982,0.24613693356513977,0.26397156715393066,-0.29319676756858826,-0.09497863799333572,0.04454667866230011,0.18283651769161224,0.42195644974708557,0.21528682112693787,-0.2980346381664276,0.07928057014942169,-0.45820847153663635,-0.5897336602210999,0.09045272320508957,0.1000472754240036,-0.11471313238143921,0.22376541793346405,-0.04197411984205246,0.1013324111700058,-0.47686904668807983,-0.8523964881896973,-0.025548387318849564,-0.04317731037735939,0.21869339048862457,-0.4267486035823822,-0.875158965587616,-0.48893919587135315,0.10975241661071777,0.01448859553784132,-0.5974610447883606,0.29657047986984253,-1.4891481399536133,0.3677900433540344,-0.33488214015960693,-0.34827396273612976,0.1680212765932083,-0.5356028079986572,-1.1272221803665161,0.3040927052497864,-1.1577754020690918,-0.5991312265396118,-0.43839961290359497,-0.7423468232154846,-0.4523560106754303,0.14950652420520782,-0.2240877002477646,-0.23298479616641998,0.08448781073093414,0.17515984177589417,-0.1914299577474594,-0.03574643284082413,0.1083151251077652,0.19797751307487488,0.350309818983078,0.6295120716094971,0.07259596139192581,-0.37545955181121826,0.2520558536052704,0.4084785282611847,-0.7496163845062256,-0.3215274512767792,0.5639982223510742,-0.06844200938940048,-0.1632881909608841,0.2349584549665451,-0.4675809442996979,-0.25349679589271545,-0.13979500532150269,-0.6492258906364441,0.21276865899562836,-0.2753692865371704,-0.3209190368652344,-0.3014000952243805,0.19996590912342072,-0.022914621978998184,-1.7163925170898438,-2.2737696170806885,-0.5938835740089417,-0.5705555081367493,0.002166870515793562,-0.3576708734035492,0.6893173456192017,-0.5542008876800537,0.26069170236587524,0.1246945708990097,0.7381973266601562,0.69597327709198,-0.5701565742492676,-0.18157857656478882,0.44158345460891724,-0.22556154429912567,0.16455025970935822,0.04244695603847504,-0.37189045548439026,0.28285422921180725,-0.12290780246257782,0.012711018323898315,0.2509634494781494,-0.5965301990509033,-0.6659024357795715,-0.18735161423683167,-0.5472704172134399,0.19158855080604553,-0.37209609150886536,-0.5714777708053589,0.23216307163238525,-0.012507230043411255,0.08507145196199417,0.3484668433666229,0.045822858810424805,0.2777045965194702,0.2512899339199066,0.23065216839313507,0.10186812281608582,-0.11852134019136429,-0.05587097629904747,0.7391185164451599,-0.2488238364458084,-0.07119041681289673,0.7533771991729736,-0.16242243349552155,-0.22015231847763062,0.52781742811203,0.04553738236427307,-0.08129797130823135,0.07409876585006714,0.012223201803863049,-0.09762053936719894,-0.06490568071603775,0.05545877665281296,0.050076406449079514,-0.00512494333088398,-0.09944520890712738,0.11785384267568588,0.1273464411497116,0.04922356456518173,0.24755924940109253,0.12689687311649323,0.09394504874944687,0.05447123944759369,0.06651929020881653,0.0872780978679657,-0.03758842125535011,0.077255979180336,0.05982030928134918,-0.04328213632106781,0.24237947165966034,0.24101729691028595,-0.19314084947109222,0.151957169175148,-0.020264331251382828,0.14617951214313507,0.06626187264919281,0.13874992728233337,0.07709997147321701,0.11466718465089798,0.05398638918995857,0.09559966623783112,0.21555203199386597,0.0836203321814537,-0.14423899352550507,0.05140651389956474,0.10998617857694626,-0.02149917185306549,0.24992431700229645,-0.15204991400241852,-0.22169053554534912,0.18613241612911224,0.02548675425350666,-0.14256858825683594,-0.10808241367340088,0.07016906142234802,0.006376875098794699,0.14141415059566498,-0.04302430525422096,0.144648939371109,-0.007773491088300943,0.0017189395148307085,0.010337051004171371,-0.12760646641254425,-0.19299715757369995,-0.13541792333126068,0.5803821086883545,0.03449151664972305,-0.2270824909210205,0.33333247900009155,-0.3042732775211334,-0.4348085820674896,0.08362410217523575,-0.0998862013220787,-0.21231494843959808,-0.02928624488413334,-0.05241888016462326,-0.08331190049648285,0.01497949194163084,-0.20169511437416077,0.3163088858127594,-0.05267377197742462,-0.45019882917404175,0.009270028211176395,0.11919161677360535,-0.4756915867328644,-0.03261275961995125,-0.42163655161857605,-0.18797744810581207,-0.23412102460861206,-0.11528092622756958,0.08944597840309143,0.08149544149637222,-0.1321393847465515,0.16606833040714264,0.024732330814003944,-0.26642709970474243,0.07373961061239243,0.06078416854143143,-0.0743938758969307,-0.2751038372516632,-0.19341494143009186,-0.3643183708190918,-0.5375104546546936,-0.3406418263912201,-0.4397413730621338,0.2271600365638733,-0.13999882340431213,-0.14621210098266602,0.24194882810115814,0.17014189064502716,-0.06286989897489548,0.20497842133045197,-0.2258523404598236,-0.8978546857833862,0.19042567908763885,0.04245449975132942,-0.4159103035926819,-0.30084481835365295,0.04656314477324486,0.0914142057299614,0.1229032576084137,-0.5204063653945923,-0.3458319306373596,0.12599244713783264,0.054647624492645264,-0.30112993717193604,-0.15449002385139465,-0.15900875627994537,-0.20424823462963104,-0.0928323045372963,-0.3571518361568451,0.1510412096977234,-0.540571928024292,-0.2645221948623657,-0.12875191867351532,0.013539335690438747,0.3034949004650116,-0.3299902081489563,0.1412116289138794,0.4103052318096161,-0.39542511105537415,0.42256250977516174,0.2403007298707962,-0.19408974051475525,0.4399898052215576,0.34724536538124084,-0.19065986573696136,0.23356576263904572,0.32654905319213867,0.20766206085681915,-0.06340315192937851,0.05611463263630867,0.10140378773212433,-0.00026463280664756894,0.07717876881361008,-0.01847964897751808,0.010696492157876492,-0.03427591174840927,0.06284903734922409,-0.18849441409111023,0.40922680497169495,-0.5408470630645752,-0.7577064633369446,0.21708430349826813,-0.593799889087677,-0.27024173736572266,0.07132681459188461,-0.47779542207717896,0.31944572925567627,-0.04318205267190933,-0.07735372334718704,0.09659518301486969,0.10081746429204941,0.07074173539876938,-0.011455100029706955,-0.06394487619400024,-0.05671536549925804,-0.03116307407617569,0.18570278584957123,-0.12670275568962097,-0.5274515151977539,-0.008179539814591408,-0.46667587757110596,-1.4071420431137085,-0.5772061347961426,-0.6175863742828369,-0.1719299703836441,0.02544911950826645,-0.32453593611717224,-0.2459622025489807,0.13857345283031464,-0.18365219235420227,-0.18369533121585846,0.143423929810524,0.08848223090171814,-0.550675630569458,-0.5941640734672546,-0.8932859301567078,-0.8140238523483276,-0.5779860615730286,-0.6197035908699036,-0.6666553616523743,-0.050347451120615005,0.0011050199391320348,-0.5252965092658997,-0.6563969850540161,-0.2869272530078888,0.15481674671173096,-1.2901504039764404,0.034134067595005035,-0.47857144474983215,-0.8187072277069092,-0.14913374185562134,-0.07194723188877106,0.012694885954260826,0.05963456630706787,0.050908543169498444,-0.035074908286333084,-0.011059422045946121,0.030622102320194244,0.025273969396948814,-0.16640041768550873,0.07451510429382324,-0.6005660891532898,0.17616555094718933,-0.16972441971302032,0.013209902681410313,0.024108296260237694,-0.4557938277721405,-0.1451902985572815,-0.13187271356582642,0.03719458729028702,0.14171385765075684,-0.0582781583070755,-0.03510870039463043,0.20559324324131012,-0.15388473868370056,-0.010967823676764965,-0.15748457610607147,-0.17617429792881012,0.22051866352558136,0.32722389698028564,-0.012515903450548649,0.08717811107635498,0.26012125611305237,0.05900880694389343,-0.11548567563295364,-0.1411089450120926,-0.6499274373054504,0.6146370768547058,0.2906948924064636,0.12108179926872253,